SVM-light Version V5.01-TK-1.2
0 # kernel type
3 # kernel parameter -d 
1 # kernel parameter -g 
1 # kernel parameter -s 
1 # kernel parameter -r 
empty# kernel parameter -u 
0.4 # kernel parameter -L 
1 # kernel parameter -T 
T # kernel parameter -C 
1 # kernel parameter -F 
0 # kernel parameter -S 
1.000000 # kernel parameter -D 
3 # kernel parameter -N 
S # kernel parameter -V 
S # kernel parameter -W 
33598 # highest feature index 
1190 # number of training documents 
526 # number of support vectors plus 1 
0.041551676 # threshold b, each following line is a SV (starting with alpha*y)
-0.01387716946774886217497169127455 1:1 10:1 17:1 18:1 19:1 20:1 21:1 24:1 25:1 26:1 27:1 28:1 29:1 30:1 31:1 32:1 33:1 34:1 35:1 36:1 37:1 38:1 2192:1 2193:1 2194:1 2195:1 2196:1 2197:1 2198:1 2200:1 2202:1 2203:1 2204:1 2205:1 2206:1 2207:1 2208:1 2209:1 2210:1 2211:1 2212:1 2213:1 2214:1 2215:1 2216:1 3801:2 3802:30 3803:1 3804:1 3805:1 3806:1 3809:1 3811:1 3813:1 3815:1 3817:1 3819:1 3820:1 3821:1 3822:1 3823:1 4569:1 4570:1 4571:1 4575:1 4576:1 4577:1 4591:1 5414:1 5415:1 5416:1 5417:1 5418:1 5419:1 5424:1 5426:1 5427:1 5428:1 5429:1 5430:1 5431:1 5432:1 5433:1 5439:1 5440:1 5442:1 5454:1 5455:1 5456:1 5457:1 5458:1 5459:1 5460:1 5461:1 5462:1 5463:1 5464:1 5465:1 5466:1 5467:1 5472:1 5473:1 5474:1 5475:1 5476:1 5477:1 5478:1 5479:1 5480:1 5481:1 5482:1 5483:1 5491:1 5492:1 5496:1 5497:1 5502:1 5503:1 5507:1 5508:1 5522:1 5528:1 5532:1 5533:1 5534:1 5535:1 5566:1 5567:1 5578:1 5579:1 5594:1 5595:1 5600:1 5601:1 5602:1 5603:1 5604:1 5605:1 5608:1 5609:1 5610:1 5611:1 5612:1 5613:1 5614:1 5615:1 5616:1 5617:1 5618:1 5619:1 5620:1 5621:1 5622:1 5623:1 5624:1 5625:1 5626:1 5627:1 5628:1 5629:1 5630:1 5631:1 5632:1 5633:1 5634:1 5635:1 5636:1 5637:1 5638:1 5639:1 5640:1 5641:1 5642:1 5643:1 5644:1 5645:1 5646:1 5647:1 5648:1 5649:1 5650:1 5651:1 5652:1 5653:1 5654:1 5655:1 5656:1 5703:1 5704:1 5705:1 5706:1 5707:1 5708:1 5709:1 5710:1 5711:1 5712:1 5713:1 5714:1 5715:1 5716:1 5717:1 5718:1 5719:1 5720:1 5721:1 5722:1 5723:1 5724:1 5725:1 5726:1 5727:1 5728:1 5729:1 5730:1 5731:1 5732:1 5733:1 5734:1 5735:1 5736:1 5737:1 5738:1 5739:1 5740:1 5741:1 5742:1 5743:1 5744:1 5745:1 5746:1 5747:1 14474:1 14475:1 14476:1 14486:1 14487:1 14488:1 14495:1 14496:1 14497:1 14507:1 14508:1 14509:1 14516:1 14517:1 14518:1 14522:1 14523:1 14524:1 14525:1 14526:1 14527:1 14528:1 14529:1 14530:1 14531:1 14532:1 14533:1 14534:1 14535:1 14536:1 14537:1 14538:1 14539:1 14540:1 14541:1 14542:1 14543:1 14544:1 14545:1 19592:1 19594:1 19595:8 19597:1 19598:1 19599:1 19600:1 19601:1 19602:1 19603:1 19604:1 19605:1 19606:1 19607:1 19608:1 19609:1 19610:1 19611:1 19612:1 19613:1 19614:1 19615:1 19616:1 19617:1 19618:1 19619:1 19620:1 19621:1 19622:1 19623:1 19624:1 19625:1 19626:1 19627:1 19628:1 19629:1 19630:1 19631:1 19632:1 19633:1 19634:1 19635:1 19636:1 19637:1 19638:1 19639:1 19640:1 19641:1 19642:1 19643:1 19644:1 19645:1 19646:1 19647:1 19648:1 27862:5 27863:1 27864:1 27865:1 27866:1 27867:1 27868:1 27871:1 27872:1 27874:1 27875:1 27876:1 27877:1 27878:1 27879:1 27880:1 27881:1 27882:1 27883:1 27884:1 27885:1 27886:1 27887:1 27888:1 27889:1 27890:1 27891:1 27892:1 27893:1 27895:1 27896:1 27897:1 27898:1 27899:1 27900:1 27901:1 27902:1 27903:1 27904:1 27905:1 27906:1 27908:1 27909:1 27910:1 27911:1 27912:1 27913:1 27914:1 27920:1 27925:1 27926:1 27927:1 27930:1 27931:1 27932:1 27933:1 27934:1 27935:1 27936:1 27937:1 27938:1 27939:1 27940:1 27941:1 27942:1 27943:1 27944:1 27945:1 27946:1 27947:1 27948:1 27949:1 27950:1 27951:1 27952:1 27953:1 27954:1 27955:1 27956:1 27957:1 27958:1 27959:1 27960:1 27961:1 27962:1 27963:1 27964:1 27965:1 27966:1 27967:1 27968:1 27969:1 27970:1 27971:1 27972:1 27973:1 27974:1 27975:1 27976:1 27977:1 27978:1 27979:1 27980:1 27981:1 27982:1 27983:1 27984:1 27985:1 27986:1 27987:1 27988:1 27989:1 27990:1 27991:1 27992:1 27993:1 27994:1 27995:1 27996:1 27997:1 27998:1 27999:1 28000:1 28001:1 28002:1 28003:1 28004:1 28005:1 28006:1 28007:1 28008:1 28009:1 28010:1 28011:1 28012:1 28013:1 28014:1 33592:1 33595:1  |EV| 
-0.0056108126098637217671338817126525 1:1 9:1 17:1 18:1 23:1 24:1 26:1 27:1 31:1 38:1 39:1 40:1 41:1 42:1 43:1 44:1 45:1 46:1 2192:1 2193:1 2196:1 2201:1 2202:1 2203:1 2209:1 2212:1 2217:1 2218:1 2219:1 2220:1 2221:1 2222:1 2223:1 2224:1 2225:1 2226:1 2227:1 2228:1 3801:1 3802:22 3803:1 3804:1 3805:1 3809:1 3810:1 3811:1 3813:1 3815:1 3817:1 3820:1 3821:1 3822:1 3823:1 4569:1 4570:1 4571:1 4575:1 4576:1 4577:1 4591:1 5418:1 5424:1 5430:1 5436:1 5439:1 5440:1 5442:1 5461:1 5462:1 5463:1 5464:1 5465:1 5468:1 5469:1 5470:1 5471:1 5509:1 5510:1 5511:1 5512:1 5513:1 5514:1 5515:1 5517:1 5522:1 5528:1 5530:1 5531:1 5533:1 5534:1 5539:1 5541:1 5543:1 5544:1 5546:1 5548:1 5549:1 5551:1 5553:1 5554:1 5556:1 5558:1 5559:1 5560:1 5561:1 5562:1 5567:1 5575:1 5578:1 5579:1 5580:1 5600:1 5601:1 5602:1 5603:1 5604:1 5605:1 5608:1 5609:1 5610:1 5611:1 5612:1 5647:1 5649:1 5652:1 5655:1 5656:1 5670:1 5671:1 5672:1 5675:1 5681:1 5709:1 5711:1 5713:1 5723:1 5724:1 5726:1 5727:1 5728:1 5729:1 5730:1 5731:1 5735:1 5736:1 5739:1 5740:1 5746:1 5747:1 5748:1 5749:1 5750:1 5751:1 5752:1 5753:1 5754:1 5755:1 5756:1 5757:1 5758:1 5759:1 5760:1 5761:1 5762:1 5763:1 5764:1 5765:1 5766:1 5767:1 5768:1 5769:1 5770:1 5771:1 5772:1 5773:1 5774:1 5775:1 5776:1 5777:1 5778:1 5779:1 5780:1 5781:1 5782:1 5783:1 5784:1 5785:1 5786:1 5787:1 5788:1 5789:1 5790:1 5791:1 5792:1 5793:1 5794:1 5795:1 5796:1 5797:1 5798:1 5799:1 5800:1 5801:1 5802:1 5803:1 5804:1 5805:1 5806:1 5807:1 5808:1 5809:1 5810:1 5811:1 5812:1 5813:1 5814:1 5815:1 5816:1 5817:1 5818:1 5819:1 5820:1 5821:1 5822:1 5823:1 5824:1 5825:1 5826:1 5827:1 5828:1 5829:1 5830:1 5831:1 14474:1 14475:1 14476:1 14508:1 14546:1 14547:1 14548:1 14549:1 14550:1 14551:1 14552:1 14553:1 14554:1 14555:1 14556:1 14557:1 14558:1 14559:1 14560:1 14561:1 14562:1 14563:1 14564:1 14565:1 14566:1 14567:1 14568:1 14569:1 14570:1 14571:1 14572:1 14573:1 14574:1 19593:1 19594:1 19595:13 19628:1 19629:1 19630:1 19631:1 19632:1 19636:1 19649:1 19650:1 19651:1 19652:1 19653:1 19654:1 19655:1 19656:1 19657:1 19658:1 19659:1 19660:1 19661:1 19662:1 19663:1 19664:1 19665:1 19666:1 19667:1 19668:1 19669:1 19670:1 19671:1 19672:1 19673:1 19674:1 19675:1 19676:1 19677:1 19678:1 19679:1 19680:1 19681:1 19682:1 19683:1 19684:1 19685:1 19686:1 19687:1 19688:1 19689:1 19690:1 19691:1 19692:1 19693:1 19694:1 19695:1 19696:1 19697:1 19698:1 19699:1 19700:1 19701:1 19702:1 19703:1 19704:1 19705:1 19706:1 19707:1 19708:1 19709:1 19710:1 19711:1 19712:1 19713:1 19714:1 19715:1 19716:1 19717:1 19718:1 19719:1 19720:1 19721:1 19722:1 19723:1 19724:1 19725:1 19726:1 19727:1 19728:1 19729:1 19730:1 19731:1 19732:1 27862:2 27863:1 27864:1 27865:1 27866:1 27867:1 27868:1 27871:1 27872:1 27887:1 27897:1 27899:1 27900:1 27901:1 27902:1 27905:1 27906:1 27908:1 27910:1 27911:1 27914:1 27915:1 27917:1 27920:1 27925:1 27934:1 27936:1 27937:1 27938:1 27942:1 27946:1 27950:1 27951:1 27977:1 27978:1 27979:1 27980:1 27998:1 27999:1 28002:1 28008:1 28010:1 28015:1 28016:1 28017:1 28018:1 28019:1 28020:1 28021:1 28022:1 28023:1 28024:1 28025:1 28026:1 28027:1 28028:1 28029:1 28030:1 28031:1 28032:1 28033:1 28034:1 28035:1 28036:1 28037:1 28038:1 28039:1 28040:1 33592:1 33595:1  |EV| 
0.0015815267158593802193644606290945 2:1 10:1 95:1 102:1 103:1 128:1 162:1 169:1 194:1 195:1 207:1 299:1 331:1 333:1 350:1 852:1 1900:1 2031:1 2032:1 2033:1 2034:1 2035:2 2036:1 2194:1 2195:1 2196:1 2199:1 2206:1 2210:1 2227:1 2274:1 2283:1 2290:1 2291:1 2310:1 2338:1 2339:1 2345:1 2365:1 2366:1 2367:1 2379:1 2457:1 2483:1 2501:1 2782:1 3088:1 3700:1 3701:1 3801:2 3802:38 3803:1 3804:1 3805:2 3806:1 3807:1 3817:1 3818:1 3819:1 3824:1 3831:1 3897:1 4450:1 4451:1 4487:1 4488:1 4569:1 4572:1 4574:1 5418:1 5424:1 5430:1 5435:1 5436:1 5437:1 5438:1 5439:1 5440:1 5442:1 5454:1 5463:1 5464:1 5465:1 5468:1 5469:1 5471:1 5482:1 5496:1 5498:1 5509:1 5510:1 5512:1 5513:1 5514:1 5515:1 5517:1 5522:1 5528:1 5534:1 5541:1 5545:1 5546:1 5547:1 5558:1 5566:1 5567:1 5568:1 5570:1 5572:1 5573:1 5574:1 5575:1 5578:1 5579:1 5580:1 5594:1 5595:1 5596:1 5597:1 5602:1 5603:1 5604:1 5605:1 5607:1 5608:1 5609:1 5610:1 5611:1 5612:1 5647:1 5675:1 5685:1 5687:1 5688:1 5692:1 5693:1 5783:1 5784:1 5785:1 5844:1 5847:1 5853:1 5881:1 5882:1 5883:1 5892:1 5900:1 5901:1 5902:1 5906:1 5907:1 5924:1 5925:1 5930:1 5931:1 5938:1 5939:1 5941:1 5943:1 5944:1 5963:1 6077:1 6096:1 6115:1 6116:1 6124:1 6125:1 6128:1 6129:1 6141:1 6143:1 6144:1 6146:1 6147:1 6150:1 6151:1 6162:1 6164:1 6172:1 6173:1 6175:1 6176:1 6213:1 6225:1 6226:1 6227:1 6231:1 6232:1 6233:1 6234:1 6235:1 6236:1 6324:1 6325:1 6326:1 6352:1 6358:1 6483:1 6484:1 6597:1 6878:1 6879:1 7086:1 7087:1 7088:1 7099:1 7193:1 7199:1 7200:1 7211:1 7302:1 7313:1 7410:1 7411:1 7611:1 7612:1 7617:1 7876:1 8026:1 9667:1 13684:1 13685:1 13686:1 13687:1 13689:1 13697:1 13698:1 13699:1 13700:1 14475:1 14476:1 14483:1 14535:1 14536:1 14561:1 14584:1 14624:1 14625:1 14626:1 14668:1 14688:1 14700:1 14702:1 14721:1 14763:1 14764:1 14765:1 14777:1 14778:1 14779:1 14780:1 14796:1 14798:1 14894:1 14895:1 15304:1 15517:1 16160:1 17347:1 17348:1 17349:1 17767:1 18309:1 18310:1 19000:1 19001:1 19002:1 19007:1 19592:1 19594:1 19595:13 19598:1 19600:1 19603:1 19605:1 19606:1 19607:1 19608:1 19609:1 19610:1 19611:1 19612:1 19614:1 19616:1 19618:1 19620:1 19623:1 19625:1 19626:1 19627:1 19628:1 19629:1 19630:1 19631:1 19632:1 19634:1 19636:1 19694:1 19696:1 19697:1 19709:1 19788:1 19792:1 19900:1 19901:1 19902:1 19903:1 19915:1 19922:1 19923:1 19924:1 19946:1 19981:1 19982:1 19983:1 20032:1 20033:1 20034:1 20053:1 20054:1 20055:1 20167:1 20168:1 20169:1 20198:1 20199:1 20200:1 20218:1 20219:1 20255:1 20256:1 20779:1 20780:1 20781:1 20782:1 20832:1 20833:1 20834:1 20835:1 21121:1 21122:1 21135:1 21136:1 22263:1 22697:1 22698:1 23063:1 23064:1 23065:1 27236:1 27237:1 27238:1 27239:1 27240:1 27241:1 27242:1 27243:1 27862:2 27865:1 27866:1 27867:1 27868:1 27871:1 27872:1 27873:1 27887:1 27888:1 27897:1 27899:1 27901:1 27902:1 27905:1 27906:1 27911:1 27914:1 27938:1 27939:1 27968:1 27969:1 27989:1 27990:1 27991:1 27997:1 28000:1 28001:1 28007:1 28015:1 28059:1 28075:1 28094:1 28174:1 28177:1 28239:1 28241:1 28389:1 28906:1 28907:1 28908:1 28909:1 28910:1 28911:1 28912:1 32465:1 32940:1 33592:1 33595:1  |EV| 
-0.0029543417187599119166918626433471 2:1 10:1 17:1 18:1 26:2 31:1 38:2 55:1 57:1 58:1 59:1 61:1 62:1 63:1 64:1 65:1 66:1 67:1 68:1 69:1 70:1 71:1 2192:1 2193:1 2194:1 2196:1 2199:1 2202:1 2209:1 2212:1 2223:1 2237:1 2239:1 2240:1 2241:1 2244:1 2245:1 2246:1 2247:1 2248:1 2249:1 2250:1 2251:1 2252:1 2253:1 2254:1 2255:1 2256:1 3801:2 3802:36 3803:1 3804:1 3805:2 3806:1 3811:1 3813:1 3815:1 3817:1 3819:1 3820:1 3821:1 3822:1 3823:1 3824:1 4569:1 4570:1 4571:1 4575:1 4576:1 4577:1 4591:1 5418:1 5424:1 5430:1 5435:1 5436:1 5437:1 5454:1 5461:1 5462:1 5463:1 5464:1 5465:1 5468:1 5469:1 5470:1 5471:1 5475:1 5477:1 5479:1 5482:1 5483:1 5484:1 5485:1 5486:1 5487:1 5488:1 5489:1 5490:1 5491:1 5492:1 5494:1 5496:1 5497:1 5498:1 5499:1 5509:1 5510:1 5511:1 5512:1 5513:1 5514:1 5515:1 5517:1 5518:1 5519:1 5521:1 5522:1 5524:1 5525:1 5528:1 5534:1 5543:1 5544:1 5546:1 5563:1 5564:1 5566:1 5567:1 5568:1 5569:1 5570:1 5572:1 5573:1 5574:1 5600:1 5601:1 5602:1 5603:1 5604:1 5605:1 5608:1 5609:1 5610:1 5611:1 5612:1 5726:1 5727:1 5739:1 5740:1 5746:1 5747:1 5845:1 5846:1 5847:1 5850:1 5851:1 5852:1 5853:1 5854:1 5855:1 5856:1 5857:1 5858:1 5859:1 5860:1 5861:1 5862:1 5863:1 5864:1 5865:1 5866:1 5867:1 5868:1 5869:1 5870:1 5871:1 5872:1 5873:1 5874:1 5875:1 5876:1 5877:1 5878:1 5879:1 5880:1 5881:1 5882:1 5883:1 5884:1 5885:1 5886:1 5887:1 5888:1 5889:1 5890:1 5891:1 5892:1 5893:1 5894:1 5895:1 5896:1 5897:1 5898:1 5899:1 5900:1 5901:1 5902:1 5903:1 5904:1 5905:1 5906:1 5907:1 5908:1 5909:1 5910:1 5911:1 5912:1 5913:1 5914:1 5915:1 5916:1 5917:1 5918:1 14474:1 14475:1 14476:1 14499:1 14535:1 14569:1 14570:1 14571:1 14596:1 14597:1 14598:1 14599:1 14600:1 14601:1 14602:1 14603:1 14604:1 14605:1 14606:1 14607:1 14608:1 14609:1 14610:1 14611:1 14612:1 14613:1 14614:1 14615:1 14616:1 14617:1 14618:1 14619:1 14620:1 14621:1 14622:1 14623:1 14624:1 14625:1 14626:1 19593:1 19594:1 19595:9 19628:1 19629:1 19630:1 19631:1 19632:1 19634:1 19636:1 19649:1 19650:1 19651:1 19652:1 19671:1 19683:1 19684:1 19685:1 19686:1 19687:1 19694:1 19695:1 19696:1 19697:1 19747:1 19792:1 19819:1 19820:1 19821:1 19822:1 19823:1 19824:1 19825:1 19826:1 19827:1 19828:1 19829:1 19830:1 19831:1 19832:1 19833:1 19834:1 19835:1 19836:1 19837:1 19838:1 19839:1 19840:1 19841:1 19842:1 19843:1 19844:1 19845:1 19846:1 19847:1 19848:1 19849:1 27862:2 27863:1 27864:1 27865:1 27866:1 27867:1 27868:1 27871:1 27872:1 27887:1 27897:1 27899:1 27900:1 27901:1 27902:1 27905:1 27906:1 27911:1 27914:1 27915:1 27916:1 27917:1 27920:1 27922:1 27934:1 27936:1 27937:1 27938:1 27942:1 27977:1 27978:1 27979:1 27980:1 27991:1 27992:1 27993:1 27994:1 27996:1 27999:1 28002:1 28008:1 28009:1 28010:1 28015:1 28016:1 28038:1 28040:1 28045:1 28046:1 28047:1 28048:1 28049:1 28050:1 28051:1 28052:1 28053:1 28054:1 28055:1 28056:1 33592:1 33595:1  |EV| 
-0.0091866076553894782108500294270925 2:1 11:1 42:1 69:1 124:1 129:1 134:1 157:1 158:1 159:1 160:1 161:1 162:1 163:1 164:1 165:1 166:1 167:1 168:1 169:1 170:1 171:1 172:1 173:1 174:1 175:2 2195:1 2196:1 2199:1 2202:1 2210:1 2212:1 2220:1 2306:1 2311:1 2327:1 2334:1 2335:1 2336:1 2337:1 2338:1 2339:1 2340:1 2341:1 2342:1 2343:1 2344:1 2345:1 2346:1 2347:1 2348:1 3801:3 3802:28 3803:1 3804:1 3805:2 3813:1 3817:1 3818:1 3821:1 3824:1 3838:1 3847:1 3848:1 3849:1 3850:1 4569:1 4571:1 4572:1 4634:1 4635:1 4636:1 4637:1 4638:1 4639:1 5418:1 5424:1 5430:1 5436:1 5439:1 5440:1 5442:1 5449:1 5450:1 5462:1 5463:1 5464:1 5465:1 5468:1 5469:1 5471:1 5482:1 5509:1 5510:1 5512:1 5513:1 5514:1 5515:1 5517:1 5518:1 5519:1 5520:1 5521:1 5522:1 5523:1 5524:1 5525:1 5528:1 5533:1 5534:1 5541:1 5543:1 5544:1 5545:1 5546:1 5547:1 5558:1 5559:1 5560:1 5561:1 5562:1 5563:1 5564:1 5566:1 5567:1 5568:1 5569:1 5575:1 5576:1 5578:1 5579:1 5580:1 5588:1 5590:1 5591:1 5592:1 5594:1 5595:1 5596:1 5597:1 5598:1 5599:1 5601:1 5602:1 5603:1 5604:1 5605:1 5607:1 5608:1 5609:1 5610:1 5611:1 5612:1 5647:1 5649:1 5651:1 5652:1 5653:1 5655:1 5656:1 5666:1 5669:1 5670:1 5671:1 5672:1 5675:1 5679:1 5680:1 5685:1 5686:1 5687:1 5688:1 5692:1 5693:1 5694:1 5695:1 5698:1 5699:1 5709:1 5711:1 5713:1 5716:1 5718:1 5719:1 5720:1 5721:1 5723:1 5726:1 5727:1 5728:1 5740:1 5757:1 5758:1 5761:1 5792:1 5818:1 5850:1 5851:1 5853:1 5873:1 5874:1 5875:1 5876:1 5898:1 6105:1 6124:1 6125:1 6128:1 6129:1 6281:1 6282:1 6283:1 6290:1 6291:1 6292:1 6308:1 6309:1 6310:1 6355:1 6499:1 6500:1 6502:1 6503:1 6507:1 6508:1 6510:1 6511:1 6534:1 6537:1 6542:1 6545:1 6547:1 6549:1 6550:1 6559:1 6560:1 6561:1 6562:1 6563:1 6564:1 6565:1 6566:1 6567:1 6568:1 6569:1 6570:1 6571:1 6572:1 6573:1 6574:1 6575:1 6576:1 6577:1 6578:1 6579:1 6580:1 6581:1 6582:1 6583:1 6584:1 6585:1 6586:1 6587:1 6588:1 6589:1 6590:1 6591:1 14475:1 14476:1 14481:1 14482:1 14483:1 14484:1 14485:1 14531:1 14532:1 14533:1 14538:1 14589:1 14709:1 14737:1 14752:1 14868:1 14914:1 14915:1 14950:1 14951:1 14952:1 14953:1 14954:1 14955:1 14956:1 14957:1 14958:1 14959:1 14960:1 14961:1 14962:1 14963:1 14964:1 14965:1 14966:1 14967:1 14968:1 14969:1 14970:1 19593:1 19594:1 19595:12 19620:1 19628:1 19629:1 19630:1 19631:1 19632:1 19634:1 19636:1 19671:1 19683:1 19684:1 19685:1 19686:1 19687:1 19691:1 19692:1 19693:1 19730:1 19731:1 19732:1 19825:1 19826:1 19827:1 19828:1 19833:1 19841:1 19842:1 19843:1 19844:1 19855:1 19970:1 19971:1 19981:1 19982:1 19983:1 20088:1 20089:1 20090:1 20404:1 20405:1 20406:1 20407:1 20408:1 20409:1 20410:1 20411:1 20412:1 20413:1 20414:1 20415:1 20416:1 20417:1 20420:1 20421:1 20422:1 20423:1 20424:1 20425:1 20426:1 20427:1 20428:1 20429:1 20430:1 20431:1 27862:2 27864:1 27865:1 27866:1 27867:1 27868:1 27871:1 27872:1 27873:1 27887:1 27888:1 27897:1 27899:1 27900:1 27901:1 27902:1 27905:1 27906:1 27911:1 27914:1 27934:1 27935:1 27936:1 27937:1 27938:1 27940:1 27942:1 27978:1 27991:1 28009:1 28015:1 28040:1 28046:1 28049:1 28050:1 28112:1 28177:1 28189:1 28277:1 28301:1 28345:1 28346:1 28347:1 28348:1 28349:1 28350:1 33592:1 33595:1  |EV| 
-0.00048537464597370703900391930574187 1:1 9:1 122:1 123:1 136:1 145:1 301:1 362:1 709:1 711:1 1221:1 1226:1 1228:1 1229:1 1230:1 1231:1 2195:1 2199:1 2200:1 2212:1 2245:1 2304:1 2305:1 2316:1 2324:1 2415:1 2509:1 2613:1 2778:1 3147:1 3153:1 3154:1 3155:1 3801:1 3802:20 3803:1 3804:1 3805:1 3809:1 3810:1 3813:1 3817:1 3818:1 3821:1 3965:1 3967:1 4162:1 4163:1 4569:1 4570:1 4571:1 4572:1 4757:1 4758:1 4759:1 5018:1 5019:1 5020:1 5418:1 5424:1 5430:1 5439:1 5440:1 5441:1 5442:1 5443:1 5444:1 5445:1 5446:1 5447:1 5448:1 5454:1 5455:1 5462:1 5463:1 5464:1 5465:1 5518:1 5519:1 5521:1 5522:1 5524:1 5525:1 5528:1 5534:1 5543:1 5544:1 5545:1 5546:1 5547:1 5563:1 5564:1 5566:1 5567:1 5568:1 5569:1 5601:1 5602:1 5603:1 5604:1 5605:1 5608:1 5609:1 5610:1 5611:1 5612:1 5623:1 5624:1 5625:1 5647:1 5655:1 5656:1 5726:1 5727:1 5740:1 5747:1 5748:1 5749:1 5750:1 5751:1 5752:1 5753:1 5754:1 5757:1 5758:1 5764:1 5765:1 5766:1 5844:1 5845:1 5846:1 6923:1 6924:1 6928:1 6929:1 8771:1 8780:1 9298:1 9299:1 10770:1 10787:1 10796:1 10797:1 14508:1 14535:1 14541:1 14549:1 14550:1 14561:1 14603:1 14650:1 14651:1 14652:1 14696:1 14697:1 14698:1 14709:1 15060:1 15061:1 15062:1 15420:1 15421:1 15439:1 15440:1 15713:1 15714:1 15980:1 17257:1 17258:1 17259:1 17260:1 17261:1 17262:1 19592:1 19594:1 19595:14 19605:1 19606:1 19607:1 19608:1 19612:1 19616:1 19625:1 19626:1 19627:1 19628:1 19632:1 19636:1 19705:1 19709:1 19730:1 19731:1 19732:1 19792:1 19841:1 19842:1 19843:1 19844:1 19872:1 19873:1 19874:1 19886:1 19887:1 19888:1 19889:1 19900:1 19919:1 19920:1 19921:1 19934:1 19935:1 19936:1 19937:1 19946:1 20204:1 20205:1 20206:1 20207:1 20208:1 20209:1 20241:1 20242:1 20243:1 20244:1 20245:1 20246:1 20616:1 20617:1 20618:1 20644:1 20645:1 20646:1 21273:1 21274:1 21275:1 21279:1 21280:1 21281:1 21602:1 21652:1 21653:1 21654:1 21657:1 21658:1 21659:1 22163:1 22164:1 22165:1 22172:1 22173:1 22174:1 24218:1 24219:1 24220:1 24221:1 24222:1 24223:1 24224:1 24225:1 24226:1 24227:1 24228:1 27862:2 27864:1 27865:1 27866:1 27867:1 27868:1 27871:1 27872:1 27887:1 27897:1 27899:1 27900:1 27901:1 27902:1 27905:1 27906:1 27934:1 27936:1 27937:1 27938:1 27942:1 27978:1 27979:1 27980:1 27999:1 28002:1 28008:1 28010:1 28015:1 28016:1 28038:1 28039:1 28040:1 29522:1 30567:1 30834:1 30857:1 33592:1 33595:1  |EV| 
0.014776089845070949913008462317521 2:1 10:1 17:1 18:1 26:2 31:1 38:2 55:1 57:1 58:1 59:1 61:1 62:1 63:1 64:1 65:1 66:1 67:1 68:1 69:1 70:1 71:1 2192:1 2193:1 2194:1 2196:1 2199:1 2202:1 2209:1 2212:1 2223:1 2237:1 2239:1 2240:1 2241:1 2244:1 2245:1 2246:1 2247:1 2248:1 2249:1 2250:1 2251:1 2252:1 2253:1 2254:1 2255:1 2256:1 3801:2 3802:36 3803:1 3804:1 3805:2 3806:1 3811:1 3813:1 3815:1 3817:1 3819:1 3820:1 3821:1 3822:1 3823:1 3824:1 4569:1 4570:1 4571:1 4575:1 4576:1 4577:1 4591:1 5418:1 5424:1 5430:1 5435:1 5436:1 5437:1 5454:1 5461:1 5462:1 5463:1 5464:1 5465:1 5468:1 5469:1 5470:1 5471:1 5475:1 5477:1 5479:1 5482:1 5483:1 5484:1 5485:1 5486:1 5487:1 5488:1 5489:1 5490:1 5491:1 5492:1 5494:1 5496:1 5497:1 5498:1 5499:1 5509:1 5510:1 5511:1 5512:1 5513:1 5514:1 5515:1 5517:1 5522:1 5528:1 5534:1 5538:1 5539:1 5540:1 5541:1 5542:1 5546:1 5548:1 5549:1 5550:1 5551:1 5552:1 5553:1 5554:1 5556:1 5566:1 5567:1 5568:1 5570:1 5572:1 5573:1 5574:1 5596:1 5600:1 5601:1 5602:1 5603:1 5604:1 5605:1 5608:1 5609:1 5610:1 5611:1 5612:1 5697:1 5726:1 5727:1 5730:1 5731:1 5735:1 5736:1 5739:1 5740:1 5746:1 5747:1 5803:1 5804:1 5805:1 5844:1 5847:1 5850:1 5851:1 5852:1 5853:1 5854:1 5855:1 5856:1 5857:1 5858:1 5859:1 5860:1 5861:1 5862:1 5863:1 5864:1 5865:1 5866:1 5867:1 5868:1 5869:1 5870:1 5871:1 5872:1 5873:1 5874:1 5875:1 5876:1 5877:1 5878:1 5879:1 5880:1 5881:1 5882:1 5883:1 5884:1 5885:1 5886:1 5887:1 5888:1 5889:1 5890:1 5891:1 5892:1 5893:1 5894:1 5895:1 5896:1 5897:1 5898:1 5899:1 5900:1 5901:1 5902:1 5903:1 5904:1 5905:1 5906:1 5907:1 5919:1 5920:1 5921:1 5922:1 5923:1 5924:1 5925:1 5926:1 5927:1 5928:1 5929:1 5930:1 5931:1 5932:1 5933:1 5934:1 5935:1 5936:1 5937:1 5938:1 5939:1 5940:1 5941:1 5942:1 5943:1 5944:1 14474:1 14475:1 14476:1 14511:1 14512:1 14514:1 14546:1 14547:1 14548:1 14569:1 14570:1 14571:1 14580:1 14581:1 14582:1 14589:1 14599:1 14600:1 14601:1 14605:1 14606:1 14607:1 14611:1 14612:1 14613:1 14614:1 14615:1 14616:1 14619:1 14620:1 14621:1 14627:1 14628:1 14629:1 14630:1 14631:1 14632:1 14633:1 14634:1 14635:1 14636:1 14637:1 19593:1 19595:2 19596:1 19649:1 19650:1 19651:1 19652:1 19694:1 19695:1 19696:1 19697:1 27862:2 27863:1 27864:1 27865:1 27866:1 27867:1 27868:1 27871:1 27872:1 27887:1 27897:1 27899:1 27900:1 27901:1 27902:1 27905:1 27906:1 27911:1 27914:1 27915:1 27916:1 27917:1 27920:1 27922:1 27925:1 27938:1 27968:1 27969:1 27977:1 27978:1 27979:1 27980:1 27991:1 27992:1 27993:1 27994:1 27996:1 27999:1 28008:1 28009:1 28015:1 28016:1 28027:1 28028:1 28046:1 28047:1 28048:1 28049:1 28050:1 28051:1 28052:1 28053:1 28054:1 28055:1 28056:1 28057:1 28058:1 28059:1 28060:1 28061:1 28062:1 28063:1 28064:1 28065:1 28066:1 28067:1 28068:1 28069:1 28070:1 28071:1 28072:1 28073:1 28074:1 28075:1 28076:1 33592:1 33595:1  |EV| 
-0.00073767017747365139224147156937761 4:1 10:1 35:1 42:1 61:1 91:1 98:1 109:2 128:1 135:1 140:1 161:1 559:1 625:1 633:1 660:1 1787:1 1789:3 2049:1 2050:1 2194:1 2195:1 2196:1 2199:1 2208:1 2212:1 2215:1 2220:1 2225:1 2226:1 2266:1 2279:1 2286:1 2299:1 2310:1 2315:1 2320:1 2337:1 2713:1 3169:1 3533:1 3708:1 3801:2 3802:32 3803:1 3804:1 3805:3 3806:1 3817:1 3818:1 3819:1 3821:1 3826:1 3827:1 3828:1 3830:1 3833:1 3863:1 4570:1 4571:1 4572:1 4573:1 4603:1 4604:1 4605:1 4606:1 4607:1 4608:1 4609:1 4610:1 4611:1 4612:1 4613:1 5418:1 5423:1 5424:1 5430:1 5435:1 5436:1 5437:1 5438:1 5439:1 5440:1 5442:1 5444:1 5445:1 5446:1 5447:1 5448:1 5449:1 5450:1 5454:1 5463:1 5483:1 5496:1 5513:1 5518:1 5519:1 5521:1 5522:1 5524:1 5525:1 5528:1 5534:1 5543:1 5544:1 5545:1 5546:1 5547:1 5556:1 5563:1 5564:1 5566:1 5567:1 5568:1 5569:1 5570:1 5572:1 5573:1 5574:1 5601:1 5602:1 5603:1 5604:1 5605:1 5608:1 5609:1 5610:1 5611:1 5612:1 5640:1 5649:1 5652:1 5655:1 5656:1 5726:1 5727:1 5740:1 5747:1 5748:1 5749:1 5750:1 5751:1 5752:1 5753:1 5754:1 5757:1 5761:1 5762:1 5763:1 5764:1 5765:1 5766:1 5767:1 5826:1 5827:1 5847:1 5880:1 5881:1 5882:1 5883:1 5892:1 5894:1 5900:1 5901:1 5902:1 5903:1 5904:1 5906:1 5907:1 5926:1 5927:1 5960:1 5961:1 5965:1 5966:1 5970:1 5971:1 5972:1 6056:1 6058:1 6198:1 6210:1 6221:1 6306:1 6326:1 6352:1 6859:1 8318:1 8319:1 8324:1 8325:1 12795:1 12797:1 12801:1 13780:1 13781:1 14535:1 14597:1 14599:1 14600:1 14603:1 14608:1 14609:1 14610:1 14612:1 14613:1 14615:1 14624:1 14625:1 14626:1 14634:1 14683:1 14688:1 14689:1 14696:1 14697:1 14698:1 14700:1 14701:1 14702:1 14703:1 14704:1 14707:1 14709:1 14800:1 14801:1 14969:1 14970:1 15191:1 15193:1 15459:1 15789:1 16835:1 16836:1 16837:1 16838:1 16969:1 16970:1 18749:1 19048:1 19055:1 19592:1 19594:1 19595:10 19598:1 19603:1 19608:1 19609:1 19610:1 19611:1 19612:1 19616:1 19618:1 19623:1 19628:1 19629:1 19630:1 19631:1 19632:1 19636:1 19694:1 19696:1 19697:1 19705:1 19792:1 19817:1 19818:1 19841:1 19842:1 19843:1 19844:1 19872:1 19873:1 19874:1 19886:1 19887:1 19888:1 19889:1 19900:1 19901:1 19902:1 19903:1 19931:1 19932:1 19933:1 19934:1 19935:1 19936:1 19937:1 19990:1 19991:1 19992:1 20218:1 20219:1 20255:1 20256:1 20314:1 20315:1 20316:1 21460:1 21461:1 22030:1 22031:1 22032:1 26214:1 26215:1 26708:1 26709:1 27862:2 27865:1 27866:1 27871:1 27872:1 27897:1 27899:1 27900:1 27911:1 27914:1 27934:1 27936:1 27937:1 27938:1 27942:1 27969:1 27978:1 27979:1 27980:1 27999:1 28002:1 28008:1 28010:1 28015:1 28038:1 28039:1 28040:1 28089:1 28090:1 28091:1 28092:1 28093:1 28175:1 28677:1 29284:1 30468:1 33592:1 33595:1  |EV| 
0.0075102025831222107843387902903487 2:1 9:1 61:1 95:1 96:1 97:1 98:1 99:1 100:1 101:1 102:1 103:1 104:1 105:1 106:1 107:1 108:1 109:1 2194:1 2195:1 2196:1 2206:1 2208:1 2283:1 2284:1 2285:1 2286:1 2287:1 2288:1 2289:1 2290:1 2291:1 2292:1 2293:1 2294:1 3801:1 3802:21 3803:1 3804:1 3805:2 3806:1 3807:1 3810:1 3813:1 3817:1 3818:1 3821:1 3824:1 3830:1 3833:1 3834:1 3835:1 4569:1 4571:1 4572:1 4603:1 4604:1 4605:1 4606:1 4607:1 4608:1 4609:1 4610:1 4611:1 4612:1 4613:1 4614:1 4615:1 4616:1 4617:1 4618:1 5418:1 5423:1 5424:1 5430:1 5435:1 5436:1 5437:1 5439:1 5440:1 5441:1 5442:1 5443:1 5454:1 5455:1 5462:1 5463:1 5464:1 5465:1 5466:1 5482:1 5483:1 5513:1 5522:1 5528:1 5533:1 5534:1 5536:1 5537:1 5539:1 5540:1 5541:1 5542:1 5566:1 5567:1 5575:1 5576:1 5578:1 5601:1 5602:1 5603:1 5604:1 5605:1 5608:1 5609:1 5610:1 5611:1 5612:1 5647:1 5679:1 5680:1 5708:1 5709:1 5710:1 5711:1 5713:1 5723:1 5724:1 5726:1 5727:1 5728:1 5729:1 5730:1 5731:1 5735:1 5736:1 5737:1 5738:1 5740:1 5741:1 5742:1 5743:1 5744:1 5745:1 5747:1 5768:1 5769:1 5776:1 5779:1 5792:1 5793:1 5796:1 5797:1 5834:1 5853:1 5880:1 5881:1 5882:1 5883:1 5900:1 5901:1 5902:1 5906:1 5907:1 5912:1 5913:1 5942:1 5953:1 5954:1 5956:1 5960:1 5961:1 5975:1 5986:1 6033:1 6105:1 6115:1 6116:1 6124:1 6125:1 6128:1 6129:1 6130:1 6131:1 6135:1 6136:1 6141:1 6143:1 6144:1 6146:1 6147:1 6150:1 6162:1 6175:1 6180:1 6181:1 6182:1 6183:1 6184:1 6185:1 6186:1 6187:1 6188:1 6189:1 6190:1 6191:1 6192:1 6193:1 6194:1 6195:1 6196:1 6197:1 6198:1 6199:1 6200:1 6201:1 6202:1 6203:1 6204:1 6205:1 6206:1 6207:1 6208:1 6209:1 6210:1 6213:1 6214:1 6215:1 6216:1 6217:1 6218:1 6219:1 6220:1 6221:1 6222:1 6223:1 6224:1 6225:1 6226:1 6227:1 6228:1 6229:1 6230:1 6231:1 6232:1 6233:1 6234:1 6235:1 6236:1 6237:1 14554:1 14555:1 14556:1 14561:1 14589:1 14645:1 14673:1 14688:1 14721:1 14748:1 14749:1 14750:1 14753:1 14754:1 14755:1 14757:1 14758:1 14761:1 14762:1 14766:1 14767:1 14768:1 14771:1 14772:1 14773:1 14774:1 14775:1 14776:1 14777:1 14778:1 14779:1 14780:1 14781:1 19593:1 19594:1 19595:16 19618:1 19623:1 19624:1 19625:1 19626:1 19627:1 19628:1 19629:1 19630:1 19631:1 19632:1 19636:1 19645:1 19646:1 19647:1 19648:1 19649:1 19650:1 19651:1 19652:1 19656:1 19671:1 19683:1 19684:1 19685:1 19686:1 19687:1 19694:1 19695:1 19696:1 19697:1 19701:1 19743:1 19747:1 19772:1 19774:1 19775:1 19776:1 19777:1 19788:1 19792:1 19817:1 19851:1 20131:1 20132:1 20133:1 20134:1 20135:1 20136:1 20137:1 20138:1 20139:1 20140:1 20141:1 20142:1 20143:1 20144:1 20145:1 20146:1 20147:1 20148:1 20149:1 20150:1 20151:1 20152:1 20153:1 20154:1 20155:1 20156:1 20157:1 20158:1 20159:1 20160:1 20161:1 20162:1 20163:1 20164:1 20165:1 20166:1 20167:1 20168:1 20169:1 20170:1 20171:1 20172:1 20173:1 20174:1 20175:1 20176:1 20177:1 27862:2 27864:1 27865:1 27866:1 27867:1 27868:1 27871:1 27872:1 27887:1 27896:1 27897:1 27899:1 27900:1 27901:1 27902:1 27904:1 27905:1 27906:1 27908:1 27909:1 27910:1 27911:1 27913:1 27914:1 27925:1 27938:1 27939:1 27975:1 27978:1 27979:1 27980:1 27989:1 27991:1 27997:1 27998:1 27999:1 28001:1 28002:1 28007:1 28008:1 28009:1 28010:1 28011:1 28012:1 28015:1 28016:1 28017:1 28022:1 28059:1 28075:1 28112:1 28175:1 28176:1 28177:1 28178:1 28179:1 28180:1 28181:1 28182:1 28183:1 28184:1 28185:1 28186:1 28187:1 28188:1 28189:1 33592:1 33595:1  |EV| 
-0.0061129255428803361271938854315522 2:1 10:1 21:1 96:1 99:1 117:1 135:1 221:1 223:1 414:1 440:1 505:1 584:1 1360:1 1364:1 1649:1 1653:1 2195:1 2198:1 2199:1 2208:1 2284:1 2287:1 2301:1 2315:1 2390:1 2547:1 2566:1 2615:1 3249:1 3440:1 3801:2 3802:15 3803:1 3804:1 3805:2 3812:1 3813:1 3814:1 3816:1 3817:1 3818:1 3819:1 3824:1 4217:1 4219:1 4569:1 4578:1 4579:1 4580:1 4581:1 4582:1 4583:1 4584:1 4585:1 4586:1 4587:1 4588:1 4589:1 4590:1 4690:1 4730:1 4844:1 4845:1 5092:1 5418:1 5424:1 5430:1 5435:1 5437:1 5441:1 5442:1 5443:1 5449:1 5450:1 5454:1 5455:1 5462:1 5463:1 5464:1 5465:1 5482:1 5483:1 5484:1 5485:1 5486:1 5487:1 5488:1 5489:1 5490:1 5491:1 5492:1 5496:1 5497:1 5518:1 5519:1 5520:1 5521:1 5522:1 5523:1 5524:1 5525:1 5527:1 5528:1 5534:1 5539:1 5540:1 5541:1 5542:1 5543:1 5544:1 5545:1 5546:1 5547:1 5553:1 5558:1 5563:1 5564:1 5565:1 5566:1 5567:1 5568:1 5569:1 5575:1 5576:1 5578:1 5579:1 5580:1 5588:1 5590:1 5591:1 5592:1 5594:1 5595:1 5596:1 5597:1 5598:1 5599:1 5601:1 5602:1 5603:1 5604:1 5605:1 5607:1 5608:1 5609:1 5610:1 5611:1 5612:1 5647:1 5664:1 5665:1 5675:1 5676:1 5677:1 5678:1 5679:1 5680:1 5682:1 5683:1 5684:1 5685:1 5686:1 5687:1 5688:1 5689:1 5690:1 5691:1 5692:1 5693:1 5694:1 5695:1 5697:1 5698:1 5699:1 5700:1 5701:1 5702:1 5726:1 5730:1 5735:1 5740:1 5757:1 5758:1 5783:1 5790:1 5803:1 5804:1 5805:1 5806:1 5809:1 5811:1 5813:1 5818:1 5853:1 5880:1 5942:1 5953:1 5954:1 5960:1 5963:1 5986:1 6027:1 6033:1 6035:1 6037:1 6084:1 6085:1 6133:1 6150:1 6206:1 6224:1 6225:1 6226:1 6227:1 6231:1 6232:1 6233:1 6267:1 6268:1 6306:1 6355:1 6409:1 6481:1 6482:1 6505:1 6506:1 6579:1 6689:1 6756:1 6758:1 6759:1 6762:1 6770:1 6771:1 6774:1 6775:1 6778:1 6785:1 6859:1 6949:1 7287:1 7425:1 7686:1 7688:1 7689:1 7732:1 7741:1 7742:1 7744:1 7909:1 7910:1 7913:1 7914:1 7918:1 7919:1 7922:1 7923:1 7961:1 7962:1 7990:1 7991:1 8312:1 8315:1 8377:1 8514:1 8883:1 8957:1 8959:1 9512:1 9916:1 10229:1 10230:1 10952:1 10953:1 11260:1 11277:1 12319:1 12327:1 12328:1 12329:1 14481:1 14482:1 14483:1 14484:1 14485:1 14504:1 14505:1 14506:1 14511:1 14512:1 14513:1 14514:1 14515:1 14519:1 14520:1 14521:1 14561:1 14711:1 14712:1 14713:1 14834:1 14835:1 14836:1 14909:1 14910:1 14911:1 15029:1 15536:1 15537:1 15604:1 15605:1 15606:1 15850:1 16182:1 16183:1 18159:1 19593:1 19594:1 19595:6 19634:1 19636:1 19645:1 19646:1 19647:1 19648:1 19660:1 19671:1 19705:1 19747:1 19792:1 19833:1 19856:1 19857:1 19858:1 19872:1 19873:1 19874:1 20174:1 20175:1 20176:1 20177:1 20487:1 20488:1 20832:1 20833:1 20834:1 20835:1 21371:1 21372:1 21450:1 21451:1 21452:1 21453:1 21817:1 21818:1 21870:1 21871:1 23304:1 23315:1 27862:2 27864:1 27865:1 27866:1 27867:1 27868:1 27869:1 27870:1 27871:1 27872:1 27873:1 27887:1 27888:1 27897:1 27899:1 27900:1 27901:1 27902:1 27905:1 27906:1 27911:1 27914:1 27915:1 27916:1 27917:1 27920:1 27934:1 27935:1 27936:1 27937:1 27938:1 27939:1 27940:1 27941:1 27942:1 27991:1 28009:1 28015:1 28053:1 28101:1 28246:1 28459:1 28461:1 28891:1 29129:1 30238:1 30241:1 31119:1 31878:1 31882:1 33592:1 33595:1  |EV| 
0.013484780677048686242658348533041 5:1 9:1 21:1 42:1 43:1 99:1 118:1 161:1 178:1 272:1 299:1 362:1 392:1 709:1 734:1 763:1 937:1 958:1 1097:1 1100:1 1710:1 1739:1 1740:1 1741:1 1742:1 1743:1 1744:1 1745:1 1746:1 1747:1 1748:1 1749:1 1750:1 1751:1 1752:1 1753:1 1754:1 1755:1 2195:1 2196:1 2198:1 2199:1 2212:1 2220:1 2221:1 2241:1 2287:1 2337:1 2417:1 2457:1 2509:1 2510:1 2778:1 2796:1 2817:1 2944:1 2959:1 3060:1 3064:1 3169:1 3483:1 3502:1 3503:1 3504:1 3505:1 3506:1 3507:1 3508:1 3509:1 3510:1 3511:1 3512:1 3513:1 3801:1 3802:50 3803:1 3804:1 3805:4 3810:1 3814:1 3817:1 3831:1 3965:1 3967:1 4009:1 4395:1 4396:1 4397:1 4569:1 4571:1 4572:1 4655:1 4701:1 4757:1 4758:1 4759:1 5162:1 5263:1 5264:1 5414:1 5415:1 5418:1 5420:1 5421:1 5424:1 5426:1 5427:1 5430:1 5432:1 5433:1 5436:1 5437:1 5438:1 5439:1 5442:1 5452:1 5454:1 5455:1 5456:1 5457:1 5458:1 5459:1 5460:1 5463:1 5464:1 5465:1 5466:1 5467:1 5482:1 5494:1 5502:1 5503:1 5504:1 5505:1 5506:1 5507:1 5508:1 5522:1 5528:1 5534:1 5539:1 5540:1 5541:1 5542:1 5553:1 5554:1 5558:1 5559:1 5566:1 5567:1 5575:1 5576:1 5579:1 5580:1 5590:1 5591:1 5592:1 5595:1 5596:1 5597:1 5598:1 5599:1 5602:1 5603:1 5604:1 5605:1 5608:1 5609:1 5610:1 5611:1 5612:1 5647:1 5654:1 5666:1 5667:1 5669:1 5670:1 5671:1 5672:1 5675:1 5685:1 5687:1 5688:1 5692:1 5693:1 5697:1 5726:1 5730:1 5731:1 5735:1 5736:1 5740:1 5784:1 5800:1 5801:1 5802:1 5806:1 5807:1 5809:1 5811:1 5812:1 5813:1 5814:1 5818:1 5819:1 5881:1 5882:1 5883:1 5884:1 5922:1 5923:1 5938:1 5939:1 5941:1 5942:1 5943:1 5944:1 5953:1 5956:1 5963:1 6000:1 6037:1 6075:1 6102:1 6103:1 6107:1 6108:1 6148:1 6275:1 6276:1 6277:1 6358:1 6483:1 6493:1 6494:1 6505:1 6506:1 6517:1 6547:1 6597:1 6653:1 6689:1 6838:1 6986:1 7425:1 7426:1 7434:1 7435:1 7464:1 7465:1 7483:1 7484:1 7680:1 7681:1 8358:1 8771:1 10318:1 10330:1 10331:1 10334:1 10335:1 10339:1 10340:1 10414:1 10415:1 12662:1 12663:1 12664:1 12665:1 12666:1 12667:1 12668:1 12669:1 12670:1 12671:1 12672:1 12673:1 12674:1 12675:1 12676:1 14483:1 14536:1 14737:1 14783:1 14796:1 14798:1 14894:1 15060:1 15061:1 15062:1 15092:1 15475:1 15476:1 15477:1 15517:1 16900:1 16901:1 16902:1 18333:1 18334:1 18335:1 18336:1 18337:1 18338:1 19592:1 19594:1 19595:53 19598:1 19600:1 19604:1 19605:1 19606:1 19607:1 19608:1 19609:1 19610:1 19611:1 19612:1 19614:1 19616:1 19618:1 19620:1 19624:1 19625:1 19626:1 19627:1 19628:1 19629:1 19630:1 19631:1 19632:1 19634:1 19636:1 19637:1 19638:1 19639:1 19640:1 19641:1 19642:1 19643:1 19644:1 19645:1 19646:1 19647:1 19648:1 19694:1 19695:1 19696:1 19697:1 19701:1 19705:1 19709:1 19719:1 19723:1 19730:1 19731:1 19732:1 19788:1 19792:1 19810:1 19841:1 19842:1 19843:1 19844:1 19872:1 19873:1 19874:1 19886:1 19887:1 19888:1 19889:1 19897:1 19900:1 19901:1 19902:1 19903:1 19904:1 19905:1 19915:1 19919:1 19920:1 19921:1 19934:1 19935:1 19936:1 19937:1 19946:1 19970:1 19971:1 20009:1 20013:1 20153:1 20154:1 20155:1 20190:1 20191:1 20192:1 20231:1 20232:1 20363:1 20364:1 20375:1 20376:1 20470:1 20473:1 20482:1 20625:1 20626:1 20627:1 20653:1 20654:1 20655:1 20740:1 20741:1 20779:1 20780:1 20781:1 20782:1 20797:1 20798:1 20832:1 20833:1 20834:1 20835:1 20899:1 20900:1 20901:1 20942:1 20943:1 20944:1 21166:1 21273:1 21274:1 21275:1 21278:1 21279:1 21280:1 21281:1 21284:1 21317:1 21318:1 21319:1 21320:1 22222:1 22223:1 22224:1 22227:1 22228:1 22229:1 22349:1 22642:1 22852:1 22853:1 22861:1 22862:1 22940:1 22942:1 22966:1 22968:1 23031:1 23032:1 23033:1 23040:1 23041:1 23042:1 23164:1 23165:1 23166:1 23323:1 23324:1 23657:1 23662:1 23663:1 23664:1 23667:1 23668:1 23673:1 23674:1 24312:1 24313:1 24314:1 24337:1 24338:1 24339:1 24788:1 24789:1 24790:1 26029:1 26030:1 26031:1 26032:1 26033:1 26034:1 26035:1 26036:1 26037:1 26038:1 26039:1 26040:1 26041:1 26042:1 26043:1 26044:1 26045:1 26046:1 26047:1 26048:1 26049:1 26050:1 26051:1 26052:1 26053:1 26054:1 26055:1 26056:1 26057:1 26058:1 26059:1 26060:1 26061:1 26062:1 26063:1 26064:1 26065:1 26066:1 26067:1 26068:1 26069:1 26070:1 26071:1 26072:1 26073:1 26074:1 26075:1 26076:1 26077:1 26078:1 26079:1 26080:1 26081:1 26082:1 26083:1 26084:1 26085:1 26086:1 26087:1 26088:1 26089:1 26090:1 26091:1 26092:1 26093:1 26094:1 26095:1 26096:1 26097:1 26098:1 26099:1 26100:1 26101:1 26102:1 26103:1 26104:1 26105:1 26106:1 27862:11 27865:1 27866:1 27867:1 27868:1 27870:1 27871:1 27872:1 27873:1 27874:1 27875:1 27876:1 27877:1 27881:1 27882:1 27883:1 27884:1 27885:1 27887:1 27888:1 27889:1 27890:1 27891:1 27892:1 27893:1 27894:1 27896:1 27897:1 27898:1 27899:1 27900:1 27901:1 27902:1 27905:1 27906:1 27907:1 27908:1 27909:1 27910:1 27911:1 27913:1 27914:1 27915:1 27916:1 27917:1 27920:1 27925:1 27926:1 27927:1 27930:1 27931:1 27932:1 27933:1 27934:1 27935:1 27936:1 27937:1 27938:1 27939:1 27942:1 27950:1 27951:1 27960:1 27968:1 27969:1 27988:1 27998:1 28027:1 28028:1 28035:1 28059:1 28060:1 28061:1 28063:1 28064:1 28073:1 28075:1 28076:1 28079:1 28080:1 28081:1 28097:1 28098:1 28099:1 28101:1 28102:1 28105:1 28110:1 28112:1 28116:1 28119:1 28138:1 28140:1 28141:1 28143:1 28144:1 28146:1 28150:1 28151:1 28174:1 28176:1 28177:1 28182:1 28192:1 28203:1 28217:1 28220:1 28238:1 28239:1 28242:1 28246:1 28263:1 28280:1 28281:1 28291:1 28298:1 28311:1 28313:1 28316:1 28317:1 28321:1 28333:1 28366:1 28420:1 28459:1 28461:1 28546:1 28575:1 28589:1 28603:1 28606:1 28610:1 28643:1 28645:1 28664:1 28734:1 28762:1 28793:1 28824:1 28828:1 28829:1 28839:1 28880:1 29065:1 29147:1 29149:1 29203:1 29483:1 29522:1 29553:1 29559:1 29560:1 29572:1 29725:1 30156:1 30250:1 30251:1 30252:1 30256:1 30263:1 30465:1 30756:1 30821:1 32059:1 32060:1 32061:1 32062:1 32063:1 32064:1 32065:1 32066:1 32067:1 32068:1 32069:1 32070:1 32071:1 32072:1 32073:1 32074:1 32075:1 32076:1 32077:1 32078:1 32079:1 32080:1 32081:1 32082:1 32083:1 32084:1 32085:1 32086:1 32087:1 32088:1 32089:1 32090:1 32091:1 32092:1 32093:1 32094:1 32095:1 32096:1 32097:1 32098:1 32099:1 32100:1 32101:1 32102:1 32103:1 32104:1 32105:1 33592:1 33595:1  |EV| 
-0.0045630348225854065746798227110048 1:1 9:1 42:1 47:1 128:1 273:1 784:1 1072:1 1981:1 1985:2 2006:1 2007:1 2008:1 2009:1 2208:1 2220:1 2222:1 2225:1 2227:1 2229:1 2251:1 2310:1 2392:1 2837:1 2921:1 3043:1 3666:1 3683:1 3684:1 3685:1 3801:1 3802:17 3803:1 3804:1 3805:1 3809:1 3810:1 3813:1 3817:1 3818:1 3821:1 4478:1 4479:1 4480:1 4481:1 4569:1 4570:1 4571:1 4572:1 4606:1 4655:1 4909:1 5342:1 5343:1 5418:1 5424:1 5426:1 5427:1 5430:1 5432:1 5433:1 5436:1 5439:1 5442:1 5452:1 5454:1 5455:1 5456:1 5457:1 5458:1 5462:1 5463:1 5464:1 5465:1 5468:1 5469:1 5471:1 5475:1 5482:1 5484:1 5485:1 5487:1 5489:1 5490:1 5491:1 5492:1 5494:1 5496:1 5497:1 5509:1 5510:1 5512:1 5513:1 5514:1 5515:1 5517:1 5518:1 5519:1 5521:1 5522:1 5524:1 5525:1 5528:1 5534:1 5543:1 5544:1 5546:1 5563:1 5564:1 5567:1 5568:1 5569:1 5579:1 5588:1 5595:1 5601:1 5602:1 5603:1 5604:1 5605:1 5608:1 5609:1 5610:1 5611:1 5612:1 5613:1 5614:1 5629:1 5630:1 5631:1 5632:1 5633:1 5634:1 5635:1 5636:1 5654:1 5666:1 5669:1 5726:1 5727:1 5740:1 5747:1 5759:1 5760:1 5776:1 5790:1 5917:1 5918:1 5958:1 5959:1 5963:1 5968:1 6100:1 6101:1 6105:1 6491:1 6492:1 6559:1 6561:1 6562:1 6563:1 6565:1 6566:1 6567:1 6592:1 6593:1 6597:1 6604:1 6608:1 6609:1 6610:1 6611:1 6615:1 6616:1 6619:1 6620:1 6627:1 6809:1 6810:1 7002:1 7003:1 7004:1 7005:1 7906:1 7963:1 8516:1 8517:1 8952:1 8953:1 12118:1 13527:1 13529:1 13534:1 13538:1 13564:1 13565:1 13583:1 13584:1 13591:1 13592:1 13597:1 13598:1 13605:1 13606:1 13607:1 13608:1 13609:1 13610:1 13611:1 13612:1 13613:1 13614:1 13615:1 13616:1 14475:1 14476:1 14507:1 14508:1 14509:1 14603:1 14645:1 14730:1 14731:1 14732:1 14820:1 14912:1 14914:1 14915:1 15139:1 15360:1 15543:1 15651:1 15830:1 16125:1 16175:1 16176:1 16949:1 16950:1 17208:1 17209:1 17901:1 17902:1 18905:1 18906:1 18932:1 18933:1 18940:1 18941:1 18942:1 18943:1 19592:1 19594:1 19595:6 19598:1 19600:1 19608:1 19618:1 19620:1 19628:1 19701:1 19716:1 19717:1 19718:1 19719:1 19723:1 19835:1 19836:1 19837:1 19897:1 19904:1 19905:1 19954:1 19955:1 19956:1 19970:1 19971:1 20013:1 20023:1 20024:1 20025:1 20473:1 23598:1 23599:1 23600:1 24049:1 24050:1 24051:1 26009:1 26014:1 27143:1 27144:1 27148:1 27149:1 27862:5 27864:1 27865:1 27866:1 27867:1 27868:1 27871:1 27872:1 27875:1 27876:1 27881:1 27885:1 27887:1 27888:1 27889:1 27890:1 27891:1 27892:1 27893:1 27897:1 27898:1 27899:1 27900:1 27901:1 27902:1 27905:1 27906:1 27908:1 27910:1 27911:1 27914:1 27915:1 27917:1 27920:1 27922:1 27925:1 27926:1 27927:1 27932:1 27933:1 27934:1 27936:1 27937:1 27938:1 27939:1 27942:1 27943:1 27949:1 27958:1 27965:1 27966:1 27976:1 27978:1 27979:1 27980:1 27987:1 27988:1 27999:1 28002:1 28008:1 28010:1 28019:1 28021:1 28031:1 28035:1 28040:1 28077:1 28105:1 28112:1 28123:1 28138:1 28147:1 28163:1 28220:1 28263:1 28268:1 28355:1 28357:1 28359:1 28360:1 28366:1 28420:1 28793:1 28815:1 28993:1 29664:1 29665:1 29666:1 29672:1 29725:1 29804:1 29834:1 30756:1 32850:1 32851:1 32877:1 32878:1 32879:1 32883:1 32885:1 32887:1 32888:1 32893:1 32898:1 32899:1 32900:1 32901:1 32902:1 32903:1 32904:1 32905:1 32906:1 32907:1 32908:1 32909:1 32910:1 32911:1 32912:1 32913:1 32914:1 32915:1 32916:1 33592:1 33595:1  |EV| 
-0.0062747290654521893984996161464096 1:1 9:1 52:1 57:1 128:1 328:1 501:1 525:1 531:1 693:1 802:1 891:1 1794:1 1951:1 2097:1 2099:1 2101:1 2102:1 2195:1 2196:1 2208:1 2234:1 2239:1 2277:1 2310:1 2392:1 2481:1 2631:1 2725:1 2766:1 2852:1 2910:1 3642:1 3739:1 3742:1 3743:1 3801:1 3802:17 3803:1 3804:1 3805:1 3808:1 3809:1 3810:1 3813:1 3817:1 3818:1 3821:1 3995:1 3997:1 4030:1 4031:1 4569:1 4571:1 4799:1 4807:1 4808:1 5414:1 5415:1 5418:1 5424:1 5426:1 5427:1 5430:1 5432:1 5433:1 5435:1 5436:1 5437:1 5438:1 5454:1 5455:1 5456:1 5457:1 5458:1 5459:1 5460:1 5462:1 5463:1 5466:1 5467:1 5468:1 5469:1 5471:1 5472:1 5473:1 5474:1 5475:1 5476:1 5477:1 5478:1 5479:1 5480:1 5482:1 5483:1 5509:1 5510:1 5512:1 5513:1 5514:1 5515:1 5516:1 5517:1 5518:1 5519:1 5520:1 5521:1 5522:1 5523:1 5524:1 5525:1 5528:1 5534:1 5536:1 5537:1 5539:1 5540:1 5541:1 5543:1 5544:1 5545:1 5546:1 5547:1 5563:1 5564:1 5566:1 5567:1 5568:1 5569:1 5570:1 5572:1 5573:1 5574:1 5575:1 5576:1 5578:1 5579:1 5580:1 5588:1 5590:1 5591:1 5592:1 5594:1 5595:1 5596:1 5597:1 5598:1 5599:1 5601:1 5602:1 5603:1 5604:1 5605:1 5607:1 5608:1 5609:1 5610:1 5611:1 5612:1 5613:1 5614:1 5629:1 5630:1 5631:1 5632:1 5633:1 5634:1 5635:1 5636:1 5657:1 5658:1 5662:1 5663:1 5664:1 5665:1 5666:1 5669:1 5740:1 5779:1 5842:1 5843:1 5861:1 5892:1 5894:1 5960:1 5961:1 5965:1 5966:1 5970:1 5971:1 5972:1 6033:1 6056:1 6120:1 6188:1 6241:1 6352:1 6422:1 6451:1 6452:1 6508:1 6519:1 6538:1 6539:1 6540:1 6541:1 6543:1 6559:1 6561:1 6562:1 6563:1 6565:1 6566:1 6567:1 6782:1 6783:1 6933:1 6938:1 7001:1 7008:1 7009:1 7011:1 7013:1 7014:1 7191:1 7192:1 7232:1 7233:1 7589:1 7902:1 7903:1 8654:1 8655:1 8656:1 8657:1 9118:1 9358:1 9359:1 9433:1 9667:1 10741:1 10742:1 11699:1 11700:1 12192:1 12344:1 12820:1 12821:1 13410:1 13411:1 13868:1 13869:1 13870:1 14036:1 14037:1 14044:1 14060:1 14061:1 14062:1 14063:1 14475:1 14476:1 14481:1 14482:1 14483:1 14484:1 14485:1 14538:1 14589:1 14642:1 14672:1 14673:1 14674:1 14678:1 14683:1 14728:1 14914:1 14915:1 14952:1 14953:1 14954:1 14955:1 15084:1 15086:1 15232:1 15233:1 15234:1 15235:1 15899:1 16153:1 17207:1 17767:1 19109:1 19213:1 19223:1 19224:1 19225:1 19226:1 19227:1 19228:1 19229:1 19230:1 19592:1 19594:1 19595:6 19598:1 19600:1 19605:1 19606:1 19607:1 19608:1 19614:1 19616:1 19618:1 19620:1 19625:1 19626:1 19627:1 19628:1 19634:1 19636:1 19950:1 19999:1 20218:1 20219:1 20255:1 20256:1 20750:1 20805:1 21691:1 21692:1 22015:1 22776:1 22994:1 22995:1 22996:1 23016:1 23017:1 23018:1 26227:1 26228:1 26229:1 26230:1 27321:1 27322:1 27861:1 27862:4 27864:1 27865:1 27866:1 27871:1 27872:1 27873:1 27874:1 27875:1 27876:1 27881:1 27882:1 27883:1 27884:1 27885:1 27891:1 27892:1 27893:1 27897:1 27898:1 27899:1 27900:1 27908:1 27909:1 27910:1 27911:1 27914:1 27925:1 27926:1 27927:1 27930:1 27931:1 27932:1 27933:1 27934:1 27935:1 27936:1 27937:1 27938:1 27939:1 27940:1 27942:1 27943:1 27949:1 27958:1 27965:1 27966:1 27978:1 28040:1 28091:1 28092:1 28127:1 28156:1 28161:1 28162:1 28169:1 28205:1 28213:1 28403:1 28404:1 28405:1 28508:1 28510:1 28512:1 28566:1 28636:1 29106:1 29392:1 29464:1 29747:1 29884:1 29951:1 32238:1 32739:1 32740:1 33202:1 33203:1 33204:1 33205:1 33206:1 33207:1 33208:1 33209:1 33592:1 33596:1 33597:1  |EV| 
0.0084097821006803366583604031347932 4:1 9:1 18:1 23:1 43:1 123:1 128:1 129:1 161:1 193:1 211:1 378:1 751:1 752:1 784:1 894:1 936:1 1053:1 1104:1 1105:1 1155:1 1157:1 1171:1 1510:1 1511:1 1513:1 1515:1 1518:1 1521:1 1523:1 1524:1 2193:1 2195:1 2196:1 2201:1 2206:1 2210:1 2212:1 2221:1 2274:1 2275:1 2277:1 2305:1 2310:1 2311:1 2337:1 2355:1 2364:1 2382:1 2399:1 2568:1 2692:1 2808:1 2809:1 2837:1 2913:1 3025:1 3067:1 3101:1 3113:1 3347:1 3348:1 3350:1 3353:1 3354:1 3801:1 3802:47 3803:1 3804:1 3805:3 3810:1 3814:1 3831:1 3863:1 4024:1 4041:1 4042:1 4129:1 4131:1 4297:1 4571:1 4601:1 4786:1 4807:1 4856:1 4858:1 4859:1 4880:1 4881:1 4882:1 4883:1 4884:1 4918:1 4963:1 4964:1 5418:1 5424:1 5426:1 5427:1 5429:1 5430:1 5432:1 5433:1 5436:1 5437:1 5438:1 5439:1 5440:1 5441:1 5442:1 5443:1 5454:1 5455:1 5456:1 5457:1 5458:1 5463:1 5464:1 5465:1 5468:1 5469:1 5470:1 5471:1 5472:1 5475:1 5477:1 5479:1 5482:1 5498:1 5502:1 5507:1 5509:1 5510:1 5511:1 5512:1 5513:1 5514:1 5515:1 5517:1 5518:1 5519:1 5521:1 5522:1 5524:1 5525:1 5528:1 5534:1 5539:1 5543:1 5544:1 5546:1 5563:1 5564:1 5566:1 5567:1 5568:1 5569:1 5570:1 5573:1 5575:1 5578:1 5579:1 5588:1 5595:1 5602:1 5603:1 5604:1 5605:1 5607:1 5608:1 5609:1 5610:1 5611:1 5612:1 5623:1 5624:1 5625:1 5626:1 5627:1 5628:1 5637:1 5639:1 5640:1 5641:1 5647:1 5666:1 5669:1 5726:1 5727:1 5748:1 5749:1 5751:1 5753:1 5754:1 5757:1 5764:1 5765:1 5766:1 5767:1 5783:1 5832:1 5833:1 5844:1 5845:1 5846:1 5847:1 5853:1 5894:1 5908:1 5909:1 5930:1 5931:1 5953:1 5956:1 6016:1 6019:1 6023:1 6056:1 6077:1 6080:1 6081:1 6120:1 6148:1 6150:1 6151:1 6153:1 6154:1 6155:1 6156:1 6157:1 6159:1 6160:1 6161:1 6163:1 6164:1 6168:1 6169:1 6170:1 6171:1 6172:1 6173:1 6175:1 6176:1 6177:1 6178:1 6179:1 6241:1 6253:1 6358:1 6394:1 6401:1 6403:1 6559:1 6561:1 6562:1 6563:1 6565:1 6566:1 6567:1 6621:1 6622:1 6637:1 6639:1 6733:1 6734:1 6812:1 6999:1 7000:1 7201:1 7202:1 7408:1 7409:1 7468:1 7471:1 7906:1 7963:1 8147:1 8148:1 8872:1 8873:1 9107:1 10057:1 10058:1 10059:1 10060:1 10113:1 10114:1 10373:1 10420:1 10622:1 10624:1 11921:1 11922:1 11923:1 11924:1 11925:1 11926:1 14474:1 14475:1 14476:1 14499:1 14535:1 14541:1 14602:1 14603:1 14604:1 14634:1 14645:1 14673:1 14683:1 14688:1 14707:1 14721:1 14757:1 14758:1 14759:1 14760:1 14819:1 14821:1 14875:1 14914:1 14915:1 14930:1 14932:1 15191:1 15193:1 15351:1 15523:1 15524:1 15525:1 15543:1 15611:1 15612:1 15613:1 15789:1 16334:1 16954:1 17251:1 17903:1 17904:1 17905:1 17906:1 19593:1 19594:1 19595:6 19618:1 19620:1 19625:1 19626:1 19627:1 19628:1 19634:1 19636:1 19649:1 19651:1 19652:1 19653:1 19655:1 19656:1 19671:1 19683:1 19694:1 19696:1 19697:1 19698:1 19700:1 19701:1 19775:1 19776:1 19777:1 19833:1 19851:1 19855:1 20255:1 20256:1 21565:1 21566:1 23688:1 23689:1 23693:1 23694:1 27862:2 27865:1 27866:1 27870:1 27871:1 27872:1 27897:1 27899:1 27911:1 27914:1 27934:1 27935:1 27936:1 27937:1 27938:1 27939:1 27941:1 27942:1 27979:1 27980:1 27999:1 28002:1 28008:1 28010:1 28015:1 28038:1 28044:1 28045:1 28091:1 28092:1 28093:1 28174:1 30062:1 30726:1 33592:1 33595:1  |EV| 
-0.0096401464688800897473441864349297 1:1 9:1 21:1 103:1 117:1 161:1 217:1 221:1 223:1 433:1 434:1 1910:1 1911:1 2198:1 2210:1 2212:1 2243:1 2274:1 2291:1 2301:1 2337:1 2386:1 2390:1 2560:1 2561:1 3618:1 3801:1 3802:12 3803:1 3804:1 3805:1 3809:1 3810:1 3814:1 3831:1 3856:1 3857:1 4024:1 4458:1 4459:1 4460:1 4605:1 4606:1 4608:1 4609:1 4610:1 4611:1 4612:1 4613:1 4694:1 4699:1 4708:1 4730:1 4738:1 4834:1 4856:1 4858:1 4859:1 4886:1 4977:1 4978:1 5171:1 5172:1 5174:1 5192:1 5225:1 5245:1 5320:1 5321:1 5322:1 5323:1 5324:1 5325:1 5326:1 5327:1 5328:1 5329:1 5330:1 5418:1 5420:1 5421:1 5424:1 5426:1 5427:1 5430:1 5436:1 5437:1 5438:1 5439:1 5440:1 5442:1 5454:1 5455:1 5456:1 5457:1 5458:1 5463:1 5468:1 5469:1 5471:1 5472:1 5473:1 5475:1 5477:1 5478:1 5479:1 5480:1 5482:1 5502:1 5503:1 5504:1 5505:1 5506:1 5507:1 5508:1 5509:1 5510:1 5512:1 5513:1 5514:1 5515:1 5517:1 5518:1 5519:1 5521:1 5522:1 5524:1 5525:1 5528:1 5534:1 5541:1 5543:1 5544:1 5546:1 5563:1 5564:1 5566:1 5567:1 5568:1 5569:1 5570:1 5573:1 5575:1 5576:1 5578:1 5579:1 5580:1 5588:1 5590:1 5591:1 5592:1 5594:1 5595:1 5596:1 5597:1 5598:1 5599:1 5602:1 5603:1 5604:1 5605:1 5607:1 5608:1 5609:1 5610:1 5611:1 5612:1 5647:1 5649:1 5651:1 5652:1 5653:1 5654:1 5655:1 5656:1 5705:1 5715:1 5751:1 5753:1 5757:1 5764:1 5836:1 5837:1 5844:1 5847:1 5853:1 5960:1 5961:1 5965:1 5966:1 5970:1 5971:1 5972:1 6115:1 6116:1 6141:1 6143:1 6144:1 6146:1 6147:1 6150:1 6162:1 6224:1 6341:1 6345:1 6346:1 6347:1 6348:1 6350:1 6358:1 6737:1 6738:1 6749:1 6774:1 6785:1 6878:1 6879:1 6881:1 6882:1 6887:1 6934:1 6935:1 6974:1 6975:1 6989:1 6990:1 6995:1 6996:1 7222:1 7423:1 7424:1 7636:1 7638:1 7640:1 7641:1 7688:1 8049:1 8050:1 13230:1 13231:1 13232:1 13233:1 13234:1 13235:1 13236:1 13237:1 13238:1 14475:1 14476:1 14481:1 14483:1 14502:1 14535:1 14536:1 14561:1 14613:1 14615:1 14683:1 14685:1 14688:1 14689:1 14709:1 14752:1 14780:1 14796:1 14798:1 14969:1 14970:1 15022:1 15060:1 15061:1 15062:1 15165:1 15399:1 15517:1 15526:1 15527:1 15959:1 16003:1 16004:1 17610:1 17611:1 18668:1 19592:1 19594:1 19595:8 19598:1 19600:1 19608:1 19612:1 19614:1 19616:1 19618:1 19620:1 19628:1 19632:1 19634:1 19636:1 19637:1 19638:1 19643:1 19644:1 19814:1 19815:1 19816:1 19922:1 19923:1 19924:1 19981:1 19982:1 19983:1 20032:1 20033:1 20034:1 20053:1 20054:1 20055:1 20187:1 20189:1 20228:1 20230:1 20363:1 20364:1 20375:1 20376:1 21431:1 21432:1 21433:1 21446:1 21447:1 21448:1 21828:1 21829:1 21830:1 27862:5 27865:1 27866:1 27870:1 27871:1 27872:1 27873:1 27875:1 27876:1 27881:1 27885:1 27897:1 27899:1 27908:1 27910:1 27911:1 27914:1 27925:1 27926:1 27927:1 27932:1 27933:1 27934:1 27936:1 27937:1 27938:1 27939:1 27941:1 27942:1 27968:1 27969:1 27976:1 27982:1 27989:1 27991:1 27992:1 27994:1 27996:1 27997:1 27998:1 28001:1 28007:1 28058:1 28059:1 28075:1 28088:1 28091:1 28092:1 28131:1 28132:1 28133:1 28138:1 28167:1 28170:1 28174:1 28308:1 28333:1 28375:1 28389:1 28394:1 28403:1 28404:1 28405:1 28406:1 28411:1 28500:1 28543:1 28646:1 28660:1 28921:1 28922:1 28923:1 28924:1 28928:1 28929:1 29347:1 29348:1 30230:1 30615:1 30616:1 30617:1 30626:1 32550:1 32551:1 32552:1 32553:1 32554:1 32555:1 33594:1 33595:1  |EV| 
-0.0089597049505691951643004955485594 5:1 9:1 21:1 42:1 43:1 99:1 118:1 161:1 178:1 272:1 299:1 362:1 392:1 709:1 734:1 763:1 937:1 958:1 1097:1 1100:1 1710:1 1739:1 1740:1 1741:1 1742:1 1743:1 1744:1 1745:1 1746:1 1747:1 1748:1 1749:1 1750:1 1751:1 1752:1 1753:1 1754:1 1755:1 2195:1 2196:1 2198:1 2199:1 2212:1 2220:1 2221:1 2241:1 2287:1 2337:1 2417:1 2457:1 2509:1 2510:1 2778:1 2796:1 2817:1 2944:1 2959:1 3060:1 3064:1 3169:1 3483:1 3502:1 3503:1 3504:1 3505:1 3506:1 3507:1 3508:1 3509:1 3510:1 3511:1 3512:1 3513:1 3801:1 3802:50 3803:1 3804:1 3805:4 3810:1 3814:1 3817:1 3818:1 3827:1 3964:1 3965:1 3966:1 3967:1 4009:1 4570:1 4571:1 4572:1 4573:1 4757:1 4758:1 4759:1 5418:1 5423:1 5424:1 5429:1 5430:1 5435:1 5436:1 5437:1 5438:1 5449:1 5454:1 5459:1 5460:1 5462:1 5463:1 5464:1 5465:1 5466:1 5467:1 5468:1 5469:1 5471:1 5474:1 5475:1 5476:1 5477:1 5502:1 5503:1 5507:1 5508:1 5513:1 5522:1 5528:1 5534:1 5539:1 5540:1 5541:1 5542:1 5553:1 5554:1 5558:1 5559:1 5566:1 5567:1 5575:1 5576:1 5579:1 5580:1 5590:1 5591:1 5592:1 5595:1 5596:1 5597:1 5598:1 5599:1 5601:1 5602:1 5603:1 5604:1 5605:1 5608:1 5609:1 5610:1 5611:1 5612:1 5623:1 5624:1 5625:1 5640:1 5643:1 5644:1 5645:1 5647:1 5649:1 5650:1 5652:1 5666:1 5667:1 5669:1 5670:1 5671:1 5672:1 5675:1 5685:1 5687:1 5688:1 5692:1 5693:1 5697:1 5726:1 5730:1 5731:1 5735:1 5736:1 5740:1 5762:1 5763:1 5784:1 5800:1 5801:1 5802:1 5806:1 5807:1 5809:1 5811:1 5812:1 5813:1 5814:1 5818:1 5819:1 5859:1 5881:1 5892:1 5894:1 5922:1 5923:1 5938:1 5939:1 5941:1 5942:1 5943:1 5944:1 5949:1 5960:1 5961:1 5965:1 5966:1 5970:1 5971:1 5972:1 6004:1 6008:1 6009:1 6020:1 6023:1 6037:1 6056:1 6122:1 6123:1 6249:1 6252:1 6258:1 6259:1 6275:1 6276:1 6277:1 6332:1 6401:1 6402:1 6403:1 6404:1 6483:1 6491:1 6493:1 6494:1 6505:1 6506:1 6517:1 6547:1 6638:1 6653:1 6689:1 6866:1 6867:1 6880:1 7425:1 7426:1 8358:1 8524:1 8771:1 9629:1 9630:1 9633:1 10318:1 10330:1 10331:1 10334:1 10335:1 10339:1 10340:1 12672:1 12673:1 12674:1 12675:1 12677:1 12678:1 12679:1 12680:1 12681:1 12682:1 12683:1 12684:1 12685:1 12686:1 12687:1 14483:1 14536:1 14683:1 14700:1 14701:1 14702:1 14703:1 14704:1 14706:1 14707:1 14796:1 14798:1 14894:1 14985:1 15036:1 15037:1 15038:1 15060:1 15061:1 15062:1 15232:1 15233:1 15234:1 15235:1 15304:1 15475:1 15476:1 15477:1 15517:1 15518:1 16900:1 16901:1 16902:1 18339:1 18340:1 18341:1 18342:1 18343:1 18344:1 19592:1 19594:1 19595:11 19598:1 19600:1 19614:1 19618:1 19620:1 19634:1 19694:1 19696:1 19705:1 19792:1 19841:1 19842:1 19843:1 19844:1 19872:1 19873:1 19874:1 19886:1 19887:1 19888:1 19889:1 19900:1 19901:1 19902:1 19904:1 19905:1 19934:1 19935:1 19936:1 19937:1 19970:1 19971:1 22349:1 22642:1 22940:1 22942:1 22966:1 22968:1 23673:1 23674:1 26064:1 26065:1 26066:1 26067:1 26103:1 26104:1 26105:1 26106:1 27862:2 27865:1 27866:1 27870:1 27871:1 27872:1 27873:1 27897:1 27898:1 27899:1 27900:1 27901:1 27905:1 27911:1 27914:1 27915:1 27916:1 27917:1 27920:1 27925:1 27938:1 27939:1 27950:1 27951:1 27968:1 27969:1 28015:1 28059:1 28060:1 28061:1 28063:1 28073:1 28075:1 28076:1 28080:1 28090:1 28091:1 28092:1 28097:1 28098:1 28101:1 28102:1 28146:1 28217:1 28228:1 28229:1 28403:1 28546:1 28575:1 28643:1 28664:1 29147:1 29521:1 29522:1 29572:1 30250:1 32101:1 32102:1 32103:1 32104:1 32105:1 33592:1 33595:1  |EV| 
-0.00090947508223059719822956026291649 4:1 13:1 42:1 47:1 96:1 128:1 140:1 161:1 207:1 325:1 401:1 533:1 599:1 693:1 763:1 783:1 787:2 1317:1 1320:1 1349:1 1543:1 1544:1 1545:1 1546:1 1547:1 1548:1 1549:1 1550:1 1551:1 1552:1 1553:4 2196:1 2199:1 2210:1 2212:1 2214:1 2220:1 2225:1 2229:1 2277:1 2284:1 2291:1 2310:1 2320:1 2337:1 2379:1 2488:1 2489:1 2493:1 2629:1 2638:1 2689:1 2766:1 2817:1 2836:1 3222:1 3225:1 3244:1 3373:1 3374:1 3375:1 3376:1 3377:1 3378:1 3379:1 3801:5 3802:53 3803:1 3804:1 3805:3 3817:1 3818:1 3827:1 3863:1 3896:1 3897:1 3899:1 3926:1 4302:1 4303:1 4570:1 4572:1 4573:1 4574:1 5418:1 5423:1 5424:1 5430:1 5435:1 5436:1 5437:1 5438:1 5439:1 5440:1 5442:1 5454:1 5455:1 5462:1 5463:1 5464:1 5468:1 5469:1 5471:1 5483:1 5484:1 5485:1 5486:1 5487:1 5488:1 5489:1 5490:1 5491:1 5492:1 5496:1 5497:1 5513:1 5522:1 5524:1 5528:1 5533:1 5534:1 5539:1 5540:1 5541:1 5543:1 5548:1 5549:1 5550:1 5551:1 5552:1 5553:1 5554:1 5558:1 5567:1 5579:1 5580:1 5595:1 5596:1 5597:1 5601:1 5602:1 5603:1 5604:1 5605:1 5608:1 5609:1 5610:1 5611:1 5612:1 5623:1 5624:1 5625:1 5637:1 5638:1 5640:1 5641:1 5642:1 5655:1 5656:1 5666:1 5667:1 5669:1 5675:1 5682:1 5683:1 5684:1 5685:1 5687:1 5688:1 5692:1 5693:1 5697:1 5700:1 5701:1 5702:1 5726:1 5730:1 5735:1 5740:1 5741:1 5747:1 5757:1 5758:1 5803:1 5881:1 5882:1 5892:1 5894:1 5900:1 5901:1 5902:1 5903:1 5906:1 5907:1 5938:1 5939:1 5941:1 5942:1 5943:1 5944:1 5953:1 5954:1 5963:1 5983:1 6053:1 6054:1 6056:1 6058:1 6059:1 6133:1 6134:1 6150:1 6175:1 6214:1 6224:1 6231:1 6232:1 6233:1 6399:1 6400:1 6422:1 6481:1 6482:1 6491:1 6519:1 6538:1 6539:1 6540:1 6547:1 6565:1 6653:1 6654:1 6655:1 6689:1 7066:1 7425:1 7426:1 7611:1 7612:1 7617:1 7826:1 7833:1 9899:1 10741:1 11221:1 11222:1 11990:1 11991:1 11992:1 11993:1 11994:1 11995:1 11996:1 11997:1 11998:1 11999:1 12000:1 12001:1 12002:1 12003:1 12004:1 14482:1 14483:1 14484:1 14485:1 14513:1 14519:1 14520:1 14521:1 14546:1 14573:1 14599:1 14666:1 14683:1 14688:1 14696:1 14697:1 14698:1 14700:1 14701:1 14703:1 14706:1 14714:1 14715:1 14721:1 14770:1 14789:1 14790:1 14915:1 14931:1 15047:1 15518:1 15523:1 15524:1 15525:1 15555:1 15609:1 15818:1 15819:1 15820:1 16699:1 16761:1 17945:1 17946:1 17947:1 17948:1 19592:1 19595:3 19596:1 19614:1 19634:1 19705:1 19792:1 19872:1 19873:1 19874:1 19900:1 19934:1 19935:1 19936:1 19937:1 25337:1 25338:1 25339:1 25340:1 27862:2 27865:1 27866:1 27871:1 27872:1 27873:1 27899:1 27900:1 27911:1 27915:1 27916:1 27917:1 27920:1 27938:1 27968:1 27969:1 27990:1 27999:1 28000:1 28008:1 28015:1 28059:1 28060:1 28061:1 28062:1 28063:1 28064:1 28065:1 28066:1 28067:1 28068:1 28073:1 28074:1 28075:1 28076:1 28090:1 28091:1 28092:1 28094:1 28095:1 28096:1 28097:1 28098:1 28403:1 28905:1 28906:1 28907:1 28908:1 28909:1 28910:1 28911:1 28912:1 31674:1 33592:1 33595:1  |EV| 
-0.0022362441123606954795910439770523 2:1 10:1 21:1 57:1 103:1 117:1 129:1 190:1 202:1 217:1 223:1 226:1 275:1 336:1 348:1 440:1 455:1 460:1 461:1 469:1 499:1 577:1 580:1 633:1 638:1 669:1 671:1 804:1 887:1 1566:1 2138:1 2139:1 2140:1 2141:1 2142:1 2194:1 2195:1 2196:1 2198:1 2199:1 2210:1 2211:1 2212:1 2239:1 2243:1 2287:1 2291:1 2298:1 2301:1 2311:1 2355:1 2359:1 2360:1 2371:1 2386:1 2435:1 2487:1 2495:1 2499:1 2566:1 2578:1 2581:1 2582:1 2611:1 2669:1 2721:1 2747:1 2907:1 3390:1 3766:1 3767:1 3801:2 3802:48 3803:1 3804:1 3805:2 3806:1 3812:1 3813:1 3814:1 3816:1 3817:1 3818:1 3819:1 3824:1 3940:1 3941:1 4569:1 4578:1 4579:1 4580:1 4581:1 4582:1 4583:1 4584:1 4585:1 4586:1 4587:1 4588:1 4589:1 4590:1 4605:1 4663:1 4694:1 4738:1 4739:1 5418:1 5424:1 5430:1 5436:1 5437:1 5441:1 5442:1 5443:1 5454:1 5455:1 5462:1 5463:1 5464:1 5465:1 5468:1 5469:1 5471:1 5482:1 5483:1 5484:1 5485:1 5486:1 5487:1 5488:1 5489:1 5490:1 5491:1 5492:1 5496:1 5497:1 5502:1 5503:1 5507:1 5508:1 5509:1 5510:1 5512:1 5513:1 5514:1 5515:1 5517:1 5522:1 5528:1 5534:1 5540:1 5541:1 5545:1 5546:1 5547:1 5558:1 5559:1 5565:1 5566:1 5567:1 5568:1 5570:1 5573:1 5575:1 5576:1 5578:1 5579:1 5580:1 5590:1 5591:1 5592:1 5594:1 5595:1 5596:1 5597:1 5598:1 5599:1 5601:1 5602:1 5603:1 5604:1 5605:1 5607:1 5608:1 5609:1 5610:1 5611:1 5612:1 5637:1 5638:1 5640:1 5641:1 5642:1 5643:1 5644:1 5645:1 5647:1 5649:1 5651:1 5652:1 5653:1 5666:1 5669:1 5675:1 5676:1 5677:1 5678:1 5679:1 5682:1 5683:1 5684:1 5698:1 5726:1 5730:1 5731:1 5735:1 5736:1 5737:1 5738:1 5740:1 5741:1 5742:1 5757:1 5758:1 5761:1 5779:1 5800:1 5801:1 5802:1 5806:1 5807:1 5809:1 5811:1 5812:1 5813:1 5814:1 5818:1 5819:1 5844:1 5847:1 5853:1 5873:1 5874:1 5875:1 5876:1 5880:1 5881:1 5900:1 5901:1 5902:1 5906:1 5907:1 5919:1 5920:1 5934:1 5935:1 5936:1 5937:1 5938:1 5939:1 5941:1 5942:1 5943:1 5944:1 5953:1 5954:1 5956:1 5960:1 5961:1 6023:1 6033:1 6034:1 6096:1 6115:1 6116:1 6124:1 6125:1 6128:1 6129:1 6133:1 6141:1 6142:1 6143:1 6144:1 6146:1 6147:1 6150:1 6162:1 6175:1 6192:1 6193:1 6196:1 6197:1 6203:1 6204:1 6213:1 6214:1 6224:1 6225:1 6226:1 6227:1 6231:1 6232:1 6233:1 6276:1 6428:1 6505:1 6506:1 6559:1 6689:1 6694:1 6695:1 6700:1 6737:1 6738:1 6774:1 6785:1 6934:1 6935:1 7079:1 7086:1 7087:1 7088:1 7218:1 7219:1 7285:1 7301:1 7312:1 7452:1 7457:1 7640:1 7641:1 7688:1 8303:1 8311:1 8514:1 8883:1 9881:1 9882:1 14213:1 14214:1 14215:1 14216:1 14217:1 14218:1 14219:1 14220:1 14221:1 14222:1 14223:1 14224:1 14225:1 14226:1 14227:1 14228:1 14229:1 14475:1 14476:1 14481:1 14482:1 14483:1 14484:1 14485:1 14541:1 14584:1 14619:1 14620:1 14621:1 14633:1 14645:1 14715:1 14859:1 15294:1 15295:1 15296:1 15340:1 15536:1 15720:1 15721:1 16044:1 16045:1 16292:1 16293:1 16294:1 16674:1 16675:1 16676:1 19353:1 19354:1 19355:1 19356:1 19357:1 19358:1 19359:1 19360:1 19593:1 19595:5 19596:1 19620:1 19636:1 19671:1 19743:1 19788:1 19825:1 19826:1 19827:1 19828:1 19841:1 19842:1 19843:1 19844:1 19855:1 20133:1 20146:1 20147:1 20148:1 20155:1 20167:1 20168:1 20169:1 27553:1 27554:1 27555:1 27556:1 27557:1 27561:1 27562:1 27563:1 27564:1 27565:1 27862:2 27864:1 27865:1 27866:1 27867:1 27868:1 27869:1 27870:1 27871:1 27872:1 27873:1 27887:1 27888:1 27897:1 27899:1 27900:1 27901:1 27902:1 27905:1 27906:1 27911:1 27914:1 27915:1 27916:1 27917:1 27920:1 27925:1 27938:1 27939:1 27950:1 27951:1 27968:1 27969:1 27989:1 27991:1 27997:1 28001:1 28007:1 28009:1 28015:1 28046:1 28049:1 28050:1 28053:1 28177:1 28239:1 28241:1 28386:1 28388:1 28389:1 28390:1 28391:1 28669:1 28826:1 29267:1 30326:1 33381:1 33382:1 33383:1 33384:1 33385:1 33592:1 33595:1  |EV| 
0.012025301324821355969385550110928 1:1 10:1 19:1 24:1 28:1 36:1 59:1 128:1 135:1 257:1 360:1 361:1 541:1 594:1 707:1 1018:1 1357:1 1520:1 1676:1 1800:1 1802:1 1803:1 1804:1 1805:1 1806:1 1807:1 2194:1 2195:1 2196:1 2199:1 2200:1 2202:1 2204:1 2208:1 2210:1 2212:1 2225:1 2241:1 2243:1 2246:1 2277:1 2310:1 2315:1 2421:1 2507:1 2508:1 2646:1 2684:1 2776:1 3000:1 3026:1 3349:1 3542:1 3543:1 3544:1 3545:1 3801:2 3802:37 3803:1 3804:1 3805:1 3806:1 3809:1 3813:1 3817:1 3819:1 4102:1 4424:1 4425:1 4426:1 4427:1 4428:1 4569:1 4570:1 4584:1 4606:1 4707:1 4710:1 4793:1 4850:1 4928:1 4929:1 4930:1 4931:1 4932:1 4933:1 4934:1 4935:1 4936:1 5027:1 5093:1 5106:1 5289:1 5290:1 5291:1 5292:1 5293:1 5294:1 5295:1 5296:1 5418:1 5422:1 5424:1 5425:1 5430:1 5439:1 5440:1 5441:1 5442:1 5443:1 5454:1 5455:1 5456:1 5457:1 5458:1 5462:1 5463:1 5464:1 5465:1 5494:1 5496:1 5522:1 5527:1 5528:1 5533:1 5534:1 5536:1 5543:1 5546:1 5567:1 5578:1 5579:1 5594:1 5595:1 5601:1 5602:1 5603:1 5604:1 5605:1 5608:1 5609:1 5610:1 5611:1 5612:1 5619:1 5623:1 5624:1 5625:1 5660:1 5664:1 5665:1 5706:1 5707:1 5709:1 5711:1 5712:1 5713:1 5714:1 5716:1 5717:1 5718:1 5719:1 5720:1 5721:1 5722:1 5726:1 5727:1 5748:1 5749:1 5751:1 5753:1 5754:1 5757:1 5764:1 5765:1 5766:1 5776:1 5806:1 5809:1 5811:1 5813:1 5818:1 5832:1 5833:1 5845:1 6181:1 6183:1 6192:1 6193:1 6196:1 6197:1 6282:1 6326:1 6440:1 6505:1 6509:1 6512:1 6513:1 6516:1 6518:1 6816:1 6943:1 7139:1 7144:1 7792:1 7939:1 7940:1 7946:1 7954:1 7955:1 7958:1 7961:1 7962:1 8272:1 8273:1 8274:1 8430:1 8431:1 8957:1 8959:1 9014:1 9015:1 11774:1 11904:1 12847:1 12848:1 12849:1 12852:1 12853:1 12854:1 12855:1 12856:1 12857:1 12858:1 12859:1 12860:1 12861:1 12862:1 12863:1 12864:1 12865:1 12866:1 14508:1 14513:1 14535:1 14578:1 14579:1 14739:1 14740:1 14741:1 14749:1 14767:1 14834:1 14835:1 14836:1 14842:1 14843:1 14915:1 15139:1 15192:1 15229:1 15513:1 15829:1 15830:1 15831:1 18457:1 18458:1 18459:1 18460:1 18461:1 18462:1 18463:1 19593:1 19594:1 19595:30 19620:1 19621:1 19622:1 19623:1 19624:1 19625:1 19626:1 19627:1 19628:1 19632:1 19634:1 19636:1 19645:1 19646:1 19647:1 19648:1 19656:1 19660:1 19664:1 19668:1 19670:1 19671:1 19672:1 19673:1 19674:1 19675:1 19679:1 19683:1 19687:1 19691:1 19692:1 19693:1 19701:1 19705:1 19709:1 19713:1 19715:1 19716:1 19717:1 19718:1 19719:1 19723:1 19730:1 19731:1 19732:1 19743:1 19747:1 19774:1 19775:1 19776:1 19777:1 19788:1 19792:1 19825:1 19826:1 19827:1 19828:1 19833:1 19841:1 19842:1 19843:1 19844:1 19855:1 19856:1 19858:1 19872:1 19874:1 19961:1 19962:1 19963:1 19964:1 19981:1 19982:1 19983:1 20085:1 20086:1 20087:1 20088:1 20089:1 20090:1 20112:1 20113:1 20114:1 20134:1 20174:1 20175:1 20176:1 20177:1 20255:1 20256:1 20286:1 20287:1 20313:1 20325:1 20574:1 20694:1 20695:1 20696:1 20711:1 20712:1 20713:1 20832:1 20833:1 20834:1 20835:1 21056:1 21057:1 21058:1 21190:1 21191:1 21192:1 21193:1 21194:1 21195:1 21353:1 21354:1 21450:1 21451:1 21452:1 21453:1 21565:1 21566:1 22192:1 22193:1 22194:1 23979:1 23980:1 23981:1 23985:1 23986:1 23987:1 24840:1 24841:1 24842:1 25683:1 25684:1 25685:1 25729:1 25730:1 25731:1 25748:1 25806:1 25807:1 26243:1 26244:1 26245:1 26246:1 26247:1 26248:1 26249:1 26250:1 26251:1 26252:1 26253:1 26254:1 26255:1 26256:1 26257:1 26258:1 26259:1 26260:1 26261:1 26262:1 26263:1 26264:1 26265:1 26266:1 26267:1 27862:2 27864:1 27865:1 27866:1 27867:1 27868:1 27871:1 27872:1 27887:1 27897:1 27899:1 27900:1 27901:1 27902:1 27905:1 27906:1 27911:1 27914:1 27934:1 27935:1 27936:1 27937:1 27938:1 27942:1 27979:1 27980:1 27991:1 27992:1 27993:1 27994:1 27996:1 27999:1 28002:1 28008:1 28010:1 28015:1 28016:1 28040:1 28044:1 28112:1 28177:1 28189:1 28362:1 28504:1 28579:1 28580:1 32258:1 32259:1 32260:1 32261:1 32262:1 32263:1 32264:1 32265:1 32266:1 33592:1 33595:1  |EV| 
0.008016808531029755158225924560611 1:1 12:1 19:1 21:1 35:1 69:1 91:1 98:1 109:2 117:1 136:1 143:1 144:1 151:1 161:1 203:1 221:1 223:1 250:1 504:1 625:1 636:1 660:1 720:1 767:1 768:1 1389:1 1462:1 1463:1 1464:1 1465:1 1466:1 1467:1 1468:1 1469:1 2194:1 2195:1 2196:1 2198:1 2199:1 2200:1 2202:1 2206:1 2208:1 2210:1 2212:1 2215:1 2222:1 2223:1 2226:1 2277:1 2279:1 2286:1 2301:1 2311:1 2316:1 2323:1 2329:1 2337:1 2372:1 2390:1 2413:1 2433:1 2614:1 2629:1 2635:1 2713:1 2820:1 3071:1 3311:1 3312:1 3313:1 3314:1 3315:1 3801:6 3802:48 3803:1 3804:1 3805:1 3806:1 3809:1 3813:1 3817:1 3818:1 3821:1 3830:1 3833:1 3922:1 4268:1 4270:1 4569:1 4571:1 4572:1 4603:1 4604:1 4605:1 4606:1 4607:1 4608:1 4609:1 4610:1 4611:1 4612:1 4613:1 5142:1 5153:1 5154:1 5414:1 5415:1 5416:1 5418:1 5419:1 5424:1 5426:1 5427:1 5428:1 5429:1 5430:1 5431:1 5432:1 5433:1 5435:1 5437:1 5439:1 5442:1 5444:1 5446:1 5447:1 5448:1 5452:1 5454:1 5455:1 5456:1 5457:1 5458:1 5459:1 5460:1 5462:1 5463:1 5464:1 5465:1 5466:1 5467:1 5472:1 5473:1 5474:1 5475:1 5476:1 5477:1 5478:1 5479:1 5480:1 5482:1 5483:1 5484:1 5485:1 5487:1 5489:1 5490:1 5491:1 5492:1 5494:1 5496:1 5497:1 5498:1 5499:1 5502:1 5503:1 5507:1 5508:1 5522:1 5528:1 5533:1 5534:1 5558:1 5565:1 5566:1 5567:1 5578:1 5579:1 5594:1 5595:1 5601:1 5602:1 5603:1 5604:1 5605:1 5608:1 5609:1 5610:1 5611:1 5612:1 5613:1 5614:1 5623:1 5624:1 5625:1 5626:1 5627:1 5628:1 5629:1 5630:1 5631:1 5632:1 5633:1 5634:1 5635:1 5636:1 5654:1 5675:1 5676:1 5677:1 5678:1 5682:1 5683:1 5684:1 5685:1 5687:1 5688:1 5689:1 5690:1 5691:1 5692:1 5693:1 5700:1 5701:1 5702:1 5703:1 5704:1 5706:1 5707:1 5708:1 5709:1 5710:1 5711:1 5712:1 5713:1 5714:1 5723:1 5724:1 5726:1 5727:1 5728:1 5729:1 5737:1 5738:1 5740:1 5741:1 5742:1 5747:1 5806:1 5807:1 5809:1 5811:1 5812:1 5813:1 5814:1 5818:1 5819:1 5880:1 5881:1 6000:1 6064:1 6068:1 6075:1 6120:1 6153:1 6154:1 6155:1 6198:1 6210:1 6231:1 6232:1 6233:1 6241:1 6267:1 6399:1 6400:1 6505:1 6506:1 6614:1 6621:1 6622:1 6742:1 6743:1 6775:1 6778:1 6787:1 6838:1 6839:1 6845:1 6986:1 7026:1 7027:1 7028:1 7270:1 7481:1 8263:1 8264:1 8378:1 8379:1 8451:1 8452:1 8454:1 8455:1 8516:1 8517:1 8789:1 8790:1 8958:1 9198:1 9199:1 9200:1 9201:1 9245:1 9246:1 10274:1 10275:1 11407:1 11408:1 11409:1 11410:1 11720:1 11721:1 11722:1 11723:1 11724:1 11725:1 11726:1 11727:1 11728:1 11736:1 14507:1 14508:1 14509:1 14522:1 14523:1 14524:1 14525:1 14526:1 14527:1 14528:1 14529:1 14530:1 14535:1 14536:1 14541:1 14543:1 14717:1 14792:1 15034:1 15035:1 15092:1 15139:1 15191:1 15192:1 15193:1 15194:1 15459:1 15513:1 15514:1 15821:1 15822:1 15965:1 16187:1 17805:1 17806:1 17807:1 17808:1 17810:1 17811:1 19592:1 19594:1 19595:27 19601:1 19602:1 19603:1 19604:1 19605:1 19606:1 19607:1 19608:1 19612:1 19614:1 19616:1 19621:1 19622:1 19623:1 19624:1 19625:1 19626:1 19627:1 19628:1 19632:1 19634:1 19636:1 19637:1 19638:1 19639:1 19640:1 19641:1 19642:1 19643:1 19644:1 19645:1 19646:1 19647:1 19648:1 19694:1 19695:1 19696:1 19697:1 19701:1 19702:1 19703:1 19704:1 19705:1 19706:1 19707:1 19708:1 19709:1 19719:1 19792:1 19872:1 19873:1 19874:1 19897:1 19900:1 19901:1 19902:1 19903:1 19922:1 19923:1 19924:1 19934:1 19935:1 19936:1 19937:1 19943:1 19944:1 19945:1 19946:1 19950:1 19981:1 19982:1 19983:1 19999:1 20009:1 20013:1 20112:1 20113:1 20114:1 20118:1 20119:1 20120:1 20187:1 20189:1 20222:1 20228:1 20230:1 20259:1 20329:1 20330:1 20331:1 20485:1 20486:1 20487:1 20488:1 20724:1 20747:1 20748:1 20749:1 20750:1 20802:1 20803:1 20804:1 20805:1 21202:1 21203:1 21204:1 21606:1 21607:1 21682:1 21780:1 21781:1 21782:1 21837:1 21838:1 21839:1 21851:1 21852:1 21853:1 21999:1 22000:1 22001:1 22018:1 22019:1 22020:1 22050:1 22051:1 22052:1 22163:1 22164:1 22165:1 22172:1 22173:1 22174:1 23059:1 23531:1 23532:1 23658:1 23659:1 25119:1 25120:1 25121:1 25122:1 25123:1 25124:1 25125:1 25126:1 25127:1 25128:1 25129:1 25130:1 25131:1 25132:1 25133:1 25134:1 25135:1 25136:1 25137:1 25138:1 27862:7 27864:1 27865:1 27866:1 27867:1 27868:1 27871:1 27872:1 27874:1 27875:1 27876:1 27877:1 27878:1 27879:1 27880:1 27881:1 27882:1 27883:1 27884:1 27885:1 27886:1 27887:1 27888:1 27889:1 27890:1 27891:1 27892:1 27893:1 27895:1 27896:1 27897:1 27898:1 27899:1 27900:1 27901:1 27902:1 27903:1 27905:1 27906:1 27908:1 27909:1 27910:1 27911:1 27912:1 27913:1 27914:1 27915:1 27916:1 27917:1 27920:1 27922:1 27925:1 27926:1 27927:1 27930:1 27931:1 27932:1 27933:1 27934:1 27935:1 27936:1 27937:1 27938:1 27939:1 27940:1 27941:1 27942:1 27943:1 27949:1 27950:1 27951:1 27954:1 27955:1 27958:1 27959:1 27960:1 27965:1 27966:1 27967:1 27978:1 27979:1 27980:1 27981:1 27982:1 27983:1 27986:1 27988:1 27989:1 27990:1 27991:1 27997:1 27998:1 27999:1 28000:1 28001:1 28002:1 28007:1 28008:1 28009:1 28010:1 28011:1 28012:1 28031:1 28053:1 28086:1 28101:1 28105:1 28107:1 28109:1 28115:1 28119:1 28127:1 28138:1 28140:1 28141:1 28142:1 28143:1 28144:1 28156:1 28161:1 28162:1 28169:1 28175:1 28190:1 28205:1 28211:1 28213:1 28217:1 28224:1 28227:1 28228:1 28229:1 28242:1 28246:1 28287:1 28299:1 28300:1 28418:1 28429:1 28430:1 28459:1 28461:1 28463:1 28493:1 28509:1 28510:1 28512:1 28625:1 28776:1 28893:1 28897:1 28942:1 28984:1 29043:1 29376:1 29740:1 29824:1 30093:1 30166:1 30466:1 30603:1 31264:1 31270:1 31541:1 31543:1 31544:1 31545:1 31546:1 31547:1 31548:1 31549:1 31550:1 31551:1 31552:1 31553:1 31554:1 31558:1 31559:1 31560:1 31561:1 31562:1 31563:1 31564:1 31565:1 31566:1 31567:1 31568:1 33592:1 33595:1  |EV| 
0.0076130118700637305212408634247367 1:1 9:1 21:1 27:1 28:1 33:1 42:1 57:1 128:1 136:1 187:1 207:1 217:1 226:1 227:1 283:1 325:1 1155:1 1157:1 1787:1 1931:1 2083:1 2084:1 2196:1 2198:1 2203:1 2204:1 2206:1 2208:1 2210:1 2212:1 2213:1 2220:1 2239:1 2274:1 2291:1 2298:1 2310:1 2316:1 2360:1 2379:1 2386:1 2392:1 2443:1 3101:1 3533:1 3729:1 3730:1 3801:1 3802:36 3803:1 3804:1 3805:1 3809:1 3810:1 3821:1 3831:1 4129:1 4131:1 4511:1 4512:1 4513:1 4514:1 4571:1 4590:1 4690:1 4736:1 4786:1 4807:1 4844:1 4845:1 4846:1 4918:1 4963:1 4964:1 5073:1 5108:1 5114:1 5365:1 5366:1 5367:1 5368:1 5369:1 5370:1 5371:1 5372:1 5373:1 5374:1 5418:1 5423:1 5424:1 5426:1 5427:1 5430:1 5432:1 5433:1 5435:1 5436:1 5439:1 5440:1 5442:1 5454:1 5455:1 5456:1 5457:1 5458:1 5462:1 5463:1 5464:1 5465:1 5468:1 5469:1 5471:1 5472:1 5473:1 5475:1 5477:1 5478:1 5479:1 5480:1 5481:1 5482:1 5502:1 5503:1 5507:1 5508:1 5509:1 5510:1 5512:1 5513:1 5514:1 5515:1 5517:1 5518:1 5519:1 5521:1 5522:1 5524:1 5525:1 5527:1 5528:1 5534:1 5543:1 5544:1 5546:1 5563:1 5564:1 5566:1 5567:1 5568:1 5569:1 5570:1 5573:1 5579:1 5602:1 5603:1 5604:1 5605:1 5608:1 5609:1 5610:1 5611:1 5612:1 5613:1 5614:1 5616:1 5619:1 5621:1 5622:1 5623:1 5624:1 5625:1 5626:1 5627:1 5628:1 5629:1 5630:1 5631:1 5632:1 5633:1 5634:1 5635:1 5636:1 5637:1 5640:1 5641:1 5643:1 5644:1 5645:1 5647:1 5654:1 5666:1 5669:1 5726:1 5727:1 5740:1 5747:1 5844:1 5845:1 5846:1 5847:1 5853:1 5866:1 5869:1 5871:1 5881:1 5892:1 5900:1 5901:1 5902:1 5906:1 5907:1 5908:1 5909:1 5960:1 5961:1 5963:1 5965:1 5966:1 5968:1 5970:1 5971:1 5972:1 5994:1 5995:1 5996:1 6058:1 6075:1 6130:1 6135:1 6150:1 6151:1 6164:1 6165:1 6167:1 6168:1 6171:1 6172:1 6173:1 6175:1 6176:1 6358:1 6401:1 6402:1 6403:1 6404:1 6491:1 6492:1 6559:1 6592:1 6593:1 6608:1 6609:1 6610:1 6611:1 6627:1 6637:1 6639:1 6679:1 6731:1 6732:1 6737:1 6789:1 6790:1 6791:1 6792:1 6838:1 6842:1 6843:1 6845:1 6847:1 6848:1 6878:1 6879:1 6934:1 6935:1 6966:1 6967:1 6986:1 7199:1 7200:1 7205:1 7206:1 7630:1 7631:1 7640:1 7641:1 7906:1 8049:1 8050:1 8263:1 8264:1 8285:1 8297:1 8298:1 8394:1 8530:1 8533:1 8645:1 8646:1 9434:1 9602:1 9603:1 10526:1 10528:1 10622:1 10624:1 10944:1 10945:1 12153:1 12795:1 12797:1 13302:1 13931:1 13932:1 13933:1 13934:1 13935:1 13936:1 14475:1 14476:1 14535:1 14561:1 14602:1 14603:1 14604:1 14613:1 14615:1 14625:1 14650:1 14651:1 14652:1 14683:1 14688:1 14689:1 14709:1 14752:1 14825:1 14826:1 14912:1 14914:1 14915:1 14977:1 15120:1 15121:1 15413:1 15414:1 15415:1 15481:1 15543:1 16295:1 16296:1 18024:1 18025:1 18888:1 19143:1 19144:1 19145:1 19592:1 19594:1 19595:24 19598:1 19600:1 19604:1 19608:1 19612:1 19616:1 19618:1 19620:1 19624:1 19628:1 19632:1 19636:1 19637:1 19638:1 19643:1 19644:1 19701:1 19709:1 19723:1 19730:1 19731:1 19732:1 19792:1 19802:1 19803:1 19804:1 19841:1 19842:1 19843:1 19844:1 19886:1 19887:1 19888:1 19889:1 19900:1 19904:1 19905:1 19919:1 19920:1 19921:1 19922:1 19923:1 19924:1 19946:1 19970:1 19971:1 19981:1 19982:1 19983:1 20013:1 20032:1 20033:1 20034:1 20053:1 20054:1 20055:1 20453:1 20454:1 20455:1 20467:1 20468:1 20469:1 20470:1 20473:1 20482:1 20775:1 20776:1 20828:1 20829:1 20953:1 20956:1 20957:1 20958:1 20959:1 20962:1 20963:1 20964:1 21431:1 21432:1 21433:1 21446:1 21447:1 21448:1 21789:1 21796:1 21803:1 21804:1 21807:1 21808:1 21891:1 21981:1 22163:1 22164:1 22165:1 22172:1 22173:1 22174:1 23941:1 25097:1 25610:1 26160:1 26161:1 26214:1 26215:1 26708:1 26709:1 27363:1 27364:1 27365:1 27366:1 27367:1 27368:1 27369:1 27370:1 27371:1 27372:1 27373:1 27374:1 27375:1 27376:1 27862:7 27865:1 27866:1 27871:1 27872:1 27875:1 27876:1 27877:1 27881:1 27885:1 27891:1 27892:1 27893:1 27896:1 27897:1 27898:1 27899:1 27900:1 27908:1 27910:1 27911:1 27913:1 27914:1 27925:1 27926:1 27927:1 27932:1 27933:1 27934:1 27936:1 27937:1 27938:1 27939:1 27941:1 27942:1 27943:1 27945:1 27946:1 27948:1 27949:1 27950:1 27951:1 27953:1 27954:1 27955:1 27957:1 27958:1 27960:1 27964:1 27965:1 27966:1 27978:1 27979:1 27980:1 27982:1 27988:1 27991:1 27992:1 27994:1 27996:1 27999:1 28002:1 28008:1 28010:1 28035:1 28038:1 28040:1 28045:1 28079:1 28080:1 28081:1 28088:1 28091:1 28092:1 28115:1 28131:1 28132:1 28133:1 28138:1 28143:1 28144:1 28167:1 28170:1 28174:1 28192:1 28263:1 28266:1 28333:1 28355:1 28357:1 28359:1 28366:1 28378:1 28400:1 28401:1 28402:1 28403:1 28404:1 28405:1 28406:1 28411:1 28439:1 28440:1 28441:1 28442:1 28446:1 28459:1 28461:1 28607:1 28625:1 28646:1 28707:1 28793:1 28813:1 28877:1 28880:1 28921:1 28922:1 28923:1 28924:1 28928:1 28929:1 28930:1 29227:1 29268:1 29269:1 29273:1 29275:1 29343:1 29348:1 29445:1 29729:1 29804:1 30726:1 30876:1 30913:1 30915:1 32099:1 32144:1 33133:1 33134:1 33135:1 33136:1 33137:1 33138:1 33139:1 33140:1 33141:1 33142:1 33143:1 33144:1 33592:1 33595:1  |EV| 
0.0099181438879408362341294491670851 4:1 10:1 20:1 21:1 24:1 25:1 31:1 36:1 38:1 42:1 96:1 102:1 103:1 135:1 142:1 143:1 207:1 532:1 1101:1 1155:1 1860:1 1865:2 1866:1 1867:1 1868:1 1869:1 1870:1 2197:1 2198:1 2199:1 2200:1 2202:1 2208:1 2209:1 2210:1 2212:1 2220:1 2227:1 2274:1 2284:1 2290:1 2291:1 2315:1 2322:1 2378:1 2379:1 2637:1 2930:1 3101:1 3585:1 3587:1 3588:1 3589:1 3590:1 3801:2 3802:36 3803:1 3804:1 3805:3 3807:1 3812:1 3814:1 3816:1 3817:1 3818:1 3819:1 3826:1 3827:1 3828:1 3863:1 4570:1 4573:1 4578:1 4579:1 4580:1 4581:1 4582:1 4583:1 4584:1 4585:1 4586:1 4587:1 4588:1 4589:1 4590:1 5418:1 5424:1 5430:1 5435:1 5436:1 5437:1 5438:1 5442:1 5454:1 5463:1 5481:1 5482:1 5483:1 5500:1 5501:1 5513:1 5522:1 5528:1 5534:1 5539:1 5540:1 5541:1 5546:1 5558:1 5565:1 5566:1 5567:1 5575:1 5576:1 5577:1 5578:1 5579:1 5580:1 5590:1 5591:1 5592:1 5593:1 5594:1 5595:1 5596:1 5597:1 5598:1 5599:1 5601:1 5602:1 5603:1 5604:1 5605:1 5606:1 5607:1 5608:1 5609:1 5610:1 5611:1 5612:1 5637:1 5638:1 5640:1 5641:1 5642:1 5647:1 5664:1 5665:1 5666:1 5669:1 5675:1 5679:1 5680:1 5681:1 5682:1 5683:1 5684:1 5686:1 5694:1 5695:1 5696:1 5697:1 5698:1 5699:1 5709:1 5723:1 5724:1 5726:1 5728:1 5729:1 5730:1 5732:1 5733:1 5734:1 5735:1 5740:1 5790:1 5816:1 5820:1 5821:1 5824:1 5825:1 5828:1 5829:1 5830:1 5831:1 5877:1 5881:1 5882:1 5883:1 5892:1 5894:1 5896:1 5900:1 5901:1 5902:1 5903:1 5904:1 5906:1 5907:1 5912:1 5913:1 5919:1 5920:1 5934:1 5935:1 5936:1 5937:1 5942:1 5960:1 5963:1 5980:1 5986:1 5989:1 6027:1 6033:1 6053:1 6054:1 6056:1 6057:1 6058:1 6059:1 6185:1 6186:1 6187:1 6188:1 6189:1 6206:1 6217:1 6218:1 6409:1 6438:1 6439:1 6442:1 6443:1 6449:1 6450:1 6481:1 6482:1 6547:1 6559:1 6689:1 6712:1 6713:1 6756:1 6758:1 6759:1 6762:1 6874:1 7079:1 7139:1 7144:1 8149:1 8150:1 8260:1 8261:1 8272:1 8273:1 8274:1 11314:1 11315:1 13038:1 13050:1 13051:1 13058:1 13059:1 13060:1 13061:1 13062:1 13063:1 13064:1 13065:1 13066:1 13072:1 13073:1 14480:1 14481:1 14482:1 14483:1 14484:1 14485:1 14504:1 14505:1 14506:1 14510:1 14511:1 14512:1 14513:1 14514:1 14515:1 14519:1 14520:1 14521:1 14572:1 14573:1 14599:1 14600:1 14606:1 14612:1 14613:1 14615:1 14666:1 14683:1 14688:1 14689:1 14701:1 14703:1 14709:1 14789:1 14790:1 14875:1 14931:1 15029:1 15120:1 15121:1 15213:1 16464:1 18558:1 18561:1 18562:1 18563:1 18564:1 18565:1 19592:1 19595:3 19596:1 19613:1 19614:1 19615:1 19616:1 19633:1 19634:1 19635:1 19636:1 19723:1 20473:1 26471:1 26472:1 26473:1 26474:1 26475:1 26476:1 27862:2 27865:1 27866:1 27869:1 27870:1 27871:1 27872:1 27873:1 27897:1 27899:1 27900:1 27901:1 27902:1 27905:1 27906:1 27911:1 27914:1 27938:1 27939:1 27968:1 27969:1 27991:1 27998:1 28001:1 28009:1 28015:1 28035:1 28046:1 28049:1 28050:1 28059:1 28060:1 28061:1 28062:1 28073:1 28074:1 28075:1 28076:1 28089:1 28090:1 28091:1 28092:1 28094:1 28095:1 28096:1 28275:1 28276:1 28403:1 28436:1 28504:1 29250:1 31185:1 31672:1 32385:1 32386:1 33592:1 33595:1  |EV| 
-0.059544943333645544703003338327107 8:1 16:1 20:1 21:1 23:1 28:1 31:1 33:1 38:7 40:1 43:1 66:1 85:1 87:1 92:1 96:1 97:1 99:1 111:1 118:1 123:1 128:1 135:1 144:1 148:1 178:1 179:1 206:1 208:1 211:1 217:1 238:1 247:1 266:1 327:1 360:1 361:1 371:1 372:1 415:1 416:1 501:1 509:1 518:1 611:1 645:1 704:1 706:1 758:1 763:1 817:1 819:1 1067:1 1114:1 1150:1 1283:1 1360:1 1550:1 1935:1 1937:7 1938:1 1939:1 1940:1 1941:1 1942:1 1943:1 1944:1 1945:1 1946:1 1947:1 1948:1 1949:1 1950:1 1951:1 1952:1 1953:1 1954:1 1955:1 2195:1 2196:1 2197:1 2198:1 2199:1 2201:1 2204:1 2208:1 2209:1 2210:1 2212:1 2213:1 2218:1 2221:1 2225:1 2226:1 2241:1 2246:1 2251:1 2252:1 2270:1 2272:1 2274:1 2275:1 2277:1 2281:1 2284:1 2285:1 2287:1 2296:1 2305:1 2310:1 2315:1 2323:1 2326:1 2350:1 2352:1 2360:1 2371:1 2377:1 2380:1 2382:1 2386:1 2392:1 2403:1 2415:1 2417:1 2428:1 2430:1 2463:1 2480:1 2506:1 2507:1 2508:1 2515:1 2516:1 2539:1 2609:1 2619:1 2625:1 2626:1 2638:1 2668:1 2677:1 2699:1 2725:1 2736:1 2773:1 2775:1 2782:1 2817:1 2990:1 3038:1 3249:1 3379:1 3631:1 3632:1 3633:1 3634:1 3635:1 3636:1 3637:1 3638:1 3639:1 3640:1 3641:1 3642:1 3643:1 3644:1 3645:1 3801:7 3802:175 3803:1 3804:1 3805:8 3808:1 3813:1 3817:1 3820:1 3821:1 3822:1 4002:1 4251:1 4466:1 4471:1 4472:1 4569:1 4571:1 4591:1 4996:1 5083:1 5334:1 5418:1 5424:1 5430:1 5435:1 5437:1 5444:1 5446:1 5447:1 5448:1 5449:1 5452:1 5462:1 5463:1 5464:1 5465:1 5474:1 5475:1 5476:1 5477:1 5479:1 5483:1 5502:1 5503:1 5507:1 5508:1 5518:1 5519:1 5520:1 5521:1 5522:1 5523:1 5524:1 5525:1 5528:1 5534:1 5536:1 5537:1 5539:1 5540:1 5541:1 5542:1 5543:1 5544:1 5545:1 5546:1 5547:1 5558:1 5563:1 5564:1 5567:1 5568:1 5569:1 5573:1 5588:1 5596:1 5601:1 5602:1 5603:1 5604:1 5605:1 5608:1 5609:1 5610:1 5611:1 5612:1 5662:1 5663:1 5664:1 5665:1 5675:1 5676:1 5677:1 5678:1 5679:1 5680:1 5685:1 5686:1 5687:1 5688:1 5689:1 5690:1 5691:1 5692:1 5693:1 5694:1 5695:1 5697:1 5698:1 5699:1 5726:1 5727:1 5739:1 5740:1 5746:1 5747:1 5790:1 5806:1 5809:1 5811:1 5813:1 5818:1 5855:1 5856:1 5859:1 5863:1 5879:1 5880:1 5891:1 5892:1 5893:1 5894:1 5895:1 5922:1 5923:1 6115:1 6116:1 6122:1 6123:1 6143:1 6144:1 6146:1 6147:1 6162:1 6177:1 6178:1 6179:1 6187:1 6189:1 6279:1 6332:1 6342:1 6353:1 6354:1 6355:1 6356:1 6377:1 6378:1 6380:1 6505:1 6506:1 6614:1 6628:1 6629:1 6630:1 6631:1 6632:1 6633:1 6634:1 6635:1 6718:1 6906:1 6907:1 6934:1 6935:1 7961:1 7962:1 8106:1 8957:1 8959:1 9701:1 10812:1 10952:1 10953:1 13350:1 13353:1 13358:1 13359:1 14504:1 14505:1 14506:1 14511:1 14512:1 14514:1 14567:1 14603:1 14611:1 14612:1 14613:1 14614:1 14615:1 14616:1 14628:1 14629:1 14696:1 14697:1 14698:1 14700:1 14701:1 14703:1 14709:1 14777:1 14778:1 14779:1 14789:1 14790:1 14814:1 14815:1 14853:1 15144:1 15469:1 15470:1 15621:1 15713:1 15714:1 15940:1 17763:1 17764:1 18394:1 18395:1 18758:1 18786:1 18787:1 19593:1 19595:2 19596:1 19645:1 19646:1 19647:1 19648:1 20174:1 20175:1 20176:1 20177:1 27862:2 27864:1 27865:1 27866:1 27867:1 27868:1 27871:1 27872:1 27887:1 27891:1 27897:1 27899:1 27900:1 27901:1 27902:1 27911:1 27925:1 27934:1 27935:1 27936:1 27937:1 27938:1 27940:1 27942:1 27977:1 27978:1 27979:1 27980:1 27989:1 27990:1 27999:1 28002:1 28003:1 28004:1 28005:1 28007:1 28008:1 28010:1 28015:1 28016:1 28040:1 28060:1 28064:1 28907:1 28908:1 28909:1 28910:1 28985:1 29859:1 29860:1 29861:1 29862:1 30273:1 30530:1 30899:1 32663:1 32775:1 33592:1 33597:1  |EV| 
0.013144872693145813469239868709337 1:1 14:1 20:1 21:1 24:1 25:1 31:1 38:2 42:1 129:1 161:1 359:1 477:1 564:1 1532:1 1876:1 1878:1 2106:1 2107:1 2108:1 2196:1 2197:1 2198:1 2199:1 2202:1 2209:1 2212:1 2220:1 2227:1 2266:1 2287:1 2311:1 2321:1 2337:1 2506:1 2661:1 3362:1 3593:1 3746:1 3801:4 3802:18 3803:1 3804:1 3805:1 3809:1 3812:1 3814:1 3816:1 3817:1 3818:1 3831:1 4066:1 4525:1 4526:1 4569:1 4578:1 4579:1 4580:1 4581:1 4582:1 4583:1 4584:1 4585:1 4586:1 4587:1 4588:1 4589:1 4590:1 4637:1 4647:1 4763:1 4952:1 5229:1 5414:1 5415:1 5418:1 5420:1 5421:1 5424:1 5426:1 5427:1 5430:1 5432:1 5433:1 5436:1 5437:1 5438:1 5439:1 5440:1 5442:1 5449:1 5452:1 5454:1 5455:1 5456:1 5457:1 5458:1 5459:1 5460:1 5463:1 5464:1 5465:1 5466:1 5467:1 5468:1 5469:1 5471:1 5472:1 5473:1 5475:1 5477:1 5478:1 5482:1 5494:1 5498:1 5502:1 5503:1 5504:1 5505:1 5506:1 5507:1 5508:1 5509:1 5510:1 5512:1 5513:1 5514:1 5515:1 5516:1 5517:1 5522:1 5528:1 5534:1 5539:1 5541:1 5565:1 5566:1 5567:1 5575:1 5576:1 5577:1 5578:1 5579:1 5580:1 5590:1 5591:1 5592:1 5593:1 5594:1 5595:1 5596:1 5597:1 5598:1 5599:1 5602:1 5603:1 5604:1 5605:1 5606:1 5607:1 5608:1 5609:1 5610:1 5611:1 5612:1 5647:1 5654:1 5655:1 5656:1 5681:1 5696:1 5697:1 5706:1 5707:1 5709:1 5711:1 5712:1 5713:1 5714:1 5730:1 5731:1 5732:1 5733:1 5734:1 5735:1 5736:1 5743:1 5744:1 5745:1 5759:1 5760:1 5919:1 5920:1 5934:1 5935:1 5936:1 5937:1 5949:1 5953:1 5956:1 6000:1 6009:1 6017:1 6018:1 6020:1 6023:1 6077:1 6148:1 6249:1 6252:1 6260:1 6332:1 6358:1 6491:1 6492:1 6502:1 6503:1 6582:1 6583:1 7079:1 7321:1 7322:1 7344:1 7345:1 7346:1 7347:1 8237:1 8238:1 11951:1 11952:1 11959:1 11960:1 11971:1 11972:1 14082:1 14083:1 14084:1 14085:1 14086:1 14475:1 14476:1 14480:1 14481:1 14482:1 14483:1 14484:1 14485:1 14504:1 14505:1 14506:1 14510:1 14511:1 14512:1 14513:1 14514:1 14515:1 14519:1 14520:1 14521:1 14541:1 14588:1 14589:1 14590:1 14731:1 14737:1 14912:1 15368:1 15369:1 19245:1 19246:1 19247:1 19248:1 19592:1 19594:1 19595:7 19598:1 19600:1 19608:1 19613:1 19614:1 19615:1 19616:1 19618:1 19620:1 19628:1 19633:1 19634:1 19635:1 19636:1 19701:1 19719:1 19730:1 19731:1 19732:1 19897:1 19904:1 19905:1 19919:1 19920:1 19921:1 19970:1 19971:1 20013:1 21169:1 21170:1 21171:1 21187:1 21188:1 21189:1 24933:1 24934:1 24935:1 24941:1 24942:1 24943:1 27467:1 27468:1 27469:1 27470:1 27471:1 27472:1 27862:6 27865:1 27866:1 27867:1 27868:1 27869:1 27870:1 27871:1 27872:1 27873:1 27874:1 27875:1 27876:1 27881:1 27885:1 27887:1 27888:1 27889:1 27890:1 27891:1 27892:1 27893:1 27894:1 27897:1 27898:1 27899:1 27900:1 27901:1 27902:1 27905:1 27906:1 27907:1 27908:1 27910:1 27911:1 27914:1 27920:1 27925:1 27926:1 27927:1 27930:1 27931:1 27932:1 27933:1 27934:1 27936:1 27937:1 27938:1 27939:1 27942:1 27982:1 27983:1 27988:1 27990:1 27991:1 27999:1 28000:1 28001:1 28002:1 28003:1 28004:1 28005:1 28011:1 28012:1 28013:1 28038:1 28040:1 28045:1 28046:1 28050:1 28057:1 28060:1 28088:1 28105:1 28107:1 28112:1 28119:1 28138:1 28143:1 28174:1 28177:1 28189:1 28190:1 28217:1 28220:1 28221:1 28228:1 28229:1 28281:1 28309:1 28333:1 28400:1 28401:1 28402:1 28420:1 28427:1 28537:1 28546:1 28559:1 28726:1 28727:1 28728:1 28750:1 28751:1 28756:1 28907:1 28909:1 30273:1 30475:1 31390:1 31391:1 31466:1 31661:1 32674:1 32675:1 33231:1 33232:1 33233:1 33234:1 33235:1 33236:1 33237:1 33238:1 33239:1 33240:1 33592:1 33595:1  |EV| 
0.0027630184366395182764264415453681 1:1 11:1 47:1 96:1 124:1 134:3 203:1 204:1 269:1 295:1 296:1 297:1 298:1 299:1 325:1 414:1 851:1 852:1 853:1 854:1 2194:1 2195:1 2199:1 2229:1 2251:1 2277:1 2284:1 2291:1 2306:1 2372:1 2373:1 2453:1 2454:1 2455:1 2456:1 2457:1 2547:1 2641:1 2782:1 2885:1 2886:1 3801:3 3802:25 3803:1 3804:1 3805:1 3806:1 3809:1 3817:1 3831:1 3838:1 3840:1 3843:1 3866:1 4014:1 4015:1 4016:1 4601:1 4625:1 4826:1 4827:1 4834:1 4835:1 4836:1 5418:1 5424:1 5430:1 5439:1 5440:1 5441:1 5442:1 5443:1 5463:1 5464:1 5465:1 5522:1 5527:1 5528:1 5530:1 5531:1 5533:1 5534:1 5539:1 5541:1 5558:1 5559:1 5567:1 5570:1 5573:1 5575:1 5576:1 5579:1 5580:1 5602:1 5603:1 5604:1 5605:1 5608:1 5609:1 5610:1 5611:1 5612:1 5647:1 5669:1 5675:1 5679:1 5716:1 5717:1 5719:1 5721:1 5722:1 5723:1 5724:1 5726:1 5727:1 5728:1 5729:1 5730:1 5731:1 5735:1 5736:1 5737:1 5738:1 5740:1 5741:1 5742:1 5748:1 5749:1 5751:1 5753:1 5754:1 5757:1 5764:1 5765:1 5766:1 5773:1 5774:1 5783:1 5784:1 5785:1 5786:1 5832:1 5833:1 5847:1 5941:1 5958:1 5959:1 5963:1 6064:1 6068:1 6069:1 6075:1 6098:1 6099:1 6119:1 6121:1 6181:1 6358:1 6399:1 6400:1 6501:1 6507:1 6555:1 6838:1 6839:1 6980:1 6981:1 7047:1 7048:1 7066:1 7067:1 7069:1 7072:1 7073:1 7075:1 7271:1 7457:1 7821:1 7822:1 8107:1 8108:1 8125:1 8126:1 8645:1 8646:1 9116:1 9117:1 9261:1 9262:1 9263:1 9264:1 9265:1 9266:1 9267:1 9268:1 9269:1 9270:1 9271:1 9272:1 9273:1 14508:1 14531:1 14532:1 14533:1 14578:1 14579:1 14606:1 14619:1 14620:1 14621:1 14795:1 14828:1 14914:1 14915:1 14937:1 15111:1 15176:1 15189:1 15191:1 15192:1 15193:1 15194:1 15501:1 15767:1 15768:1 15769:1 16125:1 16346:1 16347:1 16348:1 16349:1 16350:1 16351:1 16352:1 16353:1 16354:1 16355:1 16356:1 16357:1 19593:1 19594:1 19595:16 19620:1 19623:1 19625:1 19626:1 19627:1 19628:1 19634:1 19636:1 19660:1 19664:1 19671:1 19675:1 19679:1 19683:1 19705:1 19709:1 19719:1 19723:1 19774:1 19775:1 19776:1 19777:1 19819:1 19820:1 19821:1 19825:1 19826:1 19827:1 19828:1 19833:1 19835:1 19836:1 19837:1 19841:1 19842:1 19843:1 19844:1 19855:1 19856:1 19857:1 19858:1 19872:1 19873:1 19874:1 19999:1 20003:1 20071:1 20075:1 20247:1 20248:1 20282:1 20283:1 20445:1 20452:1 20786:1 20787:1 20839:1 20840:1 20960:1 20961:1 21003:1 21004:1 21011:1 21012:1 21366:1 21367:1 21368:1 22065:1 22066:1 22067:1 22253:1 22263:1 22677:1 22678:1 22679:1 22680:1 22681:1 22682:1 22683:1 22684:1 22685:1 22686:1 22687:1 22688:1 22689:1 22690:1 22691:1 22692:1 22693:1 22694:1 22695:1 22696:1 22697:1 22698:1 27862:2 27865:1 27866:1 27867:1 27868:1 27871:1 27872:1 27887:1 27896:1 27897:1 27899:1 27900:1 27901:1 27902:1 27904:1 27905:1 27906:1 27911:1 27914:1 27925:1 27934:1 27935:1 27936:1 27937:1 27938:1 27939:1 27941:1 27942:1 27969:1 27970:1 27979:1 27980:1 27992:1 27994:1 27998:1 27999:1 28002:1 28007:1 28008:1 28010:1 28015:1 28016:1 28044:1 28174:1 28330:1 28408:1 28524:1 28525:1 28526:1 28529:1 28638:1 29049:1 29152:1 29153:1 29748:1 29845:1 29846:1 29847:1 29848:1 29849:1 33592:1 33595:1  |EV| 
-0.01138010983938774790813486248453 1:1 9:1 42:1 97:1 325:1 442:1 2054:1 2055:1 2058:1 2059:1 2060:1 2061:1 2062:1 2199:1 2220:1 2285:1 2291:1 2415:1 2569:1 3553:1 3710:1 3711:1 3714:1 3715:1 3801:1 3802:11 3803:1 3804:1 3805:1 3809:1 3810:1 3813:1 3817:1 3896:1 3897:1 3899:1 4501:1 4502:1 4503:1 4569:1 4570:1 4572:1 4574:1 4701:1 5351:1 5352:1 5417:1 5418:1 5420:1 5421:1 5423:1 5424:1 5426:1 5427:1 5429:1 5430:1 5435:1 5436:1 5437:1 5438:1 5439:1 5442:1 5444:1 5445:1 5446:1 5447:1 5448:1 5449:1 5450:1 5454:1 5455:1 5456:1 5457:1 5458:1 5462:1 5463:1 5464:1 5465:1 5468:1 5471:1 5483:1 5484:1 5485:1 5486:1 5487:1 5488:1 5489:1 5490:1 5491:1 5492:1 5496:1 5497:1 5498:1 5499:1 5502:1 5503:1 5504:1 5505:1 5506:1 5507:1 5508:1 5513:1 5522:1 5527:1 5528:1 5534:1 5539:1 5540:1 5541:1 5542:1 5558:1 5567:1 5579:1 5580:1 5595:1 5596:1 5597:1 5601:1 5602:1 5603:1 5604:1 5605:1 5608:1 5609:1 5610:1 5611:1 5612:1 5616:1 5619:1 5660:1 5675:1 5685:1 5687:1 5688:1 5692:1 5693:1 5697:1 5747:1 5779:1 5784:1 5785:1 5818:1 5873:1 5875:1 5877:1 5878:1 5880:1 5892:1 5894:1 5900:1 5901:1 5902:1 5906:1 5907:1 5924:1 5925:1 5930:1 5931:1 5938:1 5939:1 5941:1 5943:1 5944:1 5949:1 5953:1 5956:1 6009:1 6010:1 6013:1 6033:1 6034:1 6056:1 6105:1 6124:1 6126:1 6127:1 6128:1 6133:1 6134:1 6148:1 6219:1 6220:1 6281:1 6282:1 6283:1 6342:1 6351:1 6353:1 6354:1 6355:1 6356:1 6483:1 6484:1 6491:1 6628:1 6629:1 6630:1 6631:1 6632:1 6633:1 6634:1 6635:1 6653:1 6802:1 6803:1 6887:1 7082:1 7083:1 7085:1 7611:1 7612:1 7617:1 7799:1 7800:1 7872:1 7875:1 8119:1 8120:1 8645:1 8646:1 8890:1 8891:1 8892:1 10467:1 10468:1 11012:1 11013:1 13759:1 13760:1 13814:1 13817:1 13818:1 13821:1 13822:1 13823:1 13827:1 13828:1 13829:1 13830:1 13831:1 13832:1 13833:1 13834:1 13835:1 13836:1 14483:1 14536:1 14696:1 14697:1 14698:1 14700:1 14701:1 14703:1 14789:1 14790:1 14795:1 14796:1 14798:1 14800:1 14801:1 14884:1 14894:1 14895:1 14931:1 15475:1 15476:1 15477:1 15481:1 15517:1 15573:1 16295:1 16296:1 19069:1 19077:1 19078:1 19079:1 19080:1 19081:1 19592:1 19595:4 19596:1 19614:1 19634:1 19694:1 19696:1 19697:1 19705:1 19792:1 19872:1 19873:1 19874:1 19900:1 19901:1 19902:1 19903:1 19934:1 19935:1 19936:1 19937:1 27302:1 27303:1 27307:1 27308:1 27861:1 27862:4 27864:1 27865:1 27866:1 27867:1 27868:1 27871:1 27872:1 27873:1 27877:1 27887:1 27888:1 27894:1 27896:1 27897:1 27900:1 27904:1 27911:1 27914:1 27915:1 27916:1 27917:1 27920:1 27925:1 27926:1 27927:1 27938:1 27960:1 27968:1 27969:1 27983:1 27990:1 27999:1 28000:1 28002:1 28008:1 28010:1 28046:1 28049:1 28050:1 28057:1 28058:1 28059:1 28060:1 28061:1 28062:1 28073:1 28074:1 28076:1 28094:1 28097:1 28098:1 28101:1 28102:1 28112:1 28177:1 28178:1 28180:1 28217:1 28242:1 28281:1 28354:1 28362:1 28375:1 28507:1 28534:1 28535:1 28543:1 28832:1 28847:1 28905:1 28906:1 28907:1 28908:1 28909:1 28910:1 28911:1 28912:1 29152:1 29153:1 29445:1 29639:1 29640:1 30100:1 30264:1 30269:1 30280:1 30281:1 31829:1 33007:1 33011:1 33012:1 33013:1 33014:1 33015:1 33016:1 33592:1 33595:1  |EV| 
-0.017330910218900208441539234627271 2:1 10:1 19:1 35:1 79:1 102:1 103:1 129:1 401:1 414:1 451:1 732:1 733:1 734:1 735:1 736:1 737:1 738:1 739:1 740:1 741:1 742:2 743:2 2194:1 2195:1 2196:1 2199:1 2210:1 2212:1 2215:1 2263:1 2290:1 2291:1 2311:1 2359:1 2493:1 2547:1 2794:1 2795:1 2796:1 2797:1 2798:1 2799:1 2800:1 2801:1 2802:1 2803:1 3801:2 3802:32 3803:1 3804:1 3805:2 3806:1 3807:1 3813:1 3814:1 3817:1 3819:1 3824:1 3970:1 3971:1 3972:1 3973:1 3974:1 4569:1 4571:1 4591:1 4634:1 4637:1 4638:1 4639:1 4761:1 4762:1 4763:1 5414:1 5415:1 5416:1 5418:1 5419:1 5420:1 5421:1 5422:1 5424:1 5425:1 5426:1 5427:1 5428:1 5430:1 5431:1 5432:1 5433:1 5435:1 5436:1 5437:1 5438:1 5439:1 5440:1 5441:1 5442:1 5443:1 5452:1 5454:1 5455:1 5456:1 5457:1 5458:1 5459:1 5460:1 5462:1 5463:1 5464:1 5465:1 5466:1 5467:1 5472:1 5473:1 5474:1 5475:1 5476:1 5477:1 5478:1 5479:1 5480:1 5482:1 5494:1 5502:1 5503:1 5504:1 5505:1 5506:1 5507:1 5508:1 5522:1 5528:1 5534:1 5539:1 5540:1 5541:1 5542:1 5558:1 5559:1 5566:1 5567:1 5596:1 5601:1 5602:1 5603:1 5604:1 5605:1 5607:1 5608:1 5609:1 5610:1 5611:1 5612:1 5697:1 5723:1 5724:1 5726:1 5727:1 5728:1 5729:1 5730:1 5731:1 5735:1 5736:1 5740:1 5768:1 5769:1 5784:1 5785:1 5786:1 5803:1 5804:1 5805:1 5922:1 5923:1 5924:1 5925:1 5930:1 5931:1 5938:1 5939:1 5941:1 5943:1 5944:1 6000:1 6075:1 6838:1 6839:1 6842:1 6843:1 6845:1 6847:1 6848:1 7578:1 7579:1 8506:1 8801:1 8802:1 8803:1 8804:1 8805:1 8808:1 8809:1 8810:1 8811:1 8812:1 8813:1 8814:1 8815:1 8816:1 8817:1 8818:1 8819:1 14486:1 14488:1 14493:1 14495:1 14496:1 14497:1 14502:1 14511:1 14512:1 14514:1 14546:1 14547:1 14548:1 14628:1 14629:1 14731:1 14754:1 14881:1 14882:1 15756:1 15757:1 15792:1 15793:1 15965:1 16098:1 16099:1 16106:1 16107:1 16108:1 16109:1 19592:1 19594:1 19595:18 19601:1 19602:1 19603:1 19605:1 19606:1 19607:1 19608:1 19609:1 19610:1 19611:1 19612:1 19614:1 19616:1 19621:1 19622:1 19623:1 19625:1 19626:1 19627:1 19628:1 19629:1 19630:1 19631:1 19632:1 19634:1 19636:1 19694:1 19695:1 19696:1 19697:1 19701:1 19705:1 19709:1 19719:1 19730:1 19731:1 19732:1 19788:1 19872:1 19873:1 19874:1 19897:1 19901:1 19902:1 19903:1 19915:1 19916:1 19917:1 19918:1 19919:1 19920:1 19921:1 19922:1 19923:1 19924:1 19934:1 19935:1 19936:1 19937:1 19946:1 19978:1 19979:1 19980:1 19981:1 19982:1 19983:1 20009:1 20013:1 20164:1 20165:1 20166:1 20724:1 20909:1 20910:1 20911:1 21347:1 21348:1 21349:1 21366:1 21367:1 21368:1 21465:1 21466:1 21467:1 21478:1 21479:1 21480:1 21606:1 21607:1 21780:1 21781:1 21782:1 21970:1 21971:1 21984:1 21985:1 22218:1 22219:1 22220:1 22221:1 22222:1 22223:1 22224:1 22225:1 22226:1 22227:1 22228:1 22229:1 27862:13 27864:1 27865:1 27866:1 27867:1 27868:1 27870:1 27871:1 27872:1 27874:1 27875:1 27876:1 27878:1 27879:1 27880:1 27881:1 27882:1 27883:1 27884:1 27885:1 27886:1 27887:1 27888:1 27889:1 27890:1 27891:1 27892:1 27893:1 27894:1 27895:1 27897:1 27898:1 27899:1 27900:1 27901:1 27902:1 27903:1 27905:1 27906:1 27907:1 27908:1 27909:1 27910:1 27911:1 27912:1 27914:1 27915:1 27916:1 27917:1 27920:1 27922:1 27925:1 27926:1 27927:1 27928:1 27930:1 27931:1 27932:1 27933:1 27934:1 27935:1 27936:1 27937:1 27938:1 27939:1 27941:1 27942:1 27968:1 27969:1 27979:1 27980:1 27982:1 27988:1 27991:1 27992:1 27993:1 27994:1 27996:1 27998:1 27999:1 28001:1 28003:1 28004:1 28006:1 28007:1 28008:1 28009:1 28011:1 28012:1 28014:1 28017:1 28022:1 28027:1 28028:1 28038:1 28046:1 28049:1 28050:1 28053:1 28056:1 28057:1 28059:1 28060:1 28061:1 28063:1 28064:1 28065:1 28066:1 28071:1 28072:1 28073:1 28076:1 28088:1 28101:1 28105:1 28107:1 28109:1 28112:1 28118:1 28119:1 28138:1 28139:1 28140:1 28141:1 28143:1 28144:1 28177:1 28189:1 28190:1 28217:1 28220:1 28228:1 28229:1 28239:1 28241:1 28242:1 28246:1 28281:1 28285:1 28286:1 28287:1 28299:1 28300:1 28301:1 28309:1 28333:1 28386:1 28400:1 28401:1 28402:1 28420:1 28459:1 28461:1 28463:1 28546:1 28559:1 28603:1 28606:1 28610:1 28646:1 28647:1 28742:1 28830:1 28831:1 28832:1 28840:1 28891:1 28959:1 28960:1 28961:1 28966:1 28968:1 28970:1 29017:1 29052:1 29203:1 29483:1 29528:1 29529:1 29530:1 29531:1 29532:1 29533:1 29534:1 29535:1 29536:1 29537:1 29538:1 29539:1 29540:1 29541:1 29542:1 29543:1 29544:1 29545:1 29546:1 29547:1 29548:1 29549:1 29550:1 29551:1 29552:1 29553:1 29554:1 29555:1 29556:1 29557:1 29558:1 29559:1 29560:1 29561:1 29562:1 29563:1 29564:1 29565:1 29566:1 29567:1 29568:1 29569:1 29570:1 29571:1 29572:1 29573:1 29574:1 29575:1 29576:1 29577:1 29578:1 29579:1 29580:1 29581:1 29582:1 29583:1 29584:1 29585:1 29586:1 29587:1 29588:1 29589:1 33592:1 33595:1  |EV| 
0.017055549516402451759589098401193 1:1 10:1 24:1 95:1 128:1 252:1 333:1 437:1 525:1 531:1 541:1 693:1 802:1 808:1 891:1 1016:1 1588:1 2072:1 2097:1 2099:1 2194:1 2200:1 2202:1 2206:1 2208:1 2210:1 2212:1 2216:1 2225:1 2283:1 2310:1 2363:1 2525:1 2563:1 2631:1 2646:1 2766:1 2852:1 2910:1 3739:1 3801:2 3802:21 3803:1 3804:1 3805:1 3806:1 3809:1 3813:1 3817:1 3818:1 3819:1 3821:1 3995:1 3997:1 4030:1 4031:1 4569:1 4571:1 4799:1 4807:1 4808:1 5418:1 5424:1 5430:1 5435:1 5436:1 5437:1 5438:1 5439:1 5440:1 5442:1 5452:1 5462:1 5463:1 5468:1 5469:1 5471:1 5509:1 5510:1 5512:1 5513:1 5514:1 5515:1 5517:1 5522:1 5528:1 5534:1 5541:1 5566:1 5567:1 5575:1 5576:1 5578:1 5579:1 5580:1 5590:1 5591:1 5592:1 5594:1 5595:1 5596:1 5597:1 5598:1 5599:1 5601:1 5602:1 5603:1 5604:1 5605:1 5607:1 5608:1 5609:1 5610:1 5611:1 5612:1 5647:1 5649:1 5651:1 5652:1 5653:1 5655:1 5656:1 5666:1 5669:1 5703:1 5704:1 5723:1 5724:1 5728:1 5729:1 5730:1 5731:1 5732:1 5733:1 5734:1 5735:1 5736:1 5737:1 5738:1 5740:1 5741:1 5742:1 5743:1 5744:1 5745:1 5748:1 5749:1 5750:1 5751:1 5752:1 5753:1 5754:1 5757:1 5761:1 5764:1 5765:1 5766:1 5767:1 5779:1 5892:1 5894:1 5938:1 5939:1 5941:1 5943:1 5944:1 5953:1 5954:1 5956:1 5960:1 5961:1 5965:1 5966:1 5970:1 5971:1 5972:1 6056:1 6100:1 6101:1 6282:1 6283:1 6352:1 6428:1 6440:1 6441:1 6559:1 6561:1 6562:1 6563:1 6565:1 6566:1 6567:1 6787:1 7220:1 7263:1 7264:1 7783:1 8020:1 8260:1 8976:1 9118:1 9433:1 9543:1 9667:1 9996:1 10290:1 10291:1 10741:1 10742:1 11381:1 13868:1 13869:1 13870:1 14036:1 14037:1 14044:1 14045:1 14046:1 14047:1 14048:1 14475:1 14476:1 14481:1 14482:1 14483:1 14484:1 14485:1 14543:1 14554:1 14555:1 14556:1 14573:1 14642:1 14645:1 14683:1 14914:1 14915:1 14994:1 14995:1 15232:1 15233:1 15234:1 15235:1 16125:1 16674:1 16675:1 16676:1 16886:1 16887:1 16888:1 16949:1 16950:1 17207:1 17767:1 17948:1 19109:1 19213:1 19218:1 19219:1 19593:1 19594:1 19595:10 19618:1 19620:1 19623:1 19628:1 19632:1 19634:1 19636:1 19656:1 19671:1 19672:1 19673:1 19674:1 19675:1 19683:1 19687:1 19691:1 19692:1 19693:1 19701:1 19716:1 19717:1 19718:1 19719:1 19730:1 19731:1 19732:1 19747:1 19774:1 19792:1 19833:1 19851:1 19855:1 19981:1 19982:1 19983:1 20088:1 20089:1 20090:1 20832:1 20833:1 20834:1 20835:1 21100:1 21101:1 21121:1 21122:1 21450:1 21451:1 21452:1 21453:1 24177:1 24178:1 24182:1 24183:1 25486:1 25487:1 25488:1 26676:1 26677:1 26678:1 27440:1 27441:1 27442:1 27443:1 27444:1 27445:1 27446:1 27447:1 27448:1 27449:1 27862:2 27864:1 27865:1 27866:1 27871:1 27872:1 27873:1 27897:1 27899:1 27900:1 27911:1 27914:1 27925:1 27934:1 27936:1 27937:1 27938:1 27939:1 27942:1 27968:1 27969:1 27978:1 27989:1 27990:1 27991:1 27997:1 27998:1 28000:1 28001:1 28003:1 28004:1 28005:1 28006:1 28007:1 28009:1 28011:1 28012:1 28013:1 28014:1 28015:1 28038:1 28039:1 28040:1 28091:1 28092:1 28389:1 28403:1 29747:1 29951:1 33592:1 33595:1  |EV| 
0.00065298272732433625988035519327468 2:1 9:1 27:1 42:1 161:1 197:1 203:1 204:1 326:1 587:1 1696:1 1698:1 2026:1 2027:1 2028:1 2029:1 2030:2 2194:1 2195:1 2199:1 2203:1 2220:1 2277:1 2280:1 2337:1 2368:1 2372:1 2373:1 2678:1 3474:1 3696:1 3697:1 3698:1 3699:1 3801:1 3802:24 3803:1 3804:1 3805:2 3806:1 3810:1 3813:1 3817:1 3818:1 3824:1 3860:1 4365:1 4366:1 4485:1 4486:1 4569:1 4571:1 4572:1 4591:1 4604:1 4668:1 4746:1 4768:1 4769:1 4856:1 5038:1 5161:1 5310:1 5311:1 5346:1 5414:1 5415:1 5418:1 5420:1 5421:1 5424:1 5426:1 5427:1 5429:1 5430:1 5432:1 5433:1 5435:1 5436:1 5437:1 5438:1 5439:1 5440:1 5441:1 5442:1 5443:1 5444:1 5446:1 5447:1 5448:1 5449:1 5454:1 5455:1 5456:1 5457:1 5458:1 5459:1 5460:1 5462:1 5463:1 5464:1 5465:1 5466:1 5467:1 5468:1 5469:1 5471:1 5472:1 5473:1 5474:1 5475:1 5476:1 5477:1 5478:1 5479:1 5480:1 5482:1 5483:1 5502:1 5503:1 5504:1 5505:1 5506:1 5507:1 5508:1 5509:1 5510:1 5512:1 5513:1 5514:1 5515:1 5516:1 5517:1 5518:1 5519:1 5520:1 5521:1 5522:1 5523:1 5524:1 5525:1 5527:1 5528:1 5530:1 5531:1 5533:1 5534:1 5536:1 5537:1 5539:1 5540:1 5541:1 5542:1 5543:1 5544:1 5545:1 5546:1 5547:1 5548:1 5550:1 5551:1 5552:1 5553:1 5558:1 5559:1 5560:1 5561:1 5562:1 5563:1 5564:1 5567:1 5568:1 5569:1 5588:1 5601:1 5602:1 5603:1 5604:1 5605:1 5608:1 5609:1 5610:1 5611:1 5612:1 5621:1 5622:1 5623:1 5624:1 5625:1 5643:1 5644:1 5645:1 5670:1 5671:1 5672:1 5726:1 5727:1 5781:1 5782:1 5790:1 5816:1 5853:1 5880:1 5963:1 5968:1 6143:1 6146:1 6168:1 6171:1 6181:1 6332:1 6342:1 6351:1 6353:1 6354:1 6355:1 6356:1 6491:1 6492:1 6597:1 6614:1 6628:1 6629:1 6630:1 6631:1 6632:1 6633:1 6634:1 6635:1 6831:1 7172:1 7173:1 7286:1 7287:1 7423:1 7425:1 7495:1 7498:1 7731:1 7732:1 7734:1 7735:1 7736:1 7737:1 7738:1 7739:1 7740:1 7741:1 7742:1 7744:1 8145:1 8146:1 8968:1 8969:1 8970:1 8971:1 9000:1 9004:1 9331:1 9332:1 9356:1 9357:1 10164:1 10165:1 11153:1 11154:1 11155:1 11178:1 11179:1 12466:1 12467:1 13666:1 13667:1 13668:1 13669:1 13670:1 13671:1 13672:1 13673:1 13674:1 13675:1 13676:1 13677:1 13678:1 14475:1 14476:1 14477:1 14478:1 14479:1 14561:1 14603:1 14635:1 14636:1 14637:1 14709:1 14814:1 14815:1 14912:1 14919:1 14920:1 14921:1 15029:1 15077:1 15078:1 15294:1 15295:1 15296:1 15413:1 15414:1 15415:1 15481:1 15887:1 15888:1 15889:1 16822:1 16823:1 18991:1 18992:1 18993:1 18994:1 19592:1 19594:1 19595:11 19598:1 19600:1 19603:1 19605:1 19606:1 19607:1 19608:1 19616:1 19618:1 19620:1 19623:1 19625:1 19626:1 19627:1 19628:1 19636:1 19705:1 19723:1 19792:1 19841:1 19842:1 19843:1 19844:1 19872:1 19873:1 19874:1 19886:1 19887:1 19888:1 19889:1 19900:1 19904:1 19905:1 19934:1 19935:1 19936:1 19937:1 19970:1 19971:1 20121:1 20122:1 20123:1 20124:1 20363:1 20364:1 20375:1 20376:1 20473:1 21072:1 21073:1 21468:1 21469:1 21470:1 21471:1 22278:1 22279:1 27226:1 27227:1 27228:1 27229:1 27230:1 27231:1 27232:1 27233:1 27234:1 27235:1 27861:1 27862:4 27864:1 27865:1 27866:1 27867:1 27868:1 27871:1 27872:1 27874:1 27875:1 27876:1 27880:1 27881:1 27882:1 27883:1 27884:1 27885:1 27886:1 27887:1 27888:1 27889:1 27891:1 27892:1 27893:1 27894:1 27897:1 27898:1 27899:1 27900:1 27901:1 27902:1 27905:1 27906:1 27907:1 27908:1 27909:1 27910:1 27911:1 27914:1 27925:1 27926:1 27927:1 27930:1 27931:1 27932:1 27933:1 27934:1 27935:1 27936:1 27937:1 27938:1 27940:1 27942:1 27946:1 27950:1 27951:1 27960:1 27979:1 27980:1 27999:1 28002:1 28008:1 28010:1 28263:1 28268:1 28273:1 28366:1 28437:1 28707:1 28770:1 28793:1 28813:1 29684:1 29685:1 29689:1 29690:1 29691:1 29692:1 29891:1 31944:1 32934:1 32935:1 33592:1 33595:1  |EV| 
