SVM-light Version V5.01-TK-1.2
0 # kernel type
3 # kernel parameter -d 
1 # kernel parameter -g 
1 # kernel parameter -s 
1 # kernel parameter -r 
empty# kernel parameter -u 
0.4 # kernel parameter -L 
1 # kernel parameter -T 
T # kernel parameter -C 
1 # kernel parameter -F 
0 # kernel parameter -S 
1.000000 # kernel parameter -D 
3 # kernel parameter -N 
S # kernel parameter -V 
S # kernel parameter -W 
41672 # highest feature index 
605 # number of training documents 
384 # number of support vectors plus 1 
-0.58859184 # threshold b, each following line is a SV (starting with alpha*y)
-0.0028984107091285515878098522080109 1:1 9:1 17:1 18:1 23:1 24:1 26:1 27:1 32:1 40:1 41:1 42:1 43:1 44:1 45:1 46:1 47:1 48:1 2197:1 2198:1 2201:1 2206:1 2207:1 2208:1 2215:1 2219:1 2224:1 2225:1 2226:1 2227:1 2228:1 2229:1 2230:1 2231:1 2232:1 2233:1 2234:1 2235:1 3812:1 3813:22 3814:1 3815:1 3816:1 3820:1 3821:1 3822:1 3824:1 3825:1 3826:1 3828:1 3831:1 3832:1 3833:1 4571:1 4572:1 4573:1 4577:1 4578:1 4579:1 4593:1 5376:1 5382:1 5384:1 5385:1 5387:1 5388:1 5393:1 5394:1 5395:1 5397:1 5398:1 5400:1 5410:1 5411:1 5412:1 5413:1 5414:1 5417:1 5418:1 5419:1 5420:1 5421:1 5424:1 5425:1 5426:1 5427:1 5428:1 5429:1 5432:1 5433:1 5434:1 5435:1 5437:1 5447:1 5474:1 5475:1 5476:1 5477:1 5478:1 5479:1 5480:1 5482:1 5487:1 5489:1 5490:1 5492:1 5493:1 5495:1 5496:1 5498:1 5499:1 5503:1 5504:1 5505:1 5506:1 5507:1 5508:1 5509:1 5511:1 5512:1 5515:1 5517:1 5521:1 5522:1 5523:1 5524:1 5525:1 5529:1 5531:1 5539:1 5540:1 5542:1 5543:1 5544:1 5545:1 5546:1 5548:1 5550:1 5551:1 5552:1 5553:1 5554:1 5558:1 5574:1 5575:1 5576:1 5577:1 5578:1 5579:1 5580:1 5581:1 5582:1 5583:1 5584:1 5606:1 5612:1 5613:1 5614:1 5615:1 5616:1 5617:1 5619:1 5620:1 5621:1 5622:1 5623:1 5624:1 5635:1 5636:1 5637:1 5646:1 5652:1 5666:1 5667:1 5668:1 5683:1 5742:1 5745:1 5771:1 5776:1 5785:1 5786:1 5787:1 5792:1 5795:1 5796:1 5797:1 5798:1 5800:1 5809:1 5810:1 5811:1 5812:1 5813:1 5814:1 5815:1 5816:1 5817:1 5818:1 5819:1 5820:1 5821:1 5822:1 5823:1 5824:1 5825:1 5826:1 5827:1 5828:1 5829:1 5830:1 5831:1 5832:1 5833:1 5834:1 5835:1 5836:1 5837:1 5838:1 5839:1 5840:1 5841:1 5842:1 5843:1 5844:1 5845:1 5846:1 5847:1 5848:1 5849:1 5850:1 5851:1 5852:1 5853:1 5854:1 5855:1 5856:1 5857:1 5858:1 5859:1 5860:1 5861:1 5862:1 5863:1 5864:1 5865:1 5866:1 5867:1 5868:1 5869:1 5870:1 5871:1 5872:1 5873:1 5874:1 5875:1 5876:1 5877:1 5878:1 5879:1 5880:1 5881:1 5882:1 5883:1 5884:1 5885:1 5886:1 5887:1 5888:1 5889:1 5890:1 5891:1 5892:1 5893:1 5894:1 5895:1 5896:1 5897:1 5898:1 5899:1 5900:1 5901:1 5902:1 5903:1 5904:1 5905:1 5906:1 5907:1 5908:1 5909:1 5910:1 5911:1 5912:1 5913:1 5914:1 5915:1 5916:1 5917:1 5918:1 5919:1 5920:1 5921:1 5922:1 5923:1 5924:1 5925:1 5926:1 5927:1 5928:1 5929:1 5930:1 16426:1 16427:1 16428:1 16430:1 16460:1 16498:1 16499:1 16500:1 16501:1 16502:1 16503:1 16504:1 16505:1 16506:1 16507:1 16508:1 16509:1 16510:1 16511:1 16512:1 16513:1 16514:1 16515:1 16516:1 16517:1 16518:1 16519:1 16520:1 16521:1 16522:1 16523:1 16524:1 16525:1 21505:1 21506:1 21507:13 21536:1 21540:1 21541:1 21542:1 21543:1 21544:1 21548:1 21561:1 21562:1 21563:1 21564:1 21565:1 21566:1 21567:1 21568:1 21569:1 21570:1 21571:1 21572:1 21573:1 21574:1 21575:1 21576:1 21577:1 21578:1 21579:1 21580:1 21581:1 21582:1 21583:1 21584:1 21585:1 21586:1 21587:1 21588:1 21589:1 21590:1 21591:1 21592:1 21593:1 21594:1 21595:1 21596:1 21597:1 21598:1 21599:1 21600:1 21601:1 21602:1 21603:1 21604:1 21605:1 21606:1 21607:1 21608:1 21609:1 21610:1 21611:1 21612:1 21613:1 21614:1 21615:1 21616:1 21617:1 21618:1 21619:1 21620:1 21621:1 21622:1 21623:1 21624:1 21625:1 21626:1 21627:1 21628:1 21629:1 21630:1 21631:1 21632:1 21633:1 21634:1 21635:1 21636:1 21637:1 21638:1 21639:1 21640:1 21641:1 29709:2 29710:1 29711:1 29712:1 29713:1 29714:1 29715:1 29717:1 29718:1 29719:1 29728:1 29736:1 29738:1 29739:1 29740:1 29741:1 29744:1 29745:1 29747:1 29748:1 29749:1 29751:1 29759:1 29762:1 29763:1 29764:1 29769:1 29770:1 29778:1 29779:1 29794:1 29798:1 29799:1 29800:1 29811:1 29812:1 29815:1 29817:1 29818:1 29819:1 29821:1 29823:1 29825:1 29826:1 29828:1 29829:1 29834:1 29835:1 29836:1 29837:1 29838:1 29839:1 29840:1 29841:1 29842:1 29843:1 29844:1 29845:1 29846:1 29847:1 29848:1 29849:1 29850:1 29851:1 29852:1 29853:1 29854:1 29855:1 29856:1 29857:1 29858:1 29859:1 36044:1 36047:1 36059:1 36061:1 36062:1 36064:1 36077:1 36078:1 36079:1 36080:1 36081:1 36082:1 36083:1 36084:1 36085:1 36086:1 36087:1 36088:1 36089:1 36090:1 36091:1 36092:1 36093:1 36094:1 36095:1 36096:1 36097:1 36098:1 36099:1 36100:1 36101:1 36102:1 36103:1 36104:1 36105:1 36106:1 36107:1 36108:1 36109:1 36110:1 36111:1  |EV| 
-0.0004583886520615892967711602068448 1:1 9:1 17:1 18:1 26:1 32:1 40:1 49:1 50:1 51:1 52:1 53:1 54:1 55:1 56:1 57:1 58:1 59:1 60:1 61:1 62:1 63:1 2197:1 2198:1 2199:1 2200:1 2201:1 2215:1 2219:1 2232:1 2236:1 2237:1 2238:1 2239:1 2240:1 2241:1 2242:1 2243:1 2244:1 2245:1 2246:1 2247:1 2248:1 2249:1 2250:1 3812:1 3813:29 3814:1 3815:1 3816:1 3817:1 3820:1 3821:1 3822:1 3824:1 3825:1 3826:1 3828:1 3831:1 3832:1 3833:1 4571:1 4572:1 4573:1 4577:1 4578:1 4579:1 4593:1 5376:1 5382:1 5387:1 5388:1 5390:1 5391:1 5393:1 5394:1 5397:1 5398:1 5417:1 5418:1 5419:1 5420:1 5421:1 5424:1 5425:1 5426:1 5427:1 5428:1 5429:1 5432:1 5433:1 5434:1 5435:1 5436:1 5437:1 5438:1 5474:1 5475:1 5476:1 5477:1 5478:1 5479:1 5480:1 5482:1 5487:1 5493:1 5499:1 5504:1 5508:1 5509:1 5529:1 5531:1 5533:1 5542:1 5572:1 5573:1 5606:1 5612:1 5613:1 5614:1 5615:1 5616:1 5617:1 5619:1 5620:1 5621:1 5622:1 5623:1 5624:1 5646:1 5677:1 5711:1 5714:1 5716:1 5742:1 5750:1 5751:1 5758:1 5759:1 5762:1 5763:1 5764:1 5765:1 5766:1 5767:1 5768:1 5769:1 5771:1 5772:1 5773:1 5776:1 5809:1 5810:1 5811:1 5813:1 5815:1 5816:1 5829:1 5830:1 5833:1 5834:1 5837:1 5838:1 5839:1 5840:1 5841:1 5842:1 5843:1 5844:1 5845:1 5848:1 5849:1 5851:1 5853:1 5854:1 5855:1 5856:1 5929:1 5931:1 5932:1 5933:1 5934:1 5935:1 5936:1 5937:1 5938:1 5939:1 5940:1 5941:1 5942:1 5943:1 5944:1 5945:1 5946:1 5947:1 5948:1 5949:1 5950:1 5951:1 5952:1 5953:1 5954:1 5955:1 5956:1 5957:1 5958:1 5959:1 5960:1 5961:1 5962:1 5963:1 5964:1 5965:1 5966:1 5967:1 5968:1 5969:1 5970:1 5971:1 5972:1 5973:1 5974:1 5975:1 5976:1 16426:1 16427:1 16428:1 16460:1 16463:1 16493:1 16505:1 16506:1 16507:1 16512:1 16520:1 16521:1 16522:1 16526:1 16527:1 16528:1 16529:1 16530:1 16531:1 16532:1 16533:1 16534:1 16535:1 16536:1 16537:1 16538:1 16539:1 16540:1 16541:1 16542:1 16543:1 16544:1 16545:1 21505:1 21506:1 21507:21 21535:1 21536:1 21537:1 21538:1 21539:1 21540:1 21541:1 21542:1 21543:1 21544:1 21548:1 21561:1 21562:1 21563:1 21564:1 21568:1 21582:1 21583:1 21584:1 21585:1 21586:1 21594:1 21595:1 21596:1 21597:1 21598:1 21602:1 21603:1 21604:1 21605:1 21606:1 21607:1 21608:1 21612:1 21626:1 21627:1 21628:1 21639:1 21640:1 21641:1 21642:1 21643:1 21644:1 21645:1 21646:1 21647:1 21648:1 21649:1 21650:1 21651:1 21652:1 21653:1 21654:1 21655:1 21656:1 21657:1 21658:1 21659:1 21660:1 21661:1 21662:1 21663:1 21664:1 21665:1 21666:1 21667:1 21668:1 21669:1 21670:1 21671:1 21672:1 21673:1 21674:1 21675:1 21676:1 21677:1 21678:1 21679:1 21680:1 21681:1 21682:1 21683:1 21684:1 21685:1 21686:1 21687:1 21688:1 21689:1 21690:1 21691:1 21692:1 21693:1 21694:1 21695:1 21696:1 21697:1 21698:1 21699:1 21700:1 21701:1 21702:1 21703:1 21704:1 21705:1 21706:1 21707:1 21708:1 21709:1 21710:1 21711:1 21712:1 21713:1 21714:1 21715:1 21716:1 21717:1 21718:1 21719:1 21720:1 21721:1 21722:1 21723:1 29709:2 29710:1 29711:1 29712:1 29713:1 29714:1 29715:1 29717:1 29718:1 29719:1 29728:1 29736:1 29738:1 29739:1 29740:1 29741:1 29744:1 29745:1 29747:1 29748:1 29749:1 29751:1 29769:1 29770:1 29794:1 29798:1 29799:1 29800:1 29811:1 29812:1 29815:1 29817:1 29818:1 29819:1 29821:1 29822:1 29823:1 29825:1 29826:1 29828:1 29829:1 29834:1 29835:1 29860:1 29861:1 29862:1 29863:1 29864:1 29865:1 29866:1 29867:1 29868:1 29869:1 29870:1 29871:1 29872:1 29873:1 29874:1 29875:1 29876:1 29877:1 29878:1 36044:1 36047:1 36061:1 36062:1 36064:1 36065:1 36067:1 36068:1 36078:1 36081:1 36091:1 36093:1 36096:1 36105:1 36107:1 36108:1 36110:1 36111:1 36112:1 36113:1 36114:1 36115:1 36116:1 36117:1 36118:1 36119:1 36120:1 36121:1 36122:1 36123:1 36124:1 36125:1 36126:1 36127:1 36128:1 36129:1 36130:1 36131:1 36132:1 36133:1 36134:1 36135:1 36136:1 36137:1 36138:1 36139:1 36140:1 36141:1 36142:1 36143:1 36144:1 36145:1 36146:1 36147:1 36148:1 36149:1 36150:1  |EV| 
-0.0037000014414965511945487808276312 2:1 10:1 17:1 18:1 26:2 32:1 40:2 57:1 59:1 60:1 61:1 63:1 64:1 65:1 66:1 67:1 68:1 69:1 70:1 71:1 72:1 73:1 2197:1 2198:1 2199:1 2201:1 2204:1 2207:1 2215:1 2219:1 2230:1 2244:1 2246:1 2247:1 2248:1 2251:1 2252:1 2253:1 2254:1 2255:1 2256:1 2257:1 2258:1 2259:1 2260:1 2261:1 2262:1 2263:1 3812:2 3813:36 3814:1 3815:2 3816:1 3817:1 3822:1 3824:1 3825:1 3826:1 3828:1 3830:1 3831:1 3832:1 3833:1 3834:1 4571:1 4572:1 4573:1 4577:1 4578:1 4579:1 4593:1 5376:1 5381:1 5382:1 5387:1 5388:1 5393:1 5394:1 5417:1 5418:1 5419:1 5420:1 5421:1 5424:1 5425:1 5426:1 5427:1 5428:1 5429:1 5432:1 5433:1 5434:1 5435:1 5459:1 5461:1 5474:1 5475:1 5476:1 5477:1 5478:1 5479:1 5480:1 5482:1 5487:1 5492:1 5493:1 5495:1 5496:1 5498:1 5499:1 5501:1 5502:1 5504:1 5512:1 5513:1 5514:1 5515:1 5516:1 5517:1 5518:1 5521:1 5522:1 5523:1 5524:1 5525:1 5528:1 5529:1 5530:1 5531:1 5532:1 5542:1 5572:1 5576:1 5577:1 5581:1 5582:1 5606:1 5612:1 5613:1 5614:1 5615:1 5616:1 5617:1 5619:1 5620:1 5621:1 5622:1 5623:1 5624:1 5711:1 5714:1 5716:1 5734:1 5735:1 5764:1 5765:1 5766:1 5767:1 5768:1 5769:1 5771:1 5772:1 5773:1 5776:1 5809:1 5810:1 5811:1 5813:1 5821:1 5839:1 5840:1 5841:1 5842:1 5843:1 5844:1 5845:1 5848:1 5849:1 5853:1 5854:1 5855:1 5856:1 5934:1 5950:1 5951:1 5979:1 5980:1 5983:1 5984:1 5987:1 6007:1 6008:1 6029:1 6039:1 6040:1 6041:1 6042:1 6043:1 6044:1 6045:1 6046:1 6047:1 6048:1 6049:1 6050:1 6051:1 6052:1 6053:1 6054:1 6055:1 6056:1 6057:1 6058:1 6059:1 6060:1 6061:1 6062:1 6063:1 6064:1 6065:1 6066:1 6067:1 6068:1 6069:1 6070:1 6071:1 6072:1 6073:1 6074:1 6075:1 6076:1 6077:1 6078:1 6079:1 6080:1 6081:1 6082:1 6083:1 6084:1 6085:1 6086:1 6087:1 6088:1 16426:1 16427:1 16428:1 16463:1 16464:1 16466:1 16498:1 16499:1 16505:1 16506:1 16507:1 16531:1 16532:1 16533:1 16576:1 16577:1 16578:1 16579:1 16580:1 16581:1 16582:1 16583:1 16584:1 16585:1 16586:1 16587:1 16588:1 16589:1 16590:1 16591:1 16592:1 16593:1 16594:1 16595:1 16596:1 16597:1 21505:1 21506:1 21507:12 21529:1 21530:1 21531:1 21532:1 21535:1 21536:1 21541:1 21542:1 21543:1 21544:1 21548:1 21561:1 21562:1 21563:1 21564:1 21568:1 21581:1 21582:1 21586:1 21590:1 21595:1 21596:1 21597:1 21598:1 21605:1 21606:1 21607:1 21608:1 21612:1 21625:1 21632:1 21679:1 21680:1 21681:1 21722:1 21723:1 21724:1 21725:1 21726:1 21727:1 21741:1 21742:1 21743:1 21744:1 21745:1 21758:1 21759:1 21760:1 21761:1 21762:1 21763:1 21764:1 21765:1 21766:1 21767:1 21768:1 21769:1 21770:1 21771:1 21772:1 21773:1 21774:1 21775:1 21776:1 21777:1 21778:1 21779:1 21780:1 21781:1 21782:1 21783:1 21784:1 21785:1 21786:1 21787:1 21788:1 21789:1 21790:1 21791:1 21792:1 21793:1 21794:1 29709:2 29710:1 29711:1 29712:1 29713:1 29714:1 29715:1 29717:1 29718:1 29719:1 29728:1 29736:1 29738:1 29739:1 29740:1 29741:1 29744:1 29745:1 29747:1 29748:1 29749:1 29751:1 29762:1 29769:1 29770:1 29798:1 29799:1 29800:1 29811:1 29817:1 29818:1 29819:1 29821:1 29822:1 29823:1 29825:1 29826:1 29828:1 29829:1 29834:1 29835:1 29860:1 29864:1 29874:1 29877:1 29878:1 29884:1 29885:1 29886:1 29887:1 29888:1 29889:1 29890:1 29891:1 29909:1 29910:1 29911:1 29912:1 29913:1 29914:1 29915:1 29916:1 36044:1 36047:1 36051:1 36052:1 36077:1 36078:1 36091:1 36093:1 36128:1 36131:1 36132:1 36152:1 36162:1 36165:1 36166:1 36167:1 36168:1 36169:1 36170:1 36171:1 36172:1 36173:1 36174:1 36175:1 36176:1 36177:1 36178:1 36179:1 36180:1 36181:1 36182:1 36183:1 36184:1 36185:1 36186:1 36187:1 36188:1 36189:1  |EV| 
-0.001872017363792631561292267861063 5:1 9:1 31:1 33:1 138:1 139:1 162:1 254:1 318:1 329:1 380:1 389:1 417:1 476:1 678:1 679:1 846:1 848:1 849:1 850:1 851:1 852:1 853:1 854:1 855:2 856:2 2199:1 2200:1 2204:1 2214:1 2216:1 2223:1 2229:1 2230:1 2233:1 2234:1 2323:1 2324:1 2334:1 2381:1 2477:1 2533:1 2555:1 2599:1 2760:1 2761:1 2862:1 2890:1 2891:1 2892:1 2893:1 2894:1 2895:1 3812:4 3813:30 3814:1 3815:1 3816:1 3817:1 3821:1 3824:1 3825:1 3828:1 3829:1 4019:1 4020:1 4021:1 4022:1 4023:1 4571:1 4792:1 4794:1 4795:1 4796:1 4797:1 5376:1 5382:1 5384:1 5385:1 5388:1 5393:1 5394:1 5395:1 5396:1 5397:1 5400:1 5401:1 5403:1 5404:1 5405:1 5406:1 5410:1 5411:1 5412:1 5413:1 5414:1 5415:1 5416:1 5418:1 5419:1 5420:1 5421:1 5422:1 5423:1 5428:1 5429:1 5432:1 5433:1 5434:1 5435:1 5436:1 5437:1 5438:1 5444:1 5445:1 5447:1 5448:1 5451:1 5453:1 5465:1 5466:1 5470:1 5471:1 5478:1 5483:1 5484:1 5487:1 5493:1 5499:1 5504:1 5505:1 5506:1 5507:1 5511:1 5512:1 5515:1 5517:1 5529:1 5531:1 5539:1 5540:1 5542:1 5543:1 5544:1 5545:1 5546:1 5548:1 5555:1 5570:1 5585:1 5586:1 5588:1 5590:1 5591:1 5592:1 5593:1 5606:1 5607:1 5613:1 5614:1 5615:1 5616:1 5617:1 5619:1 5620:1 5621:1 5622:1 5623:1 5624:1 5635:1 5636:1 5637:1 5650:1 5651:1 5653:1 5739:1 5742:1 5745:1 5771:1 5795:1 5796:1 5798:1 5813:1 5818:1 5860:1 5898:1 5899:1 5900:1 5901:1 5902:1 5903:1 5905:1 5906:1 5908:1 5909:1 5910:1 5911:1 5914:1 5915:1 5929:1 5934:1 5959:1 5990:1 5994:1 5997:1 6065:1 6069:1 6107:1 6108:1 6109:1 6145:1 6146:1 6155:1 6156:1 6217:1 6218:1 6222:1 6223:1 6224:1 6225:1 6227:1 6228:1 6258:1 6262:1 6298:1 6299:1 6300:1 6301:1 6302:1 6303:1 6304:1 6306:1 6307:1 6308:1 6309:1 6310:1 6311:1 6318:1 6324:1 6348:1 6501:1 6546:1 6548:1 6549:1 6552:1 6634:1 6635:1 6646:1 6679:1 6680:1 6681:1 6682:1 6686:1 6706:1 6707:1 6723:1 6724:1 6871:1 6932:1 6989:1 7062:1 7063:1 7064:1 7116:1 7117:1 7121:1 7122:1 7542:1 7562:1 7564:1 7565:1 7723:1 7729:1 7730:1 7732:1 7734:1 7735:1 7736:1 7893:1 7894:1 7957:1 7958:1 7963:1 7964:1 7965:1 7966:1 7992:1 7993:1 8027:1 8028:1 8310:1 8311:1 9100:1 9101:1 9104:1 9247:1 9248:1 9585:1 9586:1 9589:1 9590:1 9729:1 9744:1 9870:1 9872:1 9873:1 9877:1 9878:1 9879:1 9880:1 9881:1 9882:1 9883:1 9884:1 9885:1 9886:1 9887:1 9890:1 9891:1 9892:1 9893:1 9894:1 9895:1 9896:1 9897:1 9898:1 9899:1 9900:1 9901:1 9902:1 9904:1 9905:1 9906:1 9907:1 9908:1 9909:1 9910:1 9911:1 9912:1 9913:1 9914:1 9915:1 9916:1 9917:1 9918:1 16428:1 16430:1 16463:1 16465:1 16498:1 16553:1 16556:1 16569:1 16630:1 16637:1 16663:1 16681:1 16857:1 16897:1 17000:1 17001:1 17002:1 17004:1 17343:1 17344:1 17345:1 18276:1 18277:1 18278:1 18279:1 18280:1 18281:1 18282:1 18283:1 18284:1 18290:1 18291:1 18292:1 18293:1 18294:1 18295:1 21504:1 21506:1 21507:12 21510:1 21520:1 21528:1 21530:1 21540:1 21548:1 21605:1 21607:1 21608:1 21612:1 21613:1 21614:1 21615:1 21616:1 21617:1 21618:1 21619:1 21632:1 21633:1 21634:1 21635:1 21808:1 21809:1 21816:1 21817:1 21818:1 21844:1 21850:1 21851:1 21852:1 21853:1 21919:1 22062:1 22240:1 22252:1 22261:1 22262:1 22265:1 22266:1 22277:1 22398:1 22920:1 22921:1 22922:1 23167:1 23168:1 23169:1 23191:1 23192:1 23193:1 23196:1 23197:1 23198:1 23913:1 23914:1 23915:1 24534:1 24535:1 24536:1 24537:1 24554:1 24555:1 24556:1 24557:1 24558:1 24559:1 24560:1 24561:1 24562:1 24563:1 24575:1 24576:1 24577:1 24578:1 24579:1 24580:1 29709:4 29711:1 29712:1 29713:1 29714:1 29715:1 29717:1 29718:1 29719:1 29722:1 29728:1 29729:1 29730:1 29736:1 29737:1 29738:1 29739:1 29740:1 29741:1 29744:1 29745:1 29747:1 29748:1 29749:1 29751:1 29752:1 29754:1 29757:1 29762:1 29769:1 29770:1 29778:1 29779:1 29797:1 29799:1 29800:1 29807:1 29811:1 29822:1 29823:1 29825:1 29826:1 29828:1 29829:1 29831:1 29838:1 29841:1 29869:1 29886:1 29911:1 29913:1 29962:1 29969:1 30004:1 30031:1 30035:1 30046:1 30053:1 30072:1 30126:1 30127:1 30128:1 30130:1 30131:1 30132:1 30133:1 30142:1 30179:1 30184:1 30189:1 30214:1 30218:1 30219:1 30276:1 30278:1 30308:1 30309:1 30363:1 30365:1 30379:1 30456:1 30460:1 30492:1 30517:1 30658:1 31109:1 31182:1 31270:1 31293:1 31294:1 31331:1 31516:1 31517:1 31639:1 31640:1 31642:1 31645:1 31646:1 31647:1 31648:1 31649:1 31658:1 31659:1 31660:1 31661:1 31662:1 31663:1 31664:1 31665:1 31666:1 31667:1 31668:1 31669:1 31670:1 31671:1 31672:1 31673:1 31674:1 31675:1 31676:1 31677:1 36044:1 36047:1 36078:1 36082:1 36086:1 36087:1 36088:1 36090:1 36091:1 36102:1 36110:1 36111:1 36137:1 36188:1 36227:1 36316:1 36411:1 36534:1 36590:1 36603:1 36913:1 37097:1 37663:1 37664:1 37686:1 37687:1 37688:1 37689:1 37690:1 37691:1 37692:1 37693:1 37694:1 37695:1 37696:1 37697:1 37698:1  |EV| 
-0.00016421833261535132356123689589822 1:1 9:1 23:1 44:1 59:1 139:1 504:1 599:1 606:1 789:1 793:1 1410:1 1413:1 1561:1 1562:1 1563:1 1564:1 1565:1 1566:1 1567:1 2204:1 2206:1 2211:1 2213:1 2227:1 2246:1 2250:1 2324:1 2399:1 2635:1 2649:1 2694:1 2701:1 2847:1 3288:1 3290:1 3392:1 3393:1 3394:1 3395:1 3396:1 3812:1 3813:28 3814:1 3815:1 3816:1 3820:1 3821:1 3824:1 3828:1 3829:1 3998:1 3999:1 4001:1 4319:1 4320:1 4571:1 4572:1 4573:1 4574:1 4644:1 4708:1 4800:1 4801:1 4802:1 4803:1 4804:1 4805:1 4806:1 4807:1 4808:1 5177:1 5376:1 5382:1 5387:1 5388:1 5393:1 5394:1 5397:1 5398:1 5410:1 5411:1 5418:1 5419:1 5420:1 5421:1 5424:1 5425:1 5427:1 5437:1 5448:1 5449:1 5450:1 5451:1 5452:1 5453:1 5454:1 5455:1 5456:1 5459:1 5460:1 5474:1 5475:1 5477:1 5478:1 5479:1 5480:1 5482:1 5486:1 5487:1 5493:1 5495:1 5496:1 5498:1 5499:1 5501:1 5502:1 5504:1 5508:1 5521:1 5522:1 5523:1 5524:1 5525:1 5526:1 5527:1 5529:1 5531:1 5533:1 5534:1 5542:1 5548:1 5559:1 5560:1 5561:1 5562:1 5563:1 5564:1 5565:1 5566:1 5567:1 5570:1 5571:1 5613:1 5614:1 5615:1 5616:1 5617:1 5620:1 5621:1 5622:1 5623:1 5624:1 5635:1 5636:1 5637:1 5646:1 5656:1 5657:1 5666:1 5667:1 5668:1 5669:1 5670:1 5671:1 5672:1 5673:1 5674:1 5675:1 5676:1 5677:1 5678:1 5679:1 5680:1 5684:1 5742:1 5754:1 5756:1 5757:1 5771:1 5792:1 5813:1 5815:1 5816:1 5818:1 5825:1 5826:1 5827:1 5828:1 5833:1 5834:1 5837:1 5838:1 5863:1 5869:1 5871:1 5881:1 5919:1 5925:1 5929:1 5934:1 5946:1 5947:1 5996:1 5998:1 6025:1 6026:1 6062:1 6065:1 6066:1 6069:1 6070:1 6074:1 6075:1 6108:1 6149:1 6162:1 6163:1 6164:1 6219:1 6229:1 6230:1 6231:1 6241:1 6242:1 6255:1 6275:1 6318:1 6320:1 6321:1 6358:1 6359:1 6363:1 6366:1 6484:1 6546:1 6547:1 6580:1 6581:1 7300:1 7311:1 7312:1 7534:1 7535:1 7599:1 7600:1 8400:1 8401:1 8402:1 8403:1 8614:1 8615:1 8861:1 8862:1 8865:1 8866:1 8922:1 8923:1 9669:1 9675:1 9676:1 10650:1 10651:1 13368:1 13369:1 13370:1 13371:1 13372:1 13373:1 13374:1 13375:1 13376:1 13377:1 13378:1 13379:1 13380:1 13381:1 13382:1 13383:1 13384:1 13385:1 13386:1 13387:1 13388:1 13389:1 13390:1 13391:1 13392:1 13393:1 13394:1 13395:1 16427:1 16428:1 16451:1 16509:1 16512:1 16553:1 16653:1 16654:1 16655:1 16679:1 16691:1 16786:1 16787:1 16791:1 16854:1 16861:1 16930:1 17281:1 17282:1 17725:1 17726:1 18951:1 18952:1 18953:1 19917:1 19918:1 19959:1 19960:1 19961:1 19962:1 19963:1 19964:1 19965:1 19966:1 19967:1 19968:1 21505:1 21506:1 21507:19 21536:1 21540:1 21548:1 21561:1 21562:1 21563:1 21564:1 21568:1 21575:1 21582:1 21586:1 21590:1 21594:1 21605:1 21606:1 21607:1 21608:1 21612:1 21619:1 21632:1 21664:1 21665:1 21666:1 21676:1 21677:1 21678:1 21707:1 21708:1 21709:1 21719:1 21720:1 21721:1 21731:1 21732:1 21733:1 21734:1 21749:1 21750:1 21751:1 21752:1 21765:1 21766:1 21767:1 21781:1 21782:1 21783:1 21950:1 21951:1 21952:1 21971:1 21972:1 21973:1 22192:1 22193:1 22194:1 22198:1 22199:1 22200:1 22213:1 22228:1 23737:1 23738:1 23739:1 23977:1 23978:1 23979:1 24292:1 24319:1 24585:1 24586:1 24587:1 25104:1 25115:1 25191:1 25192:1 25193:1 26769:1 26770:1 26771:1 27283:1 27284:1 27285:1 27286:1 27287:1 27288:1 27289:1 27290:1 27291:1 27292:1 27293:1 27294:1 27295:1 27296:1 27297:1 27298:1 27299:1 27300:1 27301:1 27302:1 27303:1 27304:1 27305:1 27306:1 27307:1 27308:1 27309:1 27310:1 27311:1 29709:2 29711:1 29712:1 29713:1 29714:1 29715:1 29718:1 29719:1 29728:1 29735:1 29736:1 29737:1 29738:1 29739:1 29740:1 29741:1 29743:1 29744:1 29745:1 29748:1 29749:1 29751:1 29752:1 29753:1 29754:1 29756:1 29757:1 29767:1 29768:1 29792:1 29793:1 29794:1 29796:1 29799:1 29800:1 29811:1 29812:1 29815:1 29823:1 29825:1 29826:1 29828:1 29829:1 29834:1 29835:1 29875:1 29885:1 29902:1 29911:1 29913:1 29915:1 29962:1 29965:1 29969:1 30255:1 30309:1 31545:1 31546:1 31583:1 32666:1 33537:1 33882:1 33883:1 33884:1 33885:1 33886:1 33887:1 33888:1 33889:1 33890:1 33891:1 33892:1 33893:1 33894:1 33895:1 33896:1 33897:1 36044:1 36047:1 36078:1 36079:1 36088:1 36091:1 36093:1 36097:1 36110:1 36142:1 36175:1 36182:1 36186:1 36189:1 36227:1 36253:1 36297:1 36312:1 36371:1 36447:1 36517:1 36563:1 36611:1 36734:1 36817:1 36818:1 37535:1 37682:1 37683:1 38008:1 38082:1 38382:1 38383:1 38556:1 39182:1 39183:1 39260:1 39308:1 39591:1 39592:1 39593:1 39594:1 39595:1 39596:1 39597:1 39598:1 39599:1 39600:1 39601:1 39602:1 39603:1 39604:1 39605:1 39606:1  |EV| 
0.0064692376595769200686714128778476 2:1 10:1 17:1 18:1 26:2 32:1 40:2 57:1 59:1 60:1 61:1 63:1 64:1 65:1 66:1 67:1 68:1 69:1 70:1 71:1 72:1 73:1 2197:1 2198:1 2199:1 2201:1 2204:1 2207:1 2215:1 2219:1 2230:1 2244:1 2246:1 2247:1 2248:1 2251:1 2252:1 2253:1 2254:1 2255:1 2256:1 2257:1 2258:1 2259:1 2260:1 2261:1 2262:1 2263:1 3812:2 3813:36 3814:1 3815:2 3816:1 3817:1 3822:1 3824:1 3825:1 3826:1 3828:1 3830:1 3831:1 3832:1 3833:1 3834:1 4571:1 4572:1 4573:1 4577:1 4578:1 4579:1 4593:1 5376:1 5381:1 5382:1 5384:1 5385:1 5387:1 5388:1 5390:1 5391:1 5393:1 5401:1 5402:1 5403:1 5404:1 5405:1 5406:1 5407:1 5410:1 5411:1 5412:1 5413:1 5414:1 5417:1 5418:1 5419:1 5420:1 5421:1 5431:1 5461:1 5465:1 5466:1 5470:1 5471:1 5487:1 5492:1 5493:1 5495:1 5496:1 5498:1 5499:1 5501:1 5502:1 5504:1 5512:1 5513:1 5514:1 5515:1 5516:1 5517:1 5518:1 5521:1 5522:1 5523:1 5524:1 5525:1 5528:1 5529:1 5530:1 5531:1 5532:1 5542:1 5572:1 5576:1 5577:1 5581:1 5582:1 5606:1 5612:1 5613:1 5614:1 5615:1 5616:1 5617:1 5619:1 5620:1 5621:1 5622:1 5623:1 5624:1 5711:1 5714:1 5716:1 5734:1 5735:1 5764:1 5765:1 5766:1 5767:1 5768:1 5769:1 5771:1 5772:1 5773:1 5776:1 5809:1 5813:1 5839:1 5840:1 5841:1 5842:1 5843:1 5844:1 5845:1 5931:1 5932:1 5944:1 5945:1 5950:1 5951:1 5977:1 5978:1 5979:1 5980:1 5981:1 5982:1 5983:1 5984:1 5985:1 5986:1 5987:1 5988:1 5989:1 5990:1 5991:1 5992:1 5993:1 5994:1 5995:1 5996:1 5997:1 5998:1 5999:1 6000:1 6001:1 6002:1 6003:1 6004:1 6007:1 6008:1 6029:1 6039:1 6040:1 6041:1 6042:1 6043:1 6044:1 6045:1 6046:1 6047:1 6048:1 6049:1 6050:1 6051:1 6052:1 6053:1 6054:1 6055:1 6056:1 6057:1 16426:1 16427:1 16428:1 16463:1 16464:1 16466:1 16498:1 16499:1 16512:1 16520:1 16521:1 16522:1 16531:1 16532:1 16533:1 16549:1 16550:1 16551:1 16555:1 16556:1 16557:1 16561:1 16562:1 16563:1 16564:1 16565:1 16568:1 16569:1 16570:1 16576:1 16577:1 16578:1 16579:1 16580:1 16581:1 16582:1 16583:1 16584:1 16585:1 16586:1 16587:1 16588:1 21505:1 21507:2 21508:1 21561:1 21562:1 21563:1 21605:1 21606:1 21607:1 21741:1 21758:1 29708:1 29709:3 29710:1 29711:1 29712:1 29713:1 29714:1 29715:1 29717:1 29718:1 29719:1 29726:1 29727:1 29728:1 29729:1 29731:1 29732:1 29735:1 29736:1 29737:1 29738:1 29739:1 29740:1 29741:1 29743:1 29744:1 29745:1 29748:1 29749:1 29751:1 29752:1 29753:1 29754:1 29756:1 29757:1 29759:1 29761:1 29762:1 29763:1 29764:1 29766:1 29798:1 29799:1 29800:1 29802:1 29811:1 29817:1 29818:1 29819:1 29821:1 29822:1 29823:1 29825:1 29826:1 29828:1 29829:1 29860:1 29864:1 29874:1 29877:1 29878:1 29884:1 29885:1 29886:1 29887:1 29888:1 29889:1 29890:1 29891:1 29892:1 29893:1 29894:1 29895:1 29896:1 29897:1 29898:1 29899:1 29900:1 29901:1 29902:1 29903:1 29904:1 29905:1 29906:1 29907:1 29908:1 36044:1 36047:1 36077:1 36165:1 36166:1 36167:1 36168:1 36169:1 41496:1 41497:1 41498:1 41499:1 41500:1 41501:1  |EV| 
0.0018165261690167968169906664854807 2:1 9:1 31:1 33:1 63:1 97:1 98:1 99:1 100:1 101:1 102:1 103:1 104:1 105:1 106:1 107:1 108:1 109:1 110:1 111:1 2199:1 2200:1 2201:1 2211:1 2213:1 2214:1 2216:1 2290:1 2291:1 2292:1 2293:1 2294:1 2295:1 2296:1 2297:1 2298:1 2299:1 2300:1 2301:1 3812:2 3813:21 3814:1 3815:1 3816:1 3817:1 3818:1 3821:1 3824:1 3825:1 3828:1 3829:1 3834:1 3839:1 3840:1 3841:1 3842:1 4573:1 4574:1 4599:1 4600:1 4601:1 4602:1 4603:1 4604:1 4605:1 4606:1 4607:1 4608:1 4609:1 4610:1 4611:1 4612:1 4613:1 4614:1 4615:1 4616:1 4617:1 4618:1 4619:1 4620:1 5376:1 5381:1 5382:1 5388:1 5390:1 5391:1 5393:1 5394:1 5395:1 5396:1 5397:1 5398:1 5400:1 5418:1 5419:1 5420:1 5421:1 5437:1 5444:1 5445:1 5447:1 5448:1 5449:1 5451:1 5453:1 5454:1 5455:1 5456:1 5459:1 5460:1 5465:1 5466:1 5470:1 5471:1 5478:1 5486:1 5487:1 5493:1 5495:1 5496:1 5498:1 5499:1 5501:1 5502:1 5504:1 5505:1 5506:1 5507:1 5512:1 5515:1 5517:1 5521:1 5522:1 5523:1 5524:1 5525:1 5526:1 5527:1 5529:1 5530:1 5531:1 5533:1 5534:1 5539:1 5540:1 5542:1 5543:1 5544:1 5545:1 5546:1 5547:1 5548:1 5549:1 5550:1 5551:1 5552:1 5553:1 5554:1 5555:1 5556:1 5614:1 5615:1 5616:1 5617:1 5619:1 5620:1 5621:1 5622:1 5623:1 5624:1 5646:1 5650:1 5651:1 5656:1 5657:1 5669:1 5670:1 5671:1 5672:1 5673:1 5674:1 5675:1 5676:1 5677:1 5678:1 5679:1 5680:1 5684:1 5739:1 5742:1 5771:1 5795:1 5796:1 5797:1 5798:1 5813:1 5815:1 5816:1 5833:1 5834:1 5837:1 5838:1 5839:1 5840:1 5841:1 5842:1 5843:1 5844:1 5845:1 5881:1 5925:1 5929:1 5931:1 5934:1 5944:1 5990:1 5991:1 5994:1 5995:1 5996:1 5997:1 5998:1 6025:1 6026:1 6065:1 6066:1 6069:1 6070:1 6230:1 6231:1 6241:1 6242:1 6255:1 6312:1 6313:1 6314:1 6315:1 6316:1 6317:1 6318:1 6319:1 6320:1 6321:1 6322:1 6323:1 6324:1 6325:1 6326:1 6327:1 6328:1 6329:1 6330:1 6331:1 6332:1 6333:1 6334:1 6335:1 6336:1 6337:1 6338:1 6339:1 6340:1 6341:1 6342:1 6343:1 6344:1 6345:1 6346:1 6347:1 6348:1 6349:1 6350:1 6351:1 6352:1 6353:1 6354:1 6355:1 6356:1 6357:1 6358:1 6359:1 6360:1 6361:1 6362:1 6363:1 6364:1 6365:1 6366:1 6367:1 6368:1 6369:1 6370:1 6371:1 6372:1 6373:1 6374:1 6375:1 6376:1 6377:1 6378:1 6379:1 6380:1 6381:1 6382:1 6383:1 6384:1 6385:1 6386:1 6387:1 6388:1 6389:1 6390:1 6391:1 6392:1 6393:1 6394:1 6395:1 6396:1 6397:1 6398:1 6399:1 16539:1 16556:1 16596:1 16623:1 16637:1 16658:1 16664:1 16687:1 16688:1 16689:1 16690:1 16691:1 16692:1 16693:1 16694:1 16695:1 16696:1 16697:1 16698:1 16699:1 16700:1 16701:1 16702:1 16703:1 16704:1 16705:1 16706:1 16707:1 16708:1 16709:1 16710:1 16711:1 16712:1 16713:1 16714:1 16715:1 16716:1 16717:1 16718:1 21505:1 21506:1 21507:14 21530:1 21535:1 21536:1 21537:1 21538:1 21539:1 21540:1 21541:1 21542:1 21543:1 21544:1 21548:1 21561:1 21562:1 21563:1 21564:1 21568:1 21582:1 21586:1 21594:1 21595:1 21596:1 21597:1 21598:1 21605:1 21606:1 21607:1 21608:1 21612:1 21679:1 21681:1 21682:1 21683:1 21684:1 21722:1 21741:1 21758:1 21760:1 22034:1 22035:1 22036:1 22037:1 22038:1 22039:1 22040:1 22041:1 22042:1 22043:1 22044:1 22045:1 22046:1 22047:1 22048:1 22049:1 22050:1 22051:1 22052:1 22053:1 22054:1 22055:1 22056:1 22057:1 22058:1 22059:1 22060:1 22061:1 22062:1 22063:1 22064:1 22065:1 22066:1 22067:1 22068:1 22069:1 22070:1 22071:1 22072:1 22073:1 22074:1 22075:1 22076:1 22077:1 29709:2 29711:1 29712:1 29713:1 29717:1 29718:1 29719:1 29735:1 29736:1 29737:1 29738:1 29739:1 29740:1 29741:1 29743:1 29744:1 29745:1 29747:1 29748:1 29749:1 29751:1 29752:1 29754:1 29757:1 29762:1 29767:1 29768:1 29792:1 29793:1 29794:1 29796:1 29799:1 29800:1 29811:1 29812:1 29815:1 29817:1 29818:1 29819:1 29821:1 29822:1 29823:1 29825:1 29826:1 29828:1 29829:1 29834:1 29885:1 29886:1 29888:1 29911:1 29913:1 29915:1 29962:1 29965:1 29969:1 30022:1 30023:1 30024:1 30025:1 30026:1 30027:1 30028:1 30029:1 30030:1 30031:1 30032:1 30033:1 30034:1 30035:1 30036:1 30037:1 30038:1 30039:1 30040:1 30041:1 30042:1 30043:1 30044:1 30045:1 30046:1 36044:1 36047:1 36058:1 36061:1 36062:1 36064:1 36065:1 36067:1 36070:1 36078:1 36093:1 36096:1 36108:1 36111:1 36113:1 36165:1 36166:1 36168:1 36169:1 36189:1 36227:1 36281:1 36296:1 36297:1 36298:1 36299:1 36300:1 36301:1 36302:1 36303:1 36304:1 36305:1 36306:1 36307:1 36308:1 36309:1 36310:1 36311:1 36312:1 36313:1 36314:1 36315:1 36316:1  |EV| 
0.0013616616387377017405313495146402 2:1 9:1 31:1 33:1 63:1 97:1 98:1 99:1 100:1 101:1 102:1 103:1 104:1 105:1 106:1 107:1 108:1 109:1 110:1 111:1 2199:1 2200:1 2201:1 2211:1 2213:1 2214:1 2216:1 2290:1 2291:1 2292:1 2293:1 2294:1 2295:1 2296:1 2297:1 2298:1 2299:1 2300:1 2301:1 3812:2 3813:21 3814:1 3815:1 3816:1 3817:1 3818:1 3821:1 3824:1 3825:1 3828:1 3829:1 3834:1 3840:1 3842:1 3843:1 3844:1 4571:1 4573:1 4574:1 4610:1 4611:1 4612:1 4613:1 4614:1 4615:1 4616:1 4617:1 4618:1 4619:1 4620:1 4621:1 4622:1 4623:1 4624:1 4625:1 5376:1 5382:1 5387:1 5388:1 5393:1 5394:1 5395:1 5396:1 5401:1 5402:1 5404:1 5406:1 5407:1 5410:1 5411:1 5418:1 5419:1 5420:1 5421:1 5432:1 5434:1 5437:1 5439:1 5441:1 5442:1 5443:1 5444:1 5478:1 5486:1 5487:1 5493:1 5495:1 5496:1 5498:1 5499:1 5501:1 5502:1 5504:1 5505:1 5506:1 5507:1 5512:1 5515:1 5517:1 5521:1 5522:1 5523:1 5524:1 5525:1 5526:1 5527:1 5529:1 5530:1 5531:1 5533:1 5534:1 5539:1 5540:1 5542:1 5543:1 5544:1 5545:1 5546:1 5547:1 5548:1 5549:1 5550:1 5551:1 5552:1 5553:1 5554:1 5555:1 5556:1 5613:1 5614:1 5615:1 5616:1 5617:1 5619:1 5620:1 5621:1 5622:1 5623:1 5624:1 5653:1 5656:1 5657:1 5669:1 5670:1 5671:1 5672:1 5673:1 5674:1 5675:1 5676:1 5677:1 5678:1 5679:1 5680:1 5684:1 5739:1 5742:1 5771:1 5795:1 5796:1 5797:1 5798:1 5813:1 5881:1 5925:1 5929:1 5990:1 5991:1 5994:1 5995:1 6025:1 6026:1 6074:1 6206:1 6217:1 6218:1 6222:1 6223:1 6224:1 6227:1 6228:1 6275:1 6310:1 6358:1 6359:1 6360:1 6361:1 6362:1 6363:1 6364:1 6365:1 6366:1 6367:1 6368:1 6369:1 6370:1 6371:1 6372:1 6373:1 6374:1 6375:1 6376:1 6377:1 6378:1 6379:1 6380:1 6381:1 6382:1 6383:1 6384:1 6385:1 6386:1 6387:1 6388:1 6389:1 6390:1 6391:1 6392:1 6393:1 6394:1 6395:1 6396:1 6397:1 6400:1 6401:1 6402:1 6403:1 6404:1 6405:1 6406:1 6407:1 6408:1 6409:1 6410:1 6411:1 6412:1 6413:1 6414:1 6415:1 6416:1 6417:1 6418:1 6419:1 6420:1 6421:1 6422:1 6423:1 6424:1 6425:1 6426:1 6427:1 6428:1 6429:1 6430:1 6431:1 6432:1 6433:1 6434:1 6435:1 6436:1 6437:1 6438:1 6439:1 6440:1 16505:1 16506:1 16507:1 16512:1 16539:1 16596:1 16623:1 16658:1 16664:1 16690:1 16691:1 16692:1 16696:1 16697:1 16698:1 16703:1 16704:1 16707:1 16708:1 16712:1 16713:1 16714:1 16716:1 16717:1 16718:1 16719:1 16720:1 16721:1 16722:1 16723:1 16724:1 16725:1 16726:1 21505:1 21506:1 21507:16 21530:1 21535:1 21536:1 21537:1 21538:1 21539:1 21540:1 21541:1 21542:1 21543:1 21544:1 21548:1 21557:1 21558:1 21559:1 21560:1 21561:1 21562:1 21563:1 21564:1 21568:1 21582:1 21586:1 21594:1 21595:1 21596:1 21597:1 21598:1 21605:1 21606:1 21607:1 21608:1 21612:1 21679:1 21681:1 21682:1 21683:1 21684:1 21722:1 21741:1 21758:1 21760:1 22034:1 22035:1 22036:1 22037:1 22038:1 22039:1 22040:1 22041:1 22042:1 22043:1 22044:1 22045:1 22046:1 22047:1 22048:1 22049:1 22050:1 22051:1 22052:1 22053:1 22054:1 22055:1 22056:1 22057:1 22058:1 22059:1 22060:1 22061:1 22062:1 22063:1 22064:1 22065:1 22066:1 22067:1 22068:1 22069:1 22070:1 22071:1 22072:1 22073:1 22074:1 22075:1 22076:1 22077:1 22078:1 22079:1 22080:1 22081:1 29709:2 29711:1 29712:1 29713:1 29714:1 29715:1 29717:1 29718:1 29719:1 29728:1 29735:1 29736:1 29737:1 29738:1 29739:1 29740:1 29741:1 29743:1 29744:1 29745:1 29747:1 29748:1 29749:1 29751:1 29767:1 29768:1 29792:1 29793:1 29794:1 29796:1 29799:1 29800:1 29809:1 29811:1 29816:1 29822:1 29823:1 29825:1 29826:1 29827:1 29828:1 29829:1 29834:1 29835:1 30024:1 30027:1 30028:1 30029:1 30030:1 30031:1 30032:1 30033:1 30034:1 30035:1 30046:1 30047:1 36044:1 36047:1 36058:1 36061:1 36062:1 36064:1 36065:1 36067:1 36070:1 36072:1 36075:1 36076:1 36078:1 36093:1 36096:1 36108:1 36111:1 36113:1 36165:1 36166:1 36168:1 36169:1 36189:1 36227:1 36253:1 36281:1 36296:1 36297:1 36298:1 36299:1 36300:1 36301:1 36302:1 36303:1 36304:1 36305:1 36306:1 36307:1 36308:1 36309:1 36310:1 36311:1 36312:1 36313:1 36314:1 36315:1 36316:1 36317:1 36318:1  |EV| 
-0.003642437055451632973990250263796 1:1 10:1 44:1 100:1 110:2 147:1 148:1 304:1 369:1 419:1 615:1 819:1 960:1 1651:1 1784:1 1785:1 2201:1 2204:1 2205:1 2212:1 2213:1 2219:1 2227:1 2232:1 2252:1 2258:1 2293:1 2328:1 2331:1 2367:1 2519:1 2635:1 2708:1 2872:1 3540:1 3812:1 3813:20 3814:1 3815:2 3816:1 3820:1 3824:1 3825:1 3828:1 3829:1 3830:1 3840:1 3842:1 4414:1 4415:1 4571:1 4573:1 4574:1 4610:1 4611:1 4612:1 4613:1 4614:1 4615:1 4616:1 4617:1 4618:1 4619:1 4620:1 5257:1 5258:1 5259:1 5372:1 5373:1 5375:1 5376:1 5382:1 5387:1 5388:1 5390:1 5393:1 5394:1 5397:1 5415:1 5416:1 5418:1 5419:1 5420:1 5421:1 5422:1 5423:1 5424:1 5425:1 5427:1 5431:1 5434:1 5435:1 5437:1 5448:1 5449:1 5450:1 5451:1 5452:1 5453:1 5454:1 5455:1 5456:1 5459:1 5460:1 5474:1 5475:1 5477:1 5478:1 5479:1 5480:1 5481:1 5482:1 5486:1 5487:1 5493:1 5498:1 5499:1 5501:1 5504:1 5505:1 5508:1 5526:1 5527:1 5529:1 5530:1 5531:1 5532:1 5533:1 5534:1 5535:1 5536:1 5538:1 5542:1 5545:1 5546:1 5548:1 5559:1 5560:1 5561:1 5562:1 5563:1 5564:1 5565:1 5566:1 5567:1 5570:1 5571:1 5613:1 5614:1 5615:1 5616:1 5617:1 5619:1 5620:1 5621:1 5622:1 5623:1 5624:1 5625:1 5626:1 5631:1 5641:1 5642:1 5643:1 5644:1 5645:1 5646:1 5647:1 5648:1 5649:1 5656:1 5657:1 5662:1 5672:1 5673:1 5674:1 5675:1 5676:1 5677:1 5678:1 5679:1 5680:1 5723:1 5724:1 5754:1 5756:1 5757:1 5771:1 5792:1 5829:1 5830:1 5846:1 5847:1 5873:1 5874:1 5942:1 5993:1 6129:1 6140:1 6141:1 6149:1 6150:1 6162:1 6163:1 6164:1 6204:1 6205:1 6219:1 6229:1 6241:1 6253:1 6264:1 6320:1 6321:1 6372:1 6397:1 6452:1 6453:1 6454:1 6455:1 6484:1 6507:1 6728:1 7526:1 7527:1 7627:1 7658:1 7808:1 7809:1 7986:1 7987:1 8698:1 10487:1 10488:1 10505:1 10506:1 10511:1 10512:1 11255:1 11256:1 13869:1 13870:1 14254:1 14255:1 14256:1 14257:1 14258:1 14259:1 14306:1 14309:1 14310:1 14311:1 14312:1 14313:1 14314:1 14315:1 14316:1 16427:1 16428:1 16429:1 16430:1 16431:1 16439:1 16459:1 16460:1 16461:1 16490:1 16493:1 16494:1 16496:1 16512:1 16617:1 16623:1 16642:1 16731:1 16741:1 16854:1 16868:1 16869:1 16871:1 16872:1 16873:1 16874:1 16878:1 17024:1 17148:1 17149:1 17248:1 17629:1 17630:1 18567:1 18568:1 20383:1 20384:1 20385:1 20386:1 20387:1 20388:1 20389:1 21504:1 21507:3 21508:1 21510:1 21512:1 21516:1 21530:1 21532:1 21536:1 21811:1 21812:1 21877:1 21878:1 22224:1 25017:1 25018:1 25019:1 25020:1 25021:1 29708:1 29709:3 29711:1 29712:1 29713:1 29714:1 29715:1 29717:1 29718:1 29719:1 29721:1 29723:1 29728:1 29729:1 29731:1 29732:1 29735:1 29736:1 29737:1 29738:1 29739:1 29740:1 29741:1 29743:1 29744:1 29745:1 29748:1 29749:1 29751:1 29752:1 29753:1 29754:1 29756:1 29757:1 29759:1 29767:1 29768:1 29771:1 29777:1 29786:1 29792:1 29793:1 29794:1 29796:1 29799:1 29800:1 29811:1 29823:1 29826:1 29828:1 29829:1 29896:1 29897:1 29901:1 29902:1 29945:1 30024:1 30048:1 31918:1 32003:1 32010:1 32011:1 32012:1 32015:1 32018:1 34502:1 34559:1 34560:1 34561:1 34562:1 34563:1 34564:1 36044:1 36047:1 36052:1 36053:1 36055:1 36069:1 36201:1 36321:1 40147:1 40158:1 40179:1  |EV| 
-0.0099860737627250981823801012637887 2:1 14:1 37:1 93:1 138:1 146:1 163:1 435:1 438:1 770:1 771:1 772:1 773:1 774:1 775:1 875:1 1925:1 1926:1 1927:1 1928:1 1929:1 2204:1 2217:1 2222:1 2258:1 2284:1 2286:1 2297:1 2323:1 2330:1 2344:1 2567:1 2828:1 2829:1 2830:1 3634:1 3635:1 3636:1 3812:2 3813:18 3814:1 3815:4 3816:1 3818:1 3824:1 3825:1 3828:1 3829:1 3834:1 4071:1 4470:1 4471:1 4472:1 4473:1 4571:1 4572:1 4573:1 4574:1 4593:1 4611:1 4613:1 4614:1 4615:1 4616:1 4617:1 4618:1 4619:1 4620:1 4706:1 4734:1 4773:1 4793:1 4795:1 4797:1 4846:1 4847:1 5035:1 5309:1 5310:1 5376:1 5381:1 5382:1 5384:1 5385:1 5387:1 5388:1 5390:1 5391:1 5393:1 5394:1 5395:1 5396:1 5397:1 5398:1 5400:1 5401:1 5403:1 5404:1 5405:1 5406:1 5410:1 5411:1 5412:1 5413:1 5414:1 5418:1 5419:1 5420:1 5421:1 5431:1 5447:1 5448:1 5449:1 5451:1 5453:1 5454:1 5455:1 5456:1 5459:1 5460:1 5465:1 5466:1 5470:1 5471:1 5487:1 5492:1 5493:1 5495:1 5496:1 5498:1 5499:1 5501:1 5502:1 5504:1 5505:1 5506:1 5507:1 5508:1 5509:1 5511:1 5512:1 5514:1 5515:1 5516:1 5517:1 5521:1 5522:1 5523:1 5524:1 5525:1 5529:1 5530:1 5531:1 5532:1 5542:1 5558:1 5559:1 5560:1 5562:1 5564:1 5565:1 5566:1 5567:1 5570:1 5571:1 5576:1 5577:1 5581:1 5582:1 5606:1 5607:1 5608:1 5609:1 5613:1 5614:1 5615:1 5616:1 5617:1 5619:1 5620:1 5621:1 5622:1 5623:1 5624:1 5635:1 5636:1 5637:1 5653:1 5666:1 5667:1 5668:1 5677:1 5684:1 5688:1 5702:1 5703:1 5704:1 5705:1 5706:1 5707:1 5708:1 5711:1 5712:1 5713:1 5714:1 5715:1 5716:1 5717:1 5731:1 5732:1 5734:1 5735:1 5742:1 5750:1 5751:1 5758:1 5759:1 5762:1 5763:1 5771:1 5785:1 5786:1 5787:1 5792:1 5795:1 5798:1 5813:1 5815:1 5816:1 5833:1 5834:1 5837:1 5838:1 5881:1 5900:1 5901:1 5903:1 5905:1 5906:1 5908:1 5909:1 5910:1 5911:1 5914:1 5915:1 5925:1 5929:1 5993:1 5996:1 5998:1 6025:1 6026:1 6074:1 6075:1 6108:1 6120:1 6121:1 6122:1 6159:1 6160:1 6161:1 6230:1 6231:1 6253:1 6275:1 6298:1 6299:1 6346:1 6546:1 6547:1 6548:1 6549:1 6558:1 6559:1 6636:1 6637:1 6675:1 6676:1 6719:1 6904:1 6906:1 7274:1 7275:1 7278:1 7279:1 7280:1 7283:1 8106:1 8120:1 8211:1 8212:1 8446:1 8447:1 8485:1 8486:1 8936:1 8937:1 9062:1 9063:1 9306:1 9307:1 9554:1 9560:1 9561:1 9566:1 9572:1 9573:1 9577:1 9578:1 9580:1 9923:1 9924:1 9925:1 10003:1 10004:1 10018:1 10019:1 10848:1 10849:1 12979:1 12980:1 13144:1 13145:1 14897:1 14898:1 14899:1 14900:1 14901:1 14902:1 14903:1 14904:1 14905:1 14906:1 14907:1 16463:1 16464:1 16465:1 16466:1 16467:1 16487:1 16502:1 16503:1 16504:1 16512:1 16556:1 16586:1 16587:1 16588:1 16644:1 16645:1 16646:1 16700:1 16701:1 16734:1 16735:1 16740:1 16741:1 16742:1 16743:1 16754:1 16755:1 16756:1 16957:1 16958:1 16959:1 17000:1 17001:1 17002:1 17360:1 17361:1 17362:1 17490:1 17491:1 17492:1 20655:1 20656:1 20660:1 20661:1 20662:1 21504:1 21507:2 21508:1 21749:1 21750:1 21751:1 21752:1 21795:1 21796:1 21797:1 21798:1 29709:2 29711:1 29712:1 29713:1 29714:1 29715:1 29717:1 29718:1 29719:1 29728:1 29738:1 29739:1 29740:1 29741:1 29748:1 29749:1 29752:1 29754:1 29757:1 29762:1 29778:1 29779:1 29799:1 29800:1 29810:1 29811:1 29812:1 29823:1 29824:1 29825:1 29828:1 29830:1 29831:1 29834:1 29835:1 29885:1 29919:1 29920:1 29962:1 29969:1 30087:1 30249:1 30251:1 30259:1 30260:1 30823:1 30826:1 30881:1 30882:1 31159:1 31509:1 31780:1 34952:1 34955:1 34956:1 34957:1 34962:1 36044:1 36047:1 36157:1 36253:1 36524:1 36525:1 40521:1 40522:1 41561:1 41615:1 41616:1 41618:1 41638:1 41639:1  |EV| 
0.0072834114980747594395027455504987 5:1 9:1 21:1 31:1 33:1 44:1 45:1 101:1 120:1 163:1 180:1 274:1 302:1 365:1 395:1 714:1 739:1 768:1 943:1 964:1 1104:1 1107:1 1718:1 1741:1 1742:1 1743:1 1744:1 1745:1 1746:1 1747:1 1748:1 1749:1 1750:1 1751:1 1752:1 1753:1 1754:1 1755:1 1756:1 1757:1 2200:1 2201:1 2203:1 2204:1 2214:1 2216:1 2219:1 2227:1 2228:1 2248:1 2294:1 2344:1 2424:1 2465:1 2517:1 2518:1 2788:1 2806:1 2827:1 2955:1 2970:1 3072:1 3076:1 3181:1 3496:1 3510:1 3511:1 3512:1 3513:1 3514:1 3515:1 3516:1 3517:1 3518:1 3519:1 3520:1 3521:1 3812:4 3813:50 3814:1 3815:1 3816:1 3821:1 3824:1 3825:1 3828:1 4019:1 4101:1 4102:1 4391:1 4392:1 4393:1 4571:1 4674:1 4706:1 4754:1 4905:1 5236:1 5372:1 5373:1 5375:1 5376:1 5378:1 5379:1 5381:1 5382:1 5384:1 5385:1 5387:1 5388:1 5390:1 5391:1 5393:1 5394:1 5395:1 5396:1 5397:1 5401:1 5402:1 5403:1 5404:1 5405:1 5406:1 5407:1 5410:1 5411:1 5412:1 5413:1 5414:1 5415:1 5416:1 5418:1 5419:1 5420:1 5421:1 5422:1 5423:1 5448:1 5449:1 5450:1 5451:1 5452:1 5453:1 5454:1 5455:1 5456:1 5459:1 5460:1 5465:1 5466:1 5467:1 5468:1 5469:1 5470:1 5471:1 5472:1 5473:1 5487:1 5493:1 5498:1 5499:1 5504:1 5505:1 5506:1 5507:1 5529:1 5530:1 5531:1 5532:1 5535:1 5536:1 5538:1 5542:1 5543:1 5545:1 5547:1 5548:1 5549:1 5550:1 5552:1 5553:1 5554:1 5555:1 5559:1 5560:1 5561:1 5562:1 5563:1 5564:1 5565:1 5566:1 5567:1 5570:1 5571:1 5576:1 5577:1 5581:1 5582:1 5606:1 5608:1 5613:1 5614:1 5615:1 5616:1 5617:1 5619:1 5620:1 5621:1 5622:1 5623:1 5624:1 5734:1 5739:1 5742:1 5771:1 5785:1 5786:1 5787:1 5821:1 5929:1 5959:1 6052:1 6053:1 6055:1 6056:1 6057:1 6108:1 6154:1 6217:1 6253:1 6283:1 6284:1 6287:1 6288:1 6298:1 6299:1 6313:1 6314:1 6324:1 6370:1 6371:1 6406:1 6407:1 6414:1 6480:1 6481:1 6546:1 6547:1 6636:1 6637:1 6646:1 6694:1 6695:1 6728:1 6730:1 6853:1 6856:1 7032:1 7116:1 7117:1 7119:1 7121:1 7122:1 7688:1 7717:1 7723:1 7769:1 7770:1 7913:1 7914:1 7977:1 7978:1 8169:1 9375:1 9444:1 9445:1 9659:1 9660:1 11289:1 11290:1 12054:1 12055:1 14123:1 14124:1 14125:1 14126:1 14127:1 14128:1 14129:1 14130:1 14131:1 14132:1 14133:1 14134:1 14135:1 14136:1 14137:1 14138:1 14139:1 14140:1 14141:1 14142:1 14143:1 16430:1 16463:1 16465:1 16498:1 16523:1 16524:1 16617:1 16642:1 16728:1 16837:1 16857:1 16858:1 16859:1 16990:1 16991:1 16992:1 17343:1 17344:1 17345:1 17763:1 19192:1 20300:1 20301:1 20302:1 20303:1 20304:1 20305:1 21504:1 21506:1 21507:51 21510:1 21512:1 21516:1 21517:1 21518:1 21519:1 21520:1 21521:1 21522:1 21523:1 21524:1 21528:1 21530:1 21532:1 21536:1 21537:1 21538:1 21539:1 21540:1 21541:1 21542:1 21543:1 21544:1 21548:1 21549:1 21550:1 21551:1 21552:1 21553:1 21554:1 21555:1 21556:1 21557:1 21558:1 21559:1 21560:1 21605:1 21606:1 21607:1 21608:1 21612:1 21619:1 21632:1 21639:1 21640:1 21641:1 21694:1 21715:1 21749:1 21750:1 21751:1 21752:1 21758:1 21781:1 21782:1 21783:1 21795:1 21796:1 21797:1 21798:1 21808:1 21809:1 21810:1 21811:1 21812:1 21822:1 21826:1 21827:1 21828:1 21841:1 21842:1 21843:1 21844:1 21853:1 21877:1 21878:1 21915:1 21919:1 22056:1 22057:1 22058:1 22062:1 22094:1 22095:1 22096:1 22135:1 22136:1 22269:1 22270:1 22277:1 22282:1 22283:1 22377:1 22386:1 22398:1 22536:1 22537:1 22538:1 22564:1 22565:1 22566:1 22651:1 22652:1 22690:1 22691:1 22692:1 22693:1 22708:1 22709:1 22743:1 22744:1 22745:1 22746:1 22809:1 22810:1 22811:1 22851:1 22852:1 22853:1 23072:1 23179:1 23180:1 23181:1 23184:1 23185:1 23186:1 23187:1 23190:1 23223:1 23224:1 23225:1 23226:1 24134:1 24135:1 24136:1 24139:1 24140:1 24141:1 24756:1 24757:1 24761:1 24762:1 24937:1 24938:1 24939:1 24946:1 24947:1 24948:1 25070:1 25071:1 25072:1 25221:1 25222:1 25550:1 25555:1 26203:1 26204:1 26205:1 26228:1 26229:1 26230:1 26687:1 26688:1 26689:1 27871:1 27872:1 27873:1 27874:1 27875:1 27876:1 27877:1 27878:1 27879:1 27880:1 27881:1 27882:1 27883:1 27884:1 27885:1 27886:1 27887:1 27888:1 27889:1 27890:1 27891:1 27892:1 27893:1 27894:1 27895:1 27896:1 27897:1 27898:1 27899:1 27900:1 27901:1 27902:1 27903:1 27904:1 27905:1 27906:1 27907:1 27908:1 27909:1 27910:1 27911:1 27912:1 27913:1 27914:1 27915:1 27916:1 27917:1 27918:1 27919:1 27920:1 27921:1 27922:1 27923:1 27924:1 27925:1 27926:1 27927:1 27928:1 27929:1 27930:1 27931:1 27932:1 27933:1 27934:1 27935:1 27936:1 27937:1 27938:1 27939:1 27940:1 27941:1 27942:1 27943:1 27944:1 27945:1 27946:1 27947:1 27948:1 27949:1 27950:1 27951:1 27952:1 29709:6 29711:1 29712:1 29713:1 29714:1 29715:1 29717:1 29718:1 29719:1 29721:1 29722:1 29723:1 29728:1 29729:1 29730:1 29731:1 29732:1 29733:1 29735:1 29736:1 29737:1 29738:1 29739:1 29740:1 29741:1 29743:1 29744:1 29745:1 29746:1 29747:1 29748:1 29749:1 29751:1 29752:1 29753:1 29754:1 29756:1 29757:1 29759:1 29761:1 29762:1 29763:1 29764:1 29766:1 29767:1 29768:1 29769:1 29770:1 29778:1 29779:1 29794:1 29799:1 29800:1 29802:1 29808:1 29811:1 29812:1 29813:1 29817:1 29818:1 29819:1 29822:1 29823:1 29825:1 29828:1 29831:1 29889:1 29890:1 29891:1 29911:1 29913:1 29962:1 29965:1 29969:1 29987:1 30004:1 30006:1 30008:1 30027:1 30031:1 30033:1 30035:1 30046:1 30072:1 30115:1 30127:1 30130:1 30132:1 30134:1 30135:1 30136:1 30137:1 30179:1 30181:1 30184:1 30211:1 30220:1 30276:1 30278:1 30280:1 30379:1 30449:1 30517:1 30568:1 30573:1 30587:1 30628:1 30641:1 30836:1 31092:1 31109:1 31399:1 31962:1 32113:1 32114:1 32120:1 32449:1 32588:1 32589:1 34212:1 34380:1 34381:1 34382:1 34383:1 34384:1 34385:1 34386:1 34387:1 34388:1 34389:1 34390:1 34391:1 34392:1 34393:1 34394:1 34395:1 34396:1 34397:1 34398:1 34399:1 34400:1 34401:1 34402:1 34403:1 34404:1 34405:1 34406:1 34407:1 36044:1 36047:1 36052:1 36058:1 36060:1 36061:1 36062:1 36064:1 36065:1 36067:1 36068:1 36071:1 36072:1 36073:1 36075:1 36076:1 36078:1 36087:1 36091:1 36093:1 36096:1 36102:1 36110:1 36111:1 36113:1 36129:1 36131:1 36132:1 36137:1 36165:1 36168:1 36169:1 36186:1 36189:1 36192:1 36193:1 36227:1 36228:1 36232:1 36253:1 36258:1 36298:1 36302:1 36312:1 36314:1 36316:1 36349:1 36411:1 36417:1 36524:1 36525:1 36527:1 36528:1 36529:1 36534:1 36535:1 36550:1 36563:1 36610:1 36611:1 36612:1 36614:1 36627:1 36660:1 36820:1 36836:1 36866:1 36871:1 36892:1 36893:1 36917:1 36951:1 36969:1 37045:1 37185:1 37259:1 37621:1 37699:1 37753:1 37803:1 37805:1 37920:1 38004:1 38023:1 38075:1 38452:1 38732:1 38871:1 39740:1 40043:1 40044:1 40045:1 40046:1 40047:1 40048:1 40049:1 40050:1 40051:1 40052:1 40053:1 40054:1 40055:1 40056:1 40057:1 40058:1 40059:1 40060:1 40061:1 40062:1 40063:1 40064:1 40065:1 40066:1 40067:1 40068:1 40069:1 40070:1 40071:1 40072:1 40073:1 40074:1 40075:1 40076:1 40077:1 40078:1  |EV| 
9.3293808418644380434439633553723e-05 1:1 9:1 24:1 27:1 34:1 36:1 39:1 44:1 45:1 68:1 104:1 105:1 193:1 204:1 302:1 326:1 480:1 614:1 808:1 1015:1 1019:1 1022:1 1113:1 1239:1 1671:1 1901:1 1902:1 1903:1 1904:1 1905:1 1906:1 1907:1 1908:1 2200:1 2201:1 2204:1 2207:1 2208:1 2211:1 2213:1 2217:1 2218:1 2219:1 2221:1 2223:1 2227:1 2228:1 2232:1 2250:1 2252:1 2253:1 2258:1 2259:1 2294:1 2297:1 2298:1 2370:1 2378:1 2425:1 2465:1 2470:1 2485:1 2491:1 2497:1 2533:1 2570:1 2707:1 2863:1 3007:1 3080:1 3168:1 3465:1 3622:1 3623:1 3624:1 3625:1 3626:1 3812:1 3813:58 3814:1 3815:1 3816:1 3818:1 3820:1 3821:1 3824:1 3825:1 3828:1 4113:1 4115:1 4461:1 4462:1 4463:1 4571:1 4573:1 5296:1 5297:1 5298:1 5376:1 5382:1 5384:1 5385:1 5388:1 5390:1 5391:1 5393:1 5394:1 5397:1 5398:1 5400:1 5401:1 5404:1 5406:1 5410:1 5411:1 5412:1 5413:1 5414:1 5418:1 5419:1 5420:1 5421:1 5424:1 5425:1 5427:1 5428:1 5429:1 5431:1 5432:1 5433:1 5434:1 5435:1 5436:1 5437:1 5438:1 5444:1 5445:1 5461:1 5465:1 5466:1 5470:1 5471:1 5474:1 5475:1 5477:1 5478:1 5479:1 5480:1 5482:1 5483:1 5484:1 5487:1 5493:1 5495:1 5496:1 5499:1 5501:1 5502:1 5504:1 5505:1 5508:1 5509:1 5511:1 5512:1 5515:1 5517:1 5521:1 5522:1 5523:1 5524:1 5525:1 5529:1 5530:1 5531:1 5532:1 5535:1 5536:1 5538:1 5539:1 5540:1 5542:1 5543:1 5544:1 5545:1 5546:1 5547:1 5548:1 5549:1 5550:1 5552:1 5553:1 5554:1 5555:1 5556:1 5572:1 5576:1 5577:1 5581:1 5582:1 5585:1 5586:1 5588:1 5590:1 5591:1 5592:1 5593:1 5606:1 5607:1 5613:1 5614:1 5615:1 5616:1 5617:1 5619:1 5620:1 5621:1 5622:1 5623:1 5624:1 5628:1 5631:1 5635:1 5636:1 5637:1 5638:1 5639:1 5640:1 5650:1 5651:1 5653:1 5654:1 5655:1 5659:1 5662:1 5666:1 5667:1 5668:1 5669:1 5670:1 5671:1 5681:1 5682:1 5684:1 5685:1 5686:1 5687:1 5688:1 5689:1 5690:1 5692:1 5693:1 5702:1 5703:1 5704:1 5705:1 5706:1 5707:1 5708:1 5709:1 5710:1 5711:1 5712:1 5713:1 5714:1 5715:1 5716:1 5717:1 5718:1 5719:1 5720:1 5721:1 5722:1 5723:1 5724:1 5725:1 5726:1 5730:1 5745:1 5764:1 5765:1 5766:1 5767:1 5771:1 5774:1 5775:1 5777:1 5778:1 5785:1 5786:1 5787:1 5795:1 5796:1 5798:1 5799:1 5800:1 5801:1 5810:1 5811:1 5813:1 5821:1 5839:1 5840:1 5841:1 5842:1 5843:1 5844:1 5845:1 5846:1 5847:1 5848:1 5849:1 5851:1 5853:1 5854:1 5855:1 5856:1 5900:1 5901:1 5902:1 5903:1 5905:1 5906:1 5908:1 5909:1 5910:1 5911:1 5914:1 5915:1 5916:1 5919:1 5921:1 5934:1 5948:1 5949:1 5979:1 5980:1 5987:1 5993:1 6007:1 6008:1 6029:1 6037:1 6038:1 6065:1 6066:1 6069:1 6070:1 6120:1 6121:1 6122:1 6217:1 6298:1 6299:1 6333:1 6334:1 6422:1 6423:1 6425:1 6426:1 6606:1 6609:1 6728:1 6875:1 6876:1 6902:1 6903:1 7049:1 7050:1 7098:1 7099:1 8437:1 8479:1 8480:1 8511:1 8512:1 8515:1 8516:1 8951:1 9929:1 9983:1 9984:1 10894:1 11331:1 11332:1 11333:1 11334:1 11439:1 11755:1 11756:1 12538:1 13577:1 13591:1 13598:1 14260:1 14261:1 14807:1 14808:1 14809:1 14811:1 14812:1 14813:1 14814:1 14815:1 14816:1 14817:1 14818:1 14819:1 14820:1 14821:1 14822:1 14823:1 14824:1 14825:1 14826:1 14827:1 14828:1 16427:1 16428:1 16430:1 16460:1 16463:1 16465:1 16487:1 16498:1 16529:1 16530:1 16552:1 16553:1 16554:1 16601:1 16602:1 16603:1 16750:1 16857:1 17164:1 17199:1 17200:1 17201:1 17360:1 17361:1 17362:1 17455:1 17456:1 17457:1 17635:1 17636:1 20095:1 20616:1 20623:1 20624:1 20625:1 20626:1 21505:1 21506:1 21507:19 21532:1 21537:1 21538:1 21539:1 21540:1 21541:1 21542:1 21543:1 21544:1 21546:1 21548:1 21561:1 21563:1 21564:1 21568:1 21579:1 21580:1 21581:1 21582:1 21594:1 21595:1 21596:1 21597:1 21598:1 21602:1 21603:1 21604:1 21605:1 21607:1 21608:1 21612:1 21623:1 21624:1 21625:1 21639:1 21640:1 21641:1 21682:1 21683:1 21684:1 21731:1 21732:1 21733:1 21734:1 21739:1 21749:1 21750:1 21751:1 21752:1 21764:1 21877:1 21878:1 21888:1 21889:1 21890:1 21993:1 21994:1 21995:1 22040:1 22062:1 22311:1 22312:1 22560:1 22583:1 23336:1 23337:1 23338:1 23345:1 23346:1 23347:1 23789:1 23799:1 24327:1 24341:1 24343:1 24344:1 24345:1 24346:1 24347:1 24348:1 24435:1 24437:1 24438:1 24439:1 25301:1 25302:1 25402:1 26609:1 26610:1 28472:1 28473:1 28474:1 28475:1 28476:1 28477:1 28478:1 28479:1 28480:1 28481:1 28482:1 28483:1 28484:1 28485:1 28486:1 28487:1 28488:1 28489:1 28490:1 28491:1 28492:1 29709:2 29711:1 29712:1 29713:1 29714:1 29715:1 29717:1 29718:1 29719:1 29728:1 29736:1 29738:1 29739:1 29740:1 29741:1 29744:1 29745:1 29747:1 29748:1 29749:1 29751:1 29762:1 29769:1 29770:1 29778:1 29779:1 29799:1 29800:1 29811:1 29817:1 29818:1 29819:1 29821:1 29823:1 29825:1 29826:1 29827:1 29828:1 29829:1 29831:1 29834:1 29835:1 29911:1 29913:1 29915:1 30044:1 30191:1 30929:1 30932:1 32563:1 33499:1 34920:1 34922:1 34923:1 34924:1 34925:1 36044:1 36047:1 36052:1 36061:1 36062:1 36064:1 36065:1 36067:1 36068:1 36073:1 36078:1 36091:1 36093:1 36107:1 36108:1 36110:1 36111:1 36113:1 36129:1 36137:1 36157:1 36170:1 36172:1 36186:1 36227:1 36253:1 36312:1 36371:1 36411:1 36419:1 36420:1 36425:1 36514:1 36517:1 36563:1 36949:1 36952:1 36953:1 36954:1 36955:1 37582:1 37584:1 37585:1 38110:1 39271:1 40480:1 40481:1 40482:1 40483:1 40484:1 40485:1 40486:1 40487:1 40488:1 40489:1  |EV| 
0.0027591727659452003340589953950257 1:1 10:1 18:1 19:1 50:1 71:1 189:1 206:1 230:1 462:1 463:1 471:1 479:1 531:1 712:1 1176:1 1179:1 1194:1 1365:1 1433:1 1823:1 1824:1 1825:1 1826:1 1827:1 2198:1 2199:1 2200:1 2201:1 2204:1 2207:1 2217:1 2219:1 2237:1 2247:1 2284:1 2367:1 2380:1 2400:1 2491:1 2497:1 2588:1 2589:1 2602:1 2618:1 2642:1 2786:1 3123:1 3128:1 3135:1 3566:1 3567:1 3568:1 3812:1 3813:37 3814:1 3815:2 3816:1 3817:1 3820:1 3824:1 3825:1 3828:1 3830:1 3918:1 3919:1 4430:1 4431:1 4433:1 4571:1 4573:1 4695:1 5118:1 5119:1 5269:1 5270:1 5372:1 5373:1 5374:1 5375:1 5376:1 5377:1 5378:1 5379:1 5380:1 5381:1 5382:1 5383:1 5384:1 5385:1 5386:1 5387:1 5388:1 5389:1 5390:1 5391:1 5393:1 5394:1 5395:1 5396:1 5397:1 5400:1 5401:1 5403:1 5404:1 5405:1 5406:1 5410:1 5411:1 5412:1 5413:1 5414:1 5415:1 5416:1 5418:1 5419:1 5420:1 5421:1 5422:1 5423:1 5424:1 5425:1 5426:1 5427:1 5447:1 5461:1 5465:1 5466:1 5467:1 5468:1 5469:1 5470:1 5471:1 5472:1 5473:1 5474:1 5475:1 5476:1 5477:1 5478:1 5479:1 5480:1 5481:1 5482:1 5487:1 5493:1 5497:1 5498:1 5499:1 5500:1 5504:1 5506:1 5508:1 5509:1 5511:1 5512:1 5513:1 5514:1 5515:1 5516:1 5517:1 5518:1 5521:1 5522:1 5529:1 5531:1 5542:1 5558:1 5559:1 5560:1 5561:1 5562:1 5563:1 5564:1 5565:1 5566:1 5567:1 5570:1 5571:1 5606:1 5607:1 5608:1 5609:1 5613:1 5614:1 5615:1 5616:1 5617:1 5619:1 5620:1 5621:1 5622:1 5623:1 5624:1 5635:1 5636:1 5637:1 5650:1 5651:1 5653:1 5666:1 5667:1 5668:1 5681:1 5739:1 5745:1 5750:1 5751:1 5758:1 5759:1 5762:1 5763:1 5771:1 5795:1 5796:1 5797:1 5798:1 5800:1 5821:1 5900:1 5901:1 5902:1 5903:1 5905:1 5906:1 5908:1 5909:1 5910:1 5911:1 5914:1 5915:1 5971:1 5987:1 6149:1 6150:1 6204:1 6217:1 6218:1 6253:1 6298:1 6299:1 6324:1 6382:1 6414:1 6452:1 6453:1 6455:1 6636:1 6637:1 6719:1 6730:1 6731:1 7049:1 7050:1 7051:1 7052:1 7055:1 7098:1 7100:1 7101:1 7977:1 8197:1 8236:1 8238:1 8240:1 8242:1 8250:1 8255:1 8451:1 8452:1 8453:1 8454:1 8455:1 8549:1 8550:1 8558:1 8559:1 8569:1 8570:1 8576:1 8577:1 11287:1 11288:1 11666:1 11667:1 12443:1 12444:1 12451:1 12452:1 14446:1 14447:1 14448:1 14449:1 14450:1 14460:1 14461:1 14462:1 16426:1 16427:1 16428:1 16430:1 16438:1 16439:1 16440:1 16451:1 16463:1 16465:1 16487:1 16488:1 16498:1 16568:1 16569:1 16570:1 16740:1 16742:1 16837:1 16857:1 16858:1 16859:1 16975:1 17088:1 17483:1 17510:1 17513:1 19161:1 20467:1 20468:1 21504:1 21506:1 21507:23 21509:1 21510:1 21511:1 21512:1 21513:1 21514:1 21515:1 21516:1 21517:1 21518:1 21519:1 21520:1 21524:1 21526:1 21528:1 21529:1 21530:1 21531:1 21532:1 21533:1 21534:1 21535:1 21536:1 21537:1 21538:1 21539:1 21540:1 21544:1 21546:1 21548:1 21605:1 21606:1 21607:1 21608:1 21612:1 21625:1 21639:1 21640:1 21641:1 21694:1 21712:1 21749:1 21750:1 21751:1 21752:1 21758:1 21781:1 21782:1 21783:1 21787:1 21788:1 21795:1 21796:1 21797:1 21798:1 21808:1 21809:1 21810:1 21822:1 21826:1 21827:1 21828:1 21829:1 21830:1 21831:1 21841:1 21842:1 21843:1 21844:1 21888:1 21889:1 21890:1 21915:1 21919:1 22015:1 22016:1 22017:1 22062:1 22235:1 22236:1 22237:1 22277:1 22446:1 22447:1 22448:1 22449:1 22542:1 22543:1 22544:1 23441:1 23444:1 23578:1 23579:1 23580:1 23602:1 23603:1 23604:1 23607:1 24095:1 24096:1 24097:1 24104:1 24105:1 24106:1 24232:1 24966:1 24967:1 24968:1 25860:1 25861:1 25862:1 25863:1 28153:1 28154:1 28155:1 28156:1 28157:1 28158:1 28159:1 28160:1 28161:1 28162:1 28163:1 28164:1 28165:1 28166:1 29709:5 29711:1 29712:1 29713:1 29714:1 29715:1 29717:1 29718:1 29719:1 29721:1 29722:1 29723:1 29724:1 29725:1 29726:1 29727:1 29728:1 29729:1 29730:1 29731:1 29732:1 29733:1 29734:1 29735:1 29736:1 29737:1 29738:1 29739:1 29740:1 29741:1 29742:1 29743:1 29744:1 29745:1 29746:1 29747:1 29748:1 29749:1 29751:1 29752:1 29753:1 29754:1 29757:1 29759:1 29762:1 29763:1 29764:1 29765:1 29766:1 29767:1 29768:1 29769:1 29770:1 29778:1 29779:1 29799:1 29800:1 29802:1 29803:1 29808:1 29810:1 29811:1 29812:1 29823:1 29824:1 29825:1 29826:1 29827:1 29828:1 29871:1 29873:1 29885:1 29886:1 29897:1 29901:1 29902:1 29942:1 29962:1 29969:1 29991:1 30004:1 30008:1 30031:1 30033:1 30048:1 30072:1 30179:1 30246:1 30247:1 30249:1 30251:1 30259:1 30260:1 30309:1 30379:1 30381:1 30517:1 30587:1 30823:1 30825:1 30827:1 30842:1 30947:1 30995:1 30996:1 30997:1 31015:1 31237:1 31262:1 31673:1 32447:1 32448:1 32497:1 32501:1 32754:1 32755:1 33250:1 33906:1 34640:1 34641:1 34642:1 34643:1 34644:1 34645:1 34646:1 34647:1 34648:1 34649:1 36044:1 36048:1 36049:1 36052:1 36053:1 36054:1 36055:1 36056:1 36061:1 36062:1 36064:1 36076:1 36078:1 36091:1 36105:1 36107:1 36108:1 36111:1 36186:1 36189:1 36227:1 36253:1 36255:1 36312:1 36369:1 36500:1 36514:1 36517:1 36525:1 36553:1 36563:1 36627:1 36740:1 36836:1 36885:1 36917:1 36939:1 37128:1 37169:1 37414:1 38315:1 38658:1 39862:1 40259:1 40260:1 40261:1 40262:1 40263:1 40264:1 40265:1 40266:1 40267:1 40268:1 40269:1 40270:1 40271:1 40272:1 40273:1 40274:1 40275:1 40276:1 40277:1 40278:1 40279:1 40280:1  |EV| 
-0.0065492865952181990307767733838773 1:1 9:1 50:1 51:1 63:1 71:1 145:1 147:1 188:1 223:1 257:1 335:1 390:1 419:1 487:1 497:1 692:1 722:1 777:1 866:1 870:1 895:1 2199:1 2205:1 2207:1 2217:1 2219:1 2237:1 2238:1 2241:1 2273:1 2281:1 2296:1 2331:1 2334:1 2366:1 2367:1 2397:1 2427:1 2471:1 2492:1 2534:1 2595:1 2608:1 2694:1 2900:1 3812:1 3813:27 3814:1 3815:1 3816:1 3817:1 3820:1 3821:1 3825:1 3828:1 3829:1 3878:1 3903:1 3905:1 4035:1 4036:1 4572:1 4575:1 4613:1 4615:1 4616:1 4617:1 4618:1 4619:1 4620:1 5376:1 5382:1 5384:1 5385:1 5388:1 5390:1 5391:1 5393:1 5394:1 5395:1 5396:1 5397:1 5398:1 5401:1 5402:1 5404:1 5406:1 5407:1 5410:1 5411:1 5412:1 5413:1 5414:1 5419:1 5428:1 5429:1 5432:1 5433:1 5434:1 5435:1 5437:1 5461:1 5478:1 5483:1 5484:1 5487:1 5493:1 5495:1 5496:1 5499:1 5501:1 5502:1 5504:1 5506:1 5508:1 5509:1 5511:1 5512:1 5513:1 5515:1 5517:1 5518:1 5521:1 5522:1 5523:1 5524:1 5525:1 5529:1 5539:1 5540:1 5542:1 5543:1 5544:1 5545:1 5546:1 5548:1 5555:1 5556:1 5558:1 5572:1 5585:1 5586:1 5588:1 5590:1 5591:1 5592:1 5593:1 5595:1 5603:1 5604:1 5606:1 5607:1 5608:1 5609:1 5610:1 5611:1 5614:1 5615:1 5616:1 5617:1 5619:1 5620:1 5621:1 5622:1 5623:1 5624:1 5628:1 5631:1 5659:1 5662:1 5677:1 5711:1 5713:1 5714:1 5715:1 5716:1 5723:1 5724:1 5750:1 5751:1 5758:1 5759:1 5762:1 5763:1 5764:1 5767:1 5796:1 5797:1 5800:1 5810:1 5811:1 5813:1 5839:1 5840:1 5842:1 5844:1 5845:1 5846:1 5847:1 5848:1 5849:1 5850:1 5851:1 5852:1 5853:1 5854:1 5855:1 5856:1 5934:1 5979:1 5980:1 5987:1 6002:1 6029:1 6037:1 6038:1 6065:1 6066:1 6069:1 6070:1 6074:1 6075:1 6081:1 6082:1 6083:1 6087:1 6088:1 6189:1 6190:1 6211:1 6212:1 6217:1 6268:1 6275:1 6318:1 6324:1 6346:1 6347:1 6366:1 6399:1 6414:1 7039:1 7331:1 7332:1 7343:1 7344:1 7618:1 7619:1 8029:1 8030:1 8069:1 8070:1 8335:1 8336:1 8349:1 8741:1 8742:1 8743:1 8744:1 8753:1 8754:1 9297:1 9312:1 9313:1 9314:1 9315:1 9482:1 9483:1 9747:1 9748:1 9994:1 10032:1 10039:1 10158:1 10159:1 10160:1 10161:1 10162:1 10163:1 16430:1 16433:1 16434:1 16435:1 16436:1 16437:1 16493:1 16498:1 16499:1 16538:1 16539:1 16540:1 16596:1 16642:1 16695:1 16747:1 16770:1 16812:1 16936:1 16937:1 16953:1 17169:1 17170:1 17171:1 17479:1 17480:1 17481:1 17538:1 18349:1 18363:1 18405:1 18406:1 18416:1 18417:1 18418:1 18419:1 18420:1 18421:1 18422:1 18423:1 18424:1 18425:1 21504:1 21506:1 21507:6 21520:1 21524:1 21526:1 21528:1 21540:1 21544:1 21546:1 21548:1 21639:1 21640:1 21641:1 21826:1 21827:1 21828:1 21829:1 21830:1 21831:1 21888:1 21889:1 21890:1 21938:1 21939:1 21940:1 21959:1 21960:1 21961:1 22240:1 22252:1 22548:1 22549:1 22573:1 22574:1 23402:1 23403:1 24650:1 24651:1 29709:2 29712:1 29713:1 29717:1 29718:1 29719:1 29720:1 29736:1 29738:1 29739:1 29747:1 29748:1 29749:1 29751:1 29769:1 29770:1 29794:1 29811:1 29812:1 29815:1 29817:1 29819:1 29821:1 29825:1 29834:1 29890:1 29891:1 29911:1 29913:1 29915:1 29947:1 29957:1 30023:1 30025:1 30429:1 30499:1 30735:1 30739:1 30740:1 31061:1 31065:1 31067:1 31723:1 31786:1 31787:1 31788:1 31789:1 36044:1 36047:1 36061:1 36062:1 36064:1 36067:1 36068:1 36105:1 36107:1 36108:1 36110:1 36331:1 36361:1 36438:1 36572:1 37748:1 37790:1 37807:1 37808:1  |EV| 
0.0048831851509936550354007422924951 2:1 9:1 44:1 63:1 100:1 110:1 192:1 264:1 335:1 499:1 722:1 990:1 1111:1 1112:1 1114:1 1118:1 1126:1 2199:1 2204:1 2213:1 2217:1 2227:1 2232:1 2234:1 2273:1 2293:1 2367:1 2431:1 2471:1 2492:1 2616:1 2706:1 2987:1 3079:1 3081:1 3812:2 3813:17 3814:1 3815:1 3816:1 3817:1 3821:1 3824:1 3825:1 3828:1 3829:1 3834:1 3840:1 3842:1 4105:1 4106:1 4571:1 4573:1 4574:1 4610:1 4611:1 4612:1 4613:1 4614:1 4615:1 4616:1 4617:1 4618:1 4619:1 4620:1 4757:1 4928:1 4929:1 5376:1 5381:1 5382:1 5388:1 5393:1 5394:1 5395:1 5397:1 5398:1 5400:1 5418:1 5419:1 5420:1 5421:1 5424:1 5425:1 5427:1 5428:1 5429:1 5432:1 5433:1 5434:1 5435:1 5437:1 5439:1 5442:1 5447:1 5474:1 5475:1 5477:1 5478:1 5479:1 5480:1 5482:1 5483:1 5484:1 5487:1 5493:1 5495:1 5496:1 5498:1 5499:1 5501:1 5502:1 5504:1 5505:1 5506:1 5507:1 5508:1 5512:1 5514:1 5515:1 5516:1 5517:1 5521:1 5522:1 5523:1 5524:1 5525:1 5529:1 5530:1 5531:1 5532:1 5539:1 5540:1 5542:1 5543:1 5544:1 5545:1 5546:1 5548:1 5572:1 5585:1 5586:1 5588:1 5590:1 5591:1 5592:1 5593:1 5606:1 5613:1 5614:1 5615:1 5616:1 5617:1 5619:1 5620:1 5621:1 5622:1 5623:1 5624:1 5631:1 5645:1 5647:1 5659:1 5662:1 5711:1 5713:1 5714:1 5715:1 5716:1 5756:1 5757:1 5764:1 5767:1 5768:1 5771:1 5772:1 5792:1 5795:1 5798:1 5800:1 5810:1 5811:1 5821:1 5848:1 5849:1 5851:1 5853:1 5854:1 5855:1 5856:1 5863:1 5869:1 5871:1 5873:1 5874:1 5900:1 5901:1 5903:1 5905:1 5906:1 5908:1 5909:1 5910:1 5911:1 5914:1 5915:1 5916:1 5919:1 5921:1 6007:1 6008:1 6012:1 6017:1 6029:1 6039:1 6040:1 6047:1 6048:1 6052:1 6055:1 6056:1 6074:1 6085:1 6204:1 6205:1 6206:1 6219:1 6229:1 6243:1 6244:1 6249:1 6250:1 6275:1 6279:1 6280:1 6322:1 6372:1 6397:1 6419:1 6421:1 6495:1 6498:1 6502:1 6503:1 6506:1 6606:1 6609:1 6694:1 6702:1 6786:1 6787:1 6788:1 6789:1 6794:1 6795:1 6798:1 6799:1 6924:1 7049:1 7069:1 7073:1 7191:1 7194:1 7311:1 7312:1 7359:1 7360:1 7393:1 7394:1 7489:1 7490:1 8179:1 8180:1 8211:1 8212:1 8640:1 8642:1 8755:1 8756:1 8843:1 8844:1 8846:1 8847:1 10162:1 10163:1 10825:1 10826:1 11306:1 11307:1 11319:1 11329:1 11350:1 11367:1 11423:1 11424:1 11425:1 11426:1 11427:1 11428:1 11429:1 11430:1 11431:1 11432:1 16427:1 16428:1 16429:1 16430:1 16431:1 16451:1 16460:1 16463:1 16464:1 16466:1 16487:1 16505:1 16506:1 16507:1 16553:1 16578:1 16579:1 16585:1 16854:1 17146:1 17147:1 17151:1 17164:1 18623:1 18624:1 18625:1 18725:1 18726:1 18729:1 18730:1 18850:1 18851:1 18965:1 18968:1 19014:1 19015:1 21505:1 21506:1 21507:9 21530:1 21532:1 21536:1 21540:1 21548:1 21564:1 21582:1 21583:1 21584:1 21585:1 21586:1 21590:1 21591:1 21592:1 21593:1 21594:1 21608:1 21626:1 21627:1 21628:1 21632:1 21633:1 21634:1 21635:1 21760:1 21764:1 21765:1 21766:1 21767:1 21781:1 21782:1 21783:1 21871:1 21877:1 21878:1 21950:1 21951:1 21952:1 21971:1 21972:1 21973:1 22311:1 22312:1 22483:1 23805:1 24396:1 25201:1 25203:1 25212:1 25214:1 25573:1 25574:1 25578:1 25579:1 25656:1 25657:1 25658:1 25659:1 29709:2 29711:1 29712:1 29713:1 29714:1 29715:1 29717:1 29718:1 29719:1 29728:1 29736:1 29738:1 29739:1 29740:1 29741:1 29744:1 29745:1 29747:1 29748:1 29749:1 29751:1 29759:1 29769:1 29770:1 29793:1 29799:1 29800:1 29811:1 29817:1 29819:1 29821:1 29823:1 29825:1 29826:1 29828:1 29829:1 29834:1 29835:1 29838:1 29841:1 29845:1 29847:1 29848:1 29850:1 29874:1 29884:1 29911:1 29913:1 29915:1 29942:1 29957:1 30024:1 30185:1 30309:1 30315:1 30375:1 30499:1 30845:1 32464:1 32465:1 32466:1 32470:1 32556:1 32557:1 32558:1 32559:1 32560:1 32561:1 36044:1 36047:1 36052:1 36067:1 36078:1 36099:1 36102:1 36110:1 36111:1 36198:1 36227:1 36228:1 36312:1 36314:1 36316:1 36476:1 36478:1 36480:1 36599:1 36601:1 37076:1 38346:1 38363:1 38371:1 38417:1 38418:1 38419:1 38420:1 38421:1  |EV| 
-0.0040472119426840915887289007457639 2:1 10:1 98:1 101:1 126:1 130:1 136:1 137:1 138:1 298:1 302:1 353:1 477:1 577:1 1131:1 1132:1 1731:1 1903:1 2036:1 2039:1 2200:1 2213:1 2229:1 2230:1 2291:1 2294:1 2313:1 2317:1 2322:1 2323:1 2461:1 2465:1 2509:1 2600:1 2637:1 2675:1 3090:1 3262:1 3711:1 3812:2 3813:18 3814:1 3815:2 3816:1 3824:1 3825:1 3828:1 3829:1 3830:1 3834:1 4121:1 4122:1 4502:1 4503:1 4571:1 4573:1 4775:1 4956:1 4957:1 5038:1 5138:1 5323:1 5376:1 5382:1 5387:1 5388:1 5400:1 5401:1 5402:1 5404:1 5406:1 5407:1 5418:1 5419:1 5420:1 5421:1 5427:1 5431:1 5432:1 5434:1 5436:1 5437:1 5438:1 5465:1 5466:1 5470:1 5471:1 5483:1 5484:1 5486:1 5487:1 5493:1 5495:1 5496:1 5498:1 5499:1 5501:1 5502:1 5504:1 5505:1 5506:1 5507:1 5511:1 5512:1 5515:1 5517:1 5521:1 5522:1 5523:1 5524:1 5525:1 5526:1 5527:1 5529:1 5530:1 5531:1 5532:1 5533:1 5534:1 5535:1 5536:1 5538:1 5539:1 5540:1 5542:1 5543:1 5544:1 5545:1 5546:1 5547:1 5548:1 5549:1 5555:1 5556:1 5576:1 5581:1 5585:1 5586:1 5587:1 5588:1 5589:1 5590:1 5591:1 5592:1 5593:1 5607:1 5613:1 5614:1 5615:1 5616:1 5617:1 5619:1 5620:1 5621:1 5622:1 5623:1 5624:1 5656:1 5657:1 5670:1 5672:1 5673:1 5674:1 5675:1 5676:1 5677:1 5678:1 5679:1 5680:1 5694:1 5698:1 5768:1 5771:1 5772:1 5795:1 5796:1 5798:1 5800:1 5900:1 5901:1 5902:1 5903:1 5905:1 5906:1 5908:1 5909:1 5910:1 5911:1 5914:1 5915:1 5925:1 5977:1 5978:1 5990:1 5991:1 5993:1 5994:1 5995:1 5997:1 5999:1 6000:1 6002:1 6003:1 6004:1 6051:1 6052:1 6055:1 6056:1 6108:1 6217:1 6310:1 6324:1 6360:1 6361:1 6362:1 6363:1 6364:1 6365:1 6366:1 6367:1 6370:1 6371:1 6403:1 6405:1 6406:1 6407:1 6408:1 6495:1 6498:1 6556:1 6557:1 6686:1 6703:1 6716:1 6790:1 6909:1 6910:1 7116:1 7117:1 7119:1 7121:1 7122:1 7228:1 7231:1 7233:1 7292:1 7294:1 7295:1 7296:1 7305:1 7306:1 7462:1 7467:1 7468:1 7693:1 8204:1 8210:1 8316:1 8317:1 8318:1 8540:1 8541:1 8640:1 8642:1 8761:1 8809:1 9094:1 9095:1 9111:1 9112:1 9557:1 9558:1 9569:1 9570:1 10246:1 10247:1 10368:1 10775:1 10776:1 10777:1 10780:1 10781:1 10951:1 11467:1 11470:1 12465:1 12466:1 12478:1 12769:1 14071:1 14072:1 14084:1 14085:1 14086:1 15452:1 15453:1 15454:1 15458:1 15459:1 15460:1 15461:1 15462:1 15463:1 15464:1 15465:1 15466:1 15467:1 15468:1 15469:1 16430:1 16453:1 16454:1 16455:1 16465:1 16498:1 16517:1 16518:1 16519:1 16550:1 16563:1 16596:1 16657:1 16857:1 16988:1 17038:1 17071:1 17072:1 17073:1 17451:1 17452:1 17503:1 17547:1 17548:1 17681:1 17688:1 17700:1 19187:1 19316:1 20378:1 20947:1 20948:1 20949:1 20950:1 20953:1 20954:1 20955:1 20956:1 20957:1 21505:1 21506:1 21507:8 21532:1 21546:1 21548:1 21561:1 21563:1 21564:1 21569:1 21570:1 21571:1 21575:1 21582:1 21605:1 21607:1 21608:1 21613:1 21614:1 21615:1 21619:1 21739:1 21741:1 21758:1 21764:1 22151:1 22152:1 22159:1 22160:1 22186:1 22187:1 22869:1 22870:1 22871:1 23434:1 23435:1 23436:1 23474:1 23475:1 24084:1 24085:1 24086:1 24405:1 24406:1 24407:1 27819:1 27820:1 27823:1 27824:1 29709:2 29711:1 29712:1 29713:1 29714:1 29715:1 29717:1 29718:1 29719:1 29728:1 29735:1 29736:1 29737:1 29738:1 29739:1 29740:1 29741:1 29743:1 29744:1 29745:1 29747:1 29748:1 29749:1 29751:1 29762:1 29769:1 29770:1 29792:1 29793:1 29794:1 29796:1 29799:1 29800:1 29822:1 29823:1 29826:1 29828:1 29829:1 29834:1 29835:1 29860:1 29864:1 29886:1 29889:1 29890:1 30027:1 30028:1 30029:1 30034:1 30179:1 30276:1 30278:1 30379:1 30417:1 31100:1 31262:1 31263:1 32597:1 33269:1 35355:1 35368:1 35369:1 35370:1 35371:1 35372:1 35373:1 35374:1 36044:1 36047:1 36052:1 36078:1 36087:1 36091:1 36168:1 36169:1 36170:1 36193:1 36224:1 36312:1 36491:1 36534:1 36679:1 36820:1 37803:1 37927:1 38320:1 40013:1 40014:1 40015:1 40899:1 40900:1 40901:1 40902:1  |EV| 
-0.011889864808824306130485837229571 2:1 10:1 21:1 31:1 33:1 98:1 101:1 119:1 137:1 223:1 226:1 417:1 443:1 508:1 587:1 1367:1 1371:1 1657:1 1661:1 2200:1 2203:1 2204:1 2213:1 2214:1 2216:1 2291:1 2294:1 2308:1 2322:1 2397:1 2555:1 2574:1 2623:1 3261:1 3453:1 3812:2 3813:15 3814:1 3815:2 3816:1 3823:1 3824:1 3825:1 3827:1 3828:1 3829:1 3830:1 3834:1 4215:1 4217:1 4571:1 4580:1 4581:1 4582:1 4583:1 4584:1 4585:1 4586:1 4587:1 4588:1 4589:1 4590:1 4591:1 4592:1 4695:1 4734:1 4871:1 4872:1 5066:1 5376:1 5381:1 5382:1 5388:1 5390:1 5391:1 5393:1 5394:1 5395:1 5396:1 5397:1 5398:1 5400:1 5418:1 5419:1 5420:1 5421:1 5430:1 5431:1 5437:1 5444:1 5445:1 5447:1 5448:1 5449:1 5450:1 5451:1 5452:1 5453:1 5454:1 5455:1 5456:1 5459:1 5460:1 5465:1 5466:1 5470:1 5471:1 5487:1 5492:1 5493:1 5499:1 5501:1 5502:1 5504:1 5505:1 5506:1 5507:1 5508:1 5509:1 5511:1 5529:1 5530:1 5531:1 5532:1 5541:1 5542:1 5548:1 5555:1 5556:1 5558:1 5559:1 5560:1 5561:1 5562:1 5563:1 5564:1 5565:1 5566:1 5567:1 5570:1 5571:1 5576:1 5577:1 5581:1 5582:1 5595:1 5603:1 5604:1 5606:1 5607:1 5608:1 5609:1 5610:1 5611:1 5613:1 5614:1 5615:1 5616:1 5617:1 5619:1 5620:1 5621:1 5622:1 5623:1 5624:1 5646:1 5650:1 5651:1 5677:1 5681:1 5682:1 5687:1 5689:1 5690:1 5692:1 5693:1 5694:1 5695:1 5696:1 5697:1 5698:1 5699:1 5700:1 5701:1 5734:1 5735:1 5742:1 5745:1 5750:1 5751:1 5752:1 5753:1 5754:1 5755:1 5756:1 5757:1 5758:1 5759:1 5760:1 5761:1 5762:1 5763:1 5768:1 5769:1 5772:1 5773:1 5813:1 5815:1 5816:1 5821:1 5833:1 5834:1 5837:1 5838:1 5860:1 5881:1 5925:1 5950:1 5951:1 5990:1 5991:1 5994:1 5995:1 5996:1 5997:1 5998:1 6025:1 6026:1 6051:1 6074:1 6075:1 6108:1 6230:1 6231:1 6241:1 6242:1 6313:1 6314:1 6315:1 6316:1 6317:1 6318:1 6319:1 6320:1 6321:1 6365:1 6366:1 6367:1 6388:1 6389:1 6393:1 6394:1 6396:1 6496:1 6497:1 6546:1 6547:1 6933:1 6934:1 6990:1 7015:1 7022:1 7026:1 7027:1 7033:1 7560:1 7586:1 7587:1 8027:1 8028:1 8067:1 8068:1 8159:1 8170:1 8172:1 8467:1 8468:1 8504:1 8505:1 9505:1 9562:1 9563:1 10252:1 10255:1 10743:1 10744:1 12462:1 12479:1 13752:1 13758:1 13766:1 13767:1 13768:1 13769:1 16433:1 16434:1 16435:1 16436:1 16437:1 16456:1 16457:1 16458:1 16463:1 16464:1 16465:1 16466:1 16467:1 16471:1 16472:1 16473:1 16512:1 16653:1 16654:1 16655:1 16779:1 16780:1 16781:1 16851:1 16852:1 16853:1 17471:1 17472:1 17543:1 17544:1 17545:1 17792:1 18141:1 18142:1 18281:1 18662:1 21505:1 21506:1 21507:6 21546:1 21548:1 21557:1 21558:1 21559:1 21560:1 21564:1 21582:1 21608:1 21739:1 21765:1 21766:1 21767:1 21781:1 21782:1 21783:1 22078:1 22079:1 22080:1 22081:1 22393:1 22394:1 22743:1 22744:1 22745:1 22746:1 23352:1 23353:1 23354:1 23355:1 23723:1 23724:1 23776:1 23777:1 23778:1 23779:1 25206:1 25215:1 29709:2 29711:1 29712:1 29713:1 29714:1 29715:1 29716:1 29717:1 29718:1 29719:1 29720:1 29728:1 29729:1 29736:1 29738:1 29739:1 29740:1 29741:1 29744:1 29745:1 29748:1 29749:1 29751:1 29752:1 29753:1 29754:1 29757:1 29762:1 29794:1 29811:1 29812:1 29813:1 29815:1 29822:1 29825:1 29834:1 29860:1 29864:1 29885:1 29886:1 29888:1 29962:1 29965:1 29969:1 31859:1 31861:1 31862:1 33253:1 34154:1 34168:1 34169:1 34170:1 34171:1 36044:1 36047:1 36071:1 36072:1 36075:1 36076:1 36078:1 36091:1 36166:1 36227:1 36312:1 36364:1 36660:1 36927:1 37185:1 37461:1 37462:1 37581:1 39849:1 39850:1  |EV| 
0.0094771321008555470949419330395358 7:1 9:1 23:1 31:1 33:1 38:1 49:1 124:1 125:1 130:1 139:1 145:1 146:1 163:1 173:1 205:1 360:1 595:1 601:1 687:1 698:1 714:1 716:1 786:1 848:1 1108:1 1228:1 1229:1 1233:1 1239:1 1240:1 1241:1 1242:1 1243:1 1244:1 1245:1 1246:1 1247:1 1248:1 1249:1 1250:1 1251:4 2200:1 2201:1 2204:1 2205:1 2206:1 2213:1 2214:1 2216:1 2217:1 2232:1 2236:1 2260:1 2278:1 2282:1 2284:1 2294:1 2311:1 2312:1 2317:1 2324:1 2330:1 2344:1 2354:1 2375:1 2379:1 2383:1 2385:1 2411:1 2696:1 2776:1 2788:1 2843:1 2941:1 3083:1 3159:1 3160:1 3161:1 3168:1 3169:1 3170:1 3171:1 3172:1 3173:1 3174:1 3175:1 3176:1 3177:1 3812:6 3813:73 3814:1 3815:1 3816:1 3821:1 3824:1 3825:1 3828:1 3829:1 3976:1 3978:1 4168:1 4169:1 4172:1 4571:1 4572:1 4573:1 4574:1 4766:1 4767:1 4768:1 5016:1 5017:1 5018:1 5376:1 5382:1 5388:1 5393:1 5394:1 5395:1 5396:1 5397:1 5398:1 5400:1 5418:1 5419:1 5420:1 5421:1 5428:1 5429:1 5432:1 5433:1 5434:1 5435:1 5437:1 5447:1 5483:1 5484:1 5487:1 5493:1 5499:1 5504:1 5505:1 5506:1 5507:1 5508:1 5529:1 5530:1 5531:1 5532:1 5533:1 5539:1 5540:1 5542:1 5543:1 5544:1 5545:1 5546:1 5547:1 5548:1 5549:1 5585:1 5586:1 5587:1 5588:1 5589:1 5590:1 5591:1 5592:1 5593:1 5606:1 5608:1 5613:1 5614:1 5615:1 5616:1 5617:1 5619:1 5620:1 5621:1 5622:1 5623:1 5624:1 5646:1 5677:1 5742:1 5745:1 5750:1 5758:1 5762:1 5771:1 5792:1 5810:1 5811:1 5813:1 5815:1 5816:1 5818:1 5827:1 5828:1 5833:1 5834:1 5837:1 5838:1 5848:1 5849:1 5851:1 5853:1 5854:1 5855:1 5856:1 5860:1 5881:1 5890:1 5891:1 5894:1 5895:1 5956:1 6065:1 6066:1 6069:1 6070:1 6108:1 6145:1 6146:1 6155:1 6156:1 6262:1 6295:1 6318:1 6346:1 6363:1 6366:1 6388:1 6389:1 6393:1 6394:1 6396:1 6546:1 6675:1 6676:1 6694:1 6695:1 6730:1 6933:1 6934:1 6942:1 6943:1 6944:1 6945:1 7032:1 7228:1 7231:1 7233:1 7274:1 7275:1 7278:1 7279:1 7280:1 7283:1 7723:1 7775:1 7776:1 8145:1 8146:1 8153:1 8154:1 9369:1 9375:1 9389:1 10246:1 10247:1 11807:1 11849:1 11862:1 11875:1 11922:1 11930:1 11931:1 11932:1 11933:1 11934:1 11935:1 11936:1 11937:1 11938:1 11939:1 11940:1 11941:1 11942:1 11943:1 11944:1 11945:1 11946:1 11977:1 11978:1 11979:1 11980:1 11981:1 11982:1 11983:1 11984:1 11985:1 16460:1 16553:1 16568:1 16569:1 16570:1 16601:1 16602:1 16603:1 16717:1 16757:1 16758:1 16765:1 17214:1 17575:1 18149:1 18281:1 18439:1 18440:1 19261:1 19262:1 19266:1 19267:1 19268:1 19271:1 19272:1 19273:1 19274:1 19277:1 19278:1 19289:1 19290:1 19291:1 19292:1 19293:1 19294:1 19295:1 21505:1 21507:4 21508:1 21540:1 21575:1 21594:1 21619:1 25085:1 25098:1 26143:1 26144:1 26145:1 26146:1 26147:1 26148:1 26149:1 26150:1 26151:1 26152:1 26153:1 26154:1 26155:1 26156:1 26157:1 26158:1 26159:1 26160:1 29709:2 29711:1 29712:1 29713:1 29714:1 29715:1 29717:1 29718:1 29719:1 29728:1 29731:1 29736:1 29738:1 29739:1 29740:1 29741:1 29747:1 29748:1 29749:1 29751:1 29769:1 29770:1 29794:1 29799:1 29800:1 29810:1 29811:1 29812:1 29813:1 29814:1 29815:1 29823:1 29825:1 29826:1 29828:1 29829:1 29834:1 29835:1 29838:1 29841:1 29847:1 29911:1 30199:1 30200:1 30202:1 30249:1 30251:1 30821:1 30822:1 30826:1 30881:1 30882:1 30903:1 30904:1 31396:1 31402:1 32347:1 32349:1 32350:1 32849:1 32946:1 32947:1 32953:1 32954:1 32955:1 32956:1 36044:1 36047:1 36110:1 36111:1 36284:1 36590:1 36687:1 37042:1 38814:1 38815:1 38816:1 38817:1 38818:1 38819:1  |EV| 
0.0030426651799699278022615089867031 4:1 10:1 31:1 33:1 50:1 104:1 142:1 163:1 174:1 206:1 285:1 298:1 311:1 318:1 366:1 375:1 399:1 404:1 428:1 514:1 605:1 630:1 714:1 716:2 719:1 724:1 858:1 897:1 1046:1 1063:1 1065:1 1157:1 1398:1 1631:1 1632:1 1635:1 1643:1 1644:1 1645:1 1646:1 1647:1 1648:1 1649:1 1650:1 1651:1 1652:3 2201:1 2204:1 2214:1 2216:1 2217:1 2219:1 2234:1 2237:1 2252:1 2258:1 2284:1 2297:1 2327:1 2344:1 2355:1 2380:1 2437:1 2450:1 2461:1 2466:1 2471:1 2477:1 2498:1 2501:1 2518:1 2524:1 2540:1 2562:1 2635:1 2700:1 2723:1 2767:1 2788:1 2790:1 2792:1 2794:1 2921:1 3040:1 3042:1 3208:1 3436:1 3437:1 3439:1 3445:1 3446:1 3447:1 3448:1 3449:1 3450:1 3812:3 3813:87 3814:1 3815:2 3816:1 3818:1 3824:1 3825:1 3828:1 3829:1 3830:1 3872:1 3976:1 3978:1 4348:1 4349:1 4571:1 4573:1 4574:1 4740:1 4766:1 4767:1 4768:1 5200:1 5201:1 5376:1 5382:1 5388:1 5390:1 5391:1 5393:1 5394:1 5418:1 5419:1 5420:1 5421:1 5427:1 5428:1 5429:1 5432:1 5433:1 5434:1 5435:1 5437:1 5461:1 5483:1 5484:1 5487:1 5493:1 5499:1 5504:1 5505:1 5506:1 5507:1 5511:1 5521:1 5522:1 5523:1 5524:1 5525:1 5529:1 5531:1 5538:1 5539:1 5540:1 5542:1 5543:1 5544:1 5545:1 5546:1 5550:1 5553:1 5585:1 5586:1 5590:1 5591:1 5592:1 5593:1 5613:1 5614:1 5615:1 5616:1 5617:1 5619:1 5620:1 5621:1 5622:1 5623:1 5624:1 5745:1 5771:1 5796:1 5810:1 5811:1 5813:1 5846:1 5847:1 5848:1 5849:1 5850:1 5851:1 5852:1 5853:1 5854:1 5855:1 5856:1 5936:1 5937:1 5979:1 5980:1 5987:1 6034:1 6035:1 6036:1 6108:1 6154:1 6366:1 6382:1 6415:1 6416:1 6444:1 6546:1 6547:1 6653:1 6694:1 6716:1 6730:1 7005:1 7032:1 7564:1 7565:1 7893:1 7894:1 7977:1 7978:1 8093:1 8995:1 9375:1 9389:1 9527:1 9574:1 9575:1 9576:1 9926:1 9927:1 12151:1 13265:1 13685:1 13686:1 13687:1 13688:1 13689:1 13690:1 13691:1 13692:1 13693:1 13698:1 13699:1 13700:1 16428:1 16460:1 16463:1 16465:1 16498:1 16500:1 16501:1 16512:1 16576:1 16617:1 16630:1 16631:1 16636:1 16637:1 16741:1 16851:1 16852:1 16857:1 16869:1 17343:1 17344:1 17345:1 17499:1 17500:1 17501:1 18108:1 18133:1 18134:1 18135:1 18179:1 18180:1 20120:1 20122:1 20123:1 20124:1 20125:1 21504:1 21507:4 21508:1 21510:1 21512:1 21530:1 21532:1 21605:1 21607:1 21742:1 21743:1 21744:1 21745:1 21758:1 21808:1 21809:1 21810:1 21861:1 21862:1 21863:1 21864:1 26332:1 26333:1 26350:1 26351:1 29709:2 29711:1 29712:1 29713:1 29714:1 29715:1 29717:1 29718:1 29719:1 29728:1 29736:1 29738:1 29739:1 29740:1 29741:1 29744:1 29745:1 29747:1 29748:1 29769:1 29770:1 29799:1 29800:1 29811:1 29823:1 29825:1 29826:1 29828:1 29829:1 29834:1 29835:1 30035:1 30135:1 30466:1 30468:1 31396:1 31527:1 33839:1 34099:1 36044:1 36047:1 36073:1 36111:1 36146:1 36165:1 36205:1 36242:1 36398:1 37433:1 39796:1 39797:1 39798:1 39799:1  |EV| 
0.0056947325317732505264856079918445 1:1 12:1 19:1 21:1 31:1 33:1 37:1 71:1 93:1 100:1 110:2 119:1 138:1 145:1 146:1 153:1 163:1 205:1 223:1 226:1 252:1 507:1 629:1 640:1 664:1 725:1 772:1 775:1 1396:1 1469:1 1470:1 1471:1 1472:1 1473:1 1474:1 1475:1 1476:1 2199:1 2200:1 2201:1 2203:1 2204:1 2205:1 2207:1 2211:1 2213:1 2214:1 2216:1 2217:1 2219:1 2222:1 2229:1 2230:1 2233:1 2284:1 2286:1 2293:1 2308:1 2318:1 2323:1 2330:1 2336:1 2344:1 2379:1 2397:1 2420:1 2440:1 2622:1 2637:1 2643:1 2722:1 2830:1 3083:1 3323:1 3324:1 3325:1 3326:1 3327:1 3812:1 3813:48 3814:1 3815:6 3816:1 3817:1 3820:1 3824:1 3825:1 3828:1 3829:1 3929:1 3994:1 3995:1 4267:1 4269:1 4571:1 4573:1 4574:1 4610:1 4774:1 4791:1 4792:1 4793:1 4794:1 4795:1 4796:1 4797:1 5120:1 5130:1 5131:1 5372:1 5373:1 5374:1 5375:1 5376:1 5377:1 5381:1 5382:1 5384:1 5385:1 5386:1 5387:1 5388:1 5389:1 5390:1 5391:1 5393:1 5395:1 5397:1 5400:1 5401:1 5403:1 5404:1 5405:1 5406:1 5410:1 5411:1 5412:1 5413:1 5414:1 5415:1 5416:1 5418:1 5419:1 5420:1 5421:1 5422:1 5423:1 5428:1 5429:1 5431:1 5432:1 5433:1 5434:1 5435:1 5436:1 5437:1 5438:1 5439:1 5440:1 5442:1 5444:1 5445:1 5447:1 5448:1 5449:1 5450:1 5451:1 5452:1 5453:1 5454:1 5455:1 5456:1 5459:1 5460:1 5461:1 5462:1 5487:1 5493:1 5499:1 5504:1 5508:1 5509:1 5511:1 5521:1 5529:1 5531:1 5541:1 5542:1 5559:1 5560:1 5561:1 5562:1 5563:1 5564:1 5565:1 5566:1 5567:1 5570:1 5571:1 5606:1 5607:1 5613:1 5614:1 5615:1 5616:1 5617:1 5619:1 5620:1 5621:1 5622:1 5623:1 5624:1 5625:1 5626:1 5635:1 5636:1 5637:1 5638:1 5639:1 5640:1 5641:1 5642:1 5643:1 5644:1 5645:1 5646:1 5647:1 5648:1 5649:1 5677:1 5684:1 5739:1 5750:1 5751:1 5758:1 5759:1 5760:1 5761:1 5762:1 5763:1 5768:1 5769:1 5771:1 5772:1 5773:1 5774:1 5775:1 5777:1 5778:1 5779:1 5780:1 5781:1 5782:1 5783:1 5784:1 5936:1 5993:1 6094:1 6101:1 6105:1 6107:1 6108:1 6109:1 6149:1 6150:1 6152:1 6217:1 6249:1 6250:1 6253:1 6298:1 6299:1 6318:1 6324:1 6372:1 6444:1 6496:1 6546:1 6547:1 6548:1 6549:1 6574:1 6575:1 6626:1 6627:1 6636:1 6637:1 6761:1 6762:1 6765:1 6878:1 6879:1 6880:1 7015:1 7022:1 7119:1 7246:1 7247:1 7723:1 8025:1 8481:1 8484:1 8485:1 8486:1 8887:1 8888:1 9027:1 9028:1 9181:1 9182:1 9582:1 9584:1 9911:1 9912:1 10935:1 10936:1 10944:1 10945:1 11257:1 11258:1 12617:1 12618:1 12619:1 12620:1 12973:1 12974:1 12975:1 12976:1 12977:1 12978:1 12979:1 12980:1 12981:1 12982:1 12999:1 16459:1 16460:1 16461:1 16474:1 16475:1 16476:1 16493:1 16494:1 16495:1 16496:1 16497:1 16518:1 16660:1 16737:1 16837:1 16858:1 16859:1 17040:1 17041:1 17303:1 17304:1 17401:1 17402:1 17519:1 17520:1 17521:1 17709:1 17711:1 17763:1 18056:1 19394:1 19796:1 19797:1 19798:1 19799:1 19801:1 19802:1 19807:1 19808:1 21504:1 21506:1 21507:30 21513:1 21514:1 21515:1 21516:1 21517:1 21518:1 21519:1 21520:1 21524:1 21526:1 21528:1 21533:1 21534:1 21535:1 21536:1 21537:1 21538:1 21539:1 21540:1 21544:1 21546:1 21548:1 21549:1 21550:1 21551:1 21552:1 21553:1 21554:1 21555:1 21556:1 21557:1 21558:1 21559:1 21560:1 21605:1 21606:1 21607:1 21608:1 21612:1 21613:1 21614:1 21615:1 21616:1 21617:1 21618:1 21619:1 21781:1 21782:1 21783:1 21808:1 21809:1 21829:1 21830:1 21831:1 21841:1 21842:1 21843:1 21844:1 21850:1 21851:1 21852:1 21853:1 21857:1 21888:1 21889:1 21890:1 21906:1 21915:1 21919:1 22015:1 22016:1 22017:1 22021:1 22022:1 22023:1 22062:1 22086:1 22087:1 22091:1 22093:1 22126:1 22127:1 22128:1 22132:1 22134:1 22163:1 22235:1 22236:1 22237:1 22277:1 22389:1 22390:1 22393:1 22394:1 22635:1 22658:1 22659:1 22660:1 22661:1 22690:1 22691:1 22692:1 22693:1 22713:1 22714:1 22715:1 22716:1 22743:1 22744:1 22745:1 22746:1 23108:1 23109:1 23110:1 23511:1 23512:1 23583:1 23686:1 23687:1 23688:1 23743:1 23744:1 23745:1 23757:1 23758:1 23759:1 23913:1 23914:1 23915:1 23928:1 23929:1 23930:1 23960:1 23961:1 23962:1 24075:1 24076:1 24077:1 24084:1 24085:1 24086:1 24965:1 25424:1 25425:1 25551:1 25552:1 27010:1 27011:1 27012:1 27013:1 27014:1 27015:1 27016:1 27017:1 27018:1 27019:1 27020:1 27021:1 27022:1 27023:1 27024:1 27025:1 27026:1 27027:1 27028:1 27029:1 29709:6 29711:1 29712:1 29713:1 29714:1 29715:1 29717:1 29718:1 29719:1 29721:1 29722:1 29723:1 29724:1 29725:1 29726:1 29727:1 29728:1 29729:1 29730:1 29731:1 29732:1 29734:1 29735:1 29736:1 29737:1 29738:1 29739:1 29740:1 29741:1 29742:1 29743:1 29744:1 29745:1 29747:1 29748:1 29749:1 29750:1 29751:1 29752:1 29753:1 29754:1 29755:1 29756:1 29757:1 29759:1 29761:1 29762:1 29763:1 29764:1 29767:1 29768:1 29769:1 29770:1 29771:1 29777:1 29778:1 29779:1 29782:1 29783:1 29786:1 29787:1 29792:1 29793:1 29794:1 29795:1 29796:1 29799:1 29800:1 29802:1 29803:1 29808:1 29810:1 29811:1 29812:1 29813:1 29814:1 29815:1 29822:1 29823:1 29824:1 29825:1 29826:1 29827:1 29828:1 29829:1 29897:1 29901:1 29902:1 29918:1 29962:1 29965:1 29969:1 29975:1 29997:1 30004:1 30006:1 30008:1 30031:1 30048:1 30053:1 30059:1 30061:1 30072:1 30078:1 30079:1 30115:1 30179:1 30193:1 30276:1 30278:1 30280:1 30329:1 30379:1 30392:1 30393:1 30394:1 30396:1 30408:1 30517:1 30587:1 30628:1 30638:1 30639:1 30640:1 30641:1 30683:1 30719:1 30825:1 30919:1 31004:1 31100:1 31159:1 31205:1 31228:1 31287:1 31421:1 31510:1 31696:1 31697:1 31818:1 31819:1 31956:1 31976:1 32272:1 32273:1 32405:1 33112:1 33452:1 33456:1 33698:1 33700:1 33701:1 33702:1 33703:1 33704:1 33705:1 33706:1 33707:1 33712:1 33713:1 33714:1 33715:1 33716:1 33717:1 33718:1 33719:1 33720:1 36044:1 36047:1 36057:1 36058:1 36061:1 36062:1 36064:1 36065:1 36067:1 36068:1 36070:1 36072:1 36073:1 36075:1 36076:1 36078:1 36081:1 36091:1 36093:1 36107:1 36110:1 36111:1 36113:1 36123:1 36126:1 36128:1 36227:1 36235:1 36278:1 36302:1 36312:1 36314:1 36316:1 36349:1 36361:1 36470:1 36471:1 36529:1 36534:1 36660:1 36672:1 36840:1 36923:1 36924:1 36969:1 36975:1 37026:1 37042:1 37045:1 37112:1 37185:1 37202:1 37326:1 37362:1 37487:1 37805:1 37823:1 37824:1 38006:1 39363:1 39364:1 39365:1 39366:1 39367:1 39368:1 39369:1 39370:1 39371:1 39372:1 39373:1 39374:1 39375:1 39376:1 39377:1 39378:1 39379:1 39380:1 39381:1 39382:1 39383:1 39384:1  |EV| 
0.016576924838043252674602001661697 1:1 11:1 27:1 28:1 45:1 56:1 130:1 145:1 163:1 181:1 188:1 271:1 285:1 298:1 304:1 354:1 393:1 425:1 517:1 614:1 615:1 616:1 617:1 618:1 619:1 620:1 621:1 622:1 623:1 624:1 625:1 626:1 627:1 628:1 629:1 630:1 631:3 632:1 2199:1 2200:1 2201:1 2204:1 2205:1 2208:1 2209:1 2211:1 2213:1 2217:1 2219:1 2228:1 2243:1 2252:1 2258:1 2284:1 2296:1 2317:1 2344:1 2359:1 2366:1 2450:1 2461:1 2477:1 2527:1 2559:1 2576:1 2630:1 2707:1 2708:1 2709:1 2710:1 2711:1 2712:1 2713:1 2714:1 2715:1 2716:1 2717:1 2718:1 2719:1 2720:1 2721:1 2722:1 2723:1 3812:1 3813:62 3814:1 3815:3 3816:1 3817:1 3820:1 3824:1 3825:1 3828:1 3829:1 3847:1 3954:1 3955:1 3956:1 3957:1 4571:1 4573:1 5376:1 5382:1 5387:1 5388:1 5393:1 5394:1 5395:1 5396:1 5397:1 5398:1 5400:1 5410:1 5411:1 5418:1 5419:1 5424:1 5425:1 5427:1 5428:1 5429:1 5432:1 5433:1 5434:1 5435:1 5437:1 5439:1 5440:1 5441:1 5442:1 5443:1 5444:1 5445:1 5447:1 5474:1 5475:1 5477:1 5478:1 5479:1 5480:1 5482:1 5483:1 5484:1 5487:1 5493:1 5498:1 5499:1 5504:1 5506:1 5508:1 5509:1 5511:1 5521:1 5522:1 5529:1 5531:1 5539:1 5540:1 5542:1 5543:1 5544:1 5545:1 5546:1 5548:1 5550:1 5552:1 5553:1 5554:1 5555:1 5558:1 5585:1 5586:1 5588:1 5590:1 5591:1 5592:1 5593:1 5606:1 5613:1 5614:1 5615:1 5616:1 5617:1 5619:1 5620:1 5621:1 5622:1 5623:1 5624:1 5723:1 5724:1 5742:1 5771:1 5796:1 5797:1 5810:1 5811:1 5813:1 5848:1 5849:1 5851:1 5853:1 5854:1 5855:1 5856:1 5916:1 5919:1 5921:1 5929:1 5959:1 6037:1 6038:1 6074:1 6149:1 6150:1 6154:1 6204:1 6205:1 6206:1 6217:1 6218:1 6275:1 6337:1 6338:1 6339:1 6340:1 6341:1 6346:1 6347:1 6382:1 6409:1 6410:1 6411:1 6414:1 6419:1 6521:1 6522:1 6523:1 6524:1 6525:1 6526:1 6527:1 6528:1 6554:1 6555:1 6606:1 6609:1 6646:1 6664:1 6675:1 6688:1 6730:1 6962:1 7009:1 7010:1 7032:1 7839:1 7840:1 7852:1 7853:1 7863:1 7869:1 7977:1 7978:1 8359:1 8655:1 8656:1 8953:1 8973:1 8974:1 8975:1 8976:1 8977:1 8978:1 8979:1 8980:1 8981:1 8982:1 8983:1 8984:1 8993:1 8998:1 9001:1 9002:1 9003:1 9004:1 9005:1 9006:1 9007:1 9008:1 9009:1 9010:1 9011:1 9012:1 9013:1 9014:1 16463:1 16465:1 16487:1 16512:1 16520:1 16521:1 16522:1 16552:1 16553:1 16554:1 16562:1 16564:1 16576:1 16630:1 16631:1 16642:1 16658:1 16695:1 16765:1 16772:1 16775:1 16799:1 16809:1 16857:1 17164:1 17862:1 17863:1 17864:1 17865:1 17866:1 17867:1 17868:1 17869:1 17874:1 17875:1 17876:1 17877:1 17878:1 17879:1 21504:1 21507:5 21508:1 21520:1 21528:1 21540:1 21548:1 21605:1 21606:1 21607:1 21612:1 21639:1 21640:1 21641:1 21758:1 21808:1 21809:1 21810:1 21826:1 21827:1 21828:1 21915:1 21919:1 23369:1 23384:1 23814:1 23815:1 23816:1 23817:1 23818:1 23819:1 23820:1 23821:1 23822:1 23823:1 29709:2 29711:1 29712:1 29713:1 29717:1 29718:1 29719:1 29736:1 29738:1 29739:1 29747:1 29748:1 29749:1 29751:1 29769:1 29770:1 29799:1 29800:1 29810:1 29811:1 29823:1 29825:1 29826:1 29828:1 29829:1 29834:1 29911:1 29913:1 29915:1 30023:1 30025:1 30026:1 30826:1 31206:1 31207:1 31213:1 31214:1 31215:1 31216:1 36044:1 36047:1 36073:1 36093:1 36107:1 36110:1 36111:1 36146:1 36165:1 36841:1 36842:1 36940:1 37282:1 37283:1 37284:1 37285:1 37286:1  |EV| 
0.014645689453229433080183596871393 1:1 9:1 32:1 40:1 44:1 45:1 97:1 361:1 363:1 364:1 367:1 369:1 370:1 371:1 372:1 2201:1 2204:1 2211:1 2215:1 2227:1 2228:1 2250:1 2273:1 2284:1 2290:1 2513:1 2515:1 2516:1 2519:1 2520:1 2521:1 2522:1 3812:1 3813:16 3814:1 3815:1 3816:1 3820:1 3821:1 3824:1 3828:1 3831:1 3832:1 3894:1 3895:1 3896:1 3897:1 4571:1 4572:1 4573:1 4593:1 4695:1 4696:1 4697:1 5376:1 5382:1 5388:1 5393:1 5394:1 5395:1 5397:1 5398:1 5400:1 5401:1 5403:1 5404:1 5405:1 5406:1 5418:1 5419:1 5420:1 5421:1 5424:1 5425:1 5427:1 5428:1 5429:1 5432:1 5433:1 5434:1 5435:1 5437:1 5439:1 5441:1 5442:1 5443:1 5444:1 5447:1 5474:1 5475:1 5477:1 5478:1 5479:1 5480:1 5482:1 5487:1 5493:1 5499:1 5504:1 5505:1 5506:1 5507:1 5508:1 5509:1 5529:1 5530:1 5531:1 5542:1 5543:1 5545:1 5548:1 5559:1 5560:1 5561:1 5562:1 5563:1 5564:1 5565:1 5566:1 5567:1 5570:1 5571:1 5606:1 5608:1 5613:1 5614:1 5615:1 5616:1 5617:1 5620:1 5621:1 5622:1 5623:1 5624:1 5631:1 5646:1 5652:1 5677:1 5739:1 5750:1 5751:1 5758:1 5759:1 5762:1 5763:1 5768:1 5771:1 5772:1 5776:1 5792:1 5800:1 5809:1 5810:1 5811:1 5813:1 5815:1 5816:1 5833:1 5834:1 5837:1 5838:1 5848:1 5849:1 5851:1 5853:1 5854:1 5855:1 5856:1 5884:1 5885:1 5946:1 5947:1 6052:1 6053:1 6055:1 6056:1 6057:1 6074:1 6204:1 6205:1 6206:1 6215:1 6216:1 6219:1 6220:1 6221:1 6229:1 6275:1 6298:1 6299:1 6300:1 6301:1 6302:1 6303:1 6304:1 6306:1 6307:1 6308:1 6309:1 6310:1 6311:1 6324:1 6346:1 6419:1 6495:1 6498:1 6626:1 6627:1 6636:1 6637:1 6673:1 6674:1 6675:1 6676:1 6686:1 6694:1 6695:1 6702:1 6719:1 6853:1 6856:1 6857:1 6858:1 6904:1 6906:1 6999:1 7055:1 7078:1 7081:1 7082:1 7274:1 7275:1 7278:1 7279:1 7280:1 7283:1 7440:1 7441:1 7677:1 7678:1 7693:1 7761:1 7762:1 7763:1 7764:1 7798:1 7803:1 7804:1 7805:1 7806:1 7807:1 7808:1 7809:1 7810:1 7811:1 7812:1 7813:1 7814:1 7815:1 7816:1 7817:1 7818:1 7819:1 7820:1 7821:1 7822:1 7823:1 7824:1 7825:1 7826:1 7827:1 16427:1 16428:1 16451:1 16460:1 16463:1 16493:1 16494:1 16496:1 16512:1 16617:1 16647:1 16648:1 16741:1 16837:1 16854:1 16858:1 16859:1 16860:1 16861:1 16862:1 16868:1 16869:1 16871:1 16872:1 16873:1 16874:1 16878:1 16910:1 16983:1 17083:1 17303:1 17304:1 17305:1 17306:1 17307:1 17308:1 17309:1 17310:1 17311:1 17312:1 17313:1 17314:1 21504:1 21507:3 21508:1 21510:1 21512:1 21530:1 21532:1 21608:1 21781:1 21782:1 21783:1 21811:1 21812:1 21841:1 21842:1 21843:1 21844:1 21877:1 21878:1 29709:2 29711:1 29712:1 29713:1 29714:1 29715:1 29718:1 29719:1 29728:1 29736:1 29738:1 29739:1 29740:1 29741:1 29744:1 29745:1 29747:1 29748:1 29749:1 29751:1 29752:1 29753:1 29754:1 29757:1 29769:1 29770:1 29794:1 29798:1 29799:1 29800:1 29811:1 29812:1 29815:1 29823:1 29825:1 29828:1 29834:1 29835:1 29875:1 29889:1 29890:1 29891:1 29962:1 29969:1 30031:1 30035:1 30046:1 30072:1 30126:1 30127:1 30128:1 30130:1 30131:1 30132:1 30133:1 30134:1 30135:1 30136:1 30137:1 30138:1 30139:1 30142:1 30510:1 30511:1 30570:1 30575:1 30576:1 30577:1 30578:1 36044:1 36047:1 36052:1 36091:1 36190:1 36223:1 36224:1 36225:1 36827:1 36835:1 36836:1  |EV| 
-0.011504375820542126276913030835658 2:1 9:1 49:1 63:1 130:1 763:1 1393:1 1802:1 1804:1 1808:1 1809:2 2199:1 2200:1 2219:1 2236:1 2317:1 2385:1 2792:1 2880:1 3551:1 3554:1 3812:2 3813:9 3814:1 3815:1 3816:1 3817:1 3821:1 3824:1 3825:1 3828:1 3834:1 4099:1 4424:1 4425:1 4427:1 4428:1 4571:1 4572:1 4573:1 4574:1 4586:1 4650:1 4712:1 4796:1 4817:1 4908:1 4919:1 4920:1 4921:1 4922:1 4923:1 4924:1 4925:1 4926:1 4927:1 4965:1 4966:1 5067:1 5080:1 5266:1 5267:1 5268:1 5376:1 5382:1 5384:1 5385:1 5388:1 5390:1 5391:1 5393:1 5410:1 5411:1 5412:1 5413:1 5414:1 5418:1 5419:1 5420:1 5421:1 5483:1 5484:1 5487:1 5493:1 5495:1 5496:1 5499:1 5501:1 5502:1 5504:1 5511:1 5521:1 5522:1 5523:1 5524:1 5525:1 5529:1 5530:1 5531:1 5532:1 5535:1 5536:1 5538:1 5539:1 5540:1 5542:1 5543:1 5544:1 5545:1 5546:1 5547:1 5548:1 5549:1 5585:1 5586:1 5587:1 5588:1 5589:1 5590:1 5591:1 5592:1 5593:1 5606:1 5607:1 5613:1 5614:1 5615:1 5616:1 5617:1 5619:1 5620:1 5621:1 5622:1 5623:1 5624:1 5711:1 5714:1 5716:1 5723:1 5724:1 5764:1 5767:1 5771:1 5813:1 5919:1 5929:1 5934:1 5942:1 5943:1 5944:1 5945:1 5977:1 5978:1 5990:1 5991:1 5994:1 5995:1 6039:1 6040:1 6047:1 6048:1 6275:1 6318:1 6366:1 6713:1 6714:1 6716:1 6717:1 6718:1 6720:1 6942:1 6943:1 7588:1 7589:1 7658:1 7659:1 8153:1 8154:1 8204:1 8210:1 8618:1 8619:1 8727:1 9537:1 9538:1 10660:1 11581:1 11582:1 11758:1 11763:1 14058:1 14059:1 14064:1 14065:1 14363:1 14364:1 14367:1 14370:1 14380:1 14428:1 14429:1 14430:1 14431:1 14432:1 14433:1 14434:1 14435:1 16451:1 16454:1 16487:1 16553:1 16563:1 16585:1 16596:1 16657:1 16740:1 16741:1 16742:1 16743:1 16757:1 16758:1 16809:1 16822:1 16823:1 16856:1 16857:1 16952:1 16953:1 16954:1 17071:1 17072:1 17073:1 17124:1 17125:1 17197:1 17451:1 17452:1 17503:1 17616:1 17688:1 17700:1 17736:1 19155:1 20430:1 20443:1 20444:1 20445:1 20446:1 20447:1 20448:1 20449:1 20450:1 21505:1 21507:3 21508:1 21532:1 21546:1 21739:1 21764:1 22159:1 22160:1 22213:1 22228:1 22351:1 22352:1 22353:1 22357:1 22358:1 22359:1 23474:1 23475:1 29709:5 29711:1 29712:1 29713:1 29714:1 29715:1 29717:1 29718:1 29719:1 29722:1 29726:1 29727:1 29728:1 29729:1 29730:1 29731:1 29732:1 29733:1 29736:1 29737:1 29738:1 29739:1 29740:1 29741:1 29744:1 29745:1 29746:1 29747:1 29748:1 29749:1 29751:1 29762:1 29763:1 29764:1 29767:1 29768:1 29769:1 29770:1 29799:1 29800:1 29802:1 29808:1 29811:1 29817:1 29819:1 29821:1 29822:1 29823:1 29825:1 29826:1 29828:1 29829:1 29860:1 29864:1 29874:1 29878:1 29884:1 29892:1 29894:1 29895:1 29903:1 29932:1 29979:1 29983:1 29984:1 29991:1 29993:1 30004:1 30006:1 30007:1 30008:1 30199:1 30200:1 30345:1 30352:1 30512:1 30784:1 30792:1 32806:1 34600:1 34602:1 34613:1 34614:1 34615:1 34616:1 34617:1 34618:1 34619:1 34620:1 34621:1 34622:1 34623:1 34624:1 34625:1 34626:1 34627:1 34628:1 34629:1 36044:1 36047:1 36052:1 36190:1 36263:1 36381:1 36444:1 40209:1 40225:1 40226:1 40227:1  |EV| 
-0.0063064148151346088866375794168562 2:1 9:1 32:1 40:1 44:1 163:1 304:1 305:1 361:1 365:1 366:1 367:1 383:1 384:1 385:1 386:1 2204:1 2205:1 2215:1 2227:1 2276:1 2344:1 2406:1 2513:1 2517:1 2518:1 2529:1 2530:1 3812:2 3813:12 3814:1 3815:1 3816:1 3821:1 3824:1 3825:1 3828:1 3831:1 3832:1 3834:1 3894:1 3895:1 3897:1 4571:1 4572:1 4573:1 4593:1 4695:1 4696:1 4697:1 5376:1 5382:1 5384:1 5385:1 5388:1 5390:1 5391:1 5393:1 5395:1 5400:1 5410:1 5411:1 5412:1 5413:1 5414:1 5418:1 5419:1 5420:1 5421:1 5444:1 5445:1 5447:1 5448:1 5449:1 5450:1 5451:1 5452:1 5453:1 5454:1 5455:1 5456:1 5459:1 5460:1 5461:1 5487:1 5493:1 5499:1 5504:1 5505:1 5506:1 5507:1 5512:1 5513:1 5514:1 5515:1 5516:1 5517:1 5518:1 5529:1 5531:1 5535:1 5538:1 5542:1 5555:1 5606:1 5613:1 5614:1 5615:1 5616:1 5617:1 5619:1 5620:1 5621:1 5622:1 5623:1 5624:1 5652:1 5768:1 5769:1 5771:1 5772:1 5773:1 5776:1 5809:1 5813:1 5914:1 5950:1 5951:1 5977:1 5978:1 5979:1 5980:1 5987:1 5990:1 5991:1 5994:1 5995:1 5999:1 6000:1 6002:1 6003:1 6004:1 6149:1 6150:1 6198:1 6318:1 6366:1 6444:1 6646:1 6728:1 7487:1 7488:1 7493:1 7526:1 7527:1 7571:1 7572:1 7765:1 7766:1 7769:1 7770:1 7778:1 7779:1 7787:1 7788:1 7791:1 7792:1 7798:1 7803:1 7820:1 7865:1 7866:1 7876:1 7877:1 7878:1 7879:1 7880:1 7883:1 7884:1 16427:1 16428:1 16463:1 16487:1 16512:1 16523:1 16524:1 16527:1 16556:1 16568:1 16569:1 16570:1 16617:1 16664:1 16837:1 16854:1 16858:1 16859:1 17197:1 17330:1 17331:1 17334:1 17335:1 17336:1 17337:1 17339:1 17340:1 17343:1 17344:1 17345:1 17348:1 17349:1 17350:1 17351:1 17352:1 17353:1 21504:1 21507:4 21508:1 21510:1 21512:1 21528:1 21530:1 21532:1 21548:1 21608:1 21781:1 21782:1 21783:1 21811:1 21812:1 21841:1 21842:1 21843:1 21844:1 21877:1 21878:1 22231:1 22370:1 23156:1 23157:1 23160:1 23161:1 29709:4 29711:1 29712:1 29713:1 29714:1 29715:1 29717:1 29718:1 29719:1 29728:1 29729:1 29730:1 29731:1 29732:1 29736:1 29737:1 29738:1 29739:1 29740:1 29741:1 29744:1 29745:1 29748:1 29749:1 29751:1 29752:1 29753:1 29754:1 29757:1 29762:1 29763:1 29764:1 29797:1 29798:1 29799:1 29800:1 29802:1 29807:1 29808:1 29811:1 29822:1 29823:1 29825:1 29826:1 29828:1 29829:1 29860:1 29864:1 29889:1 29890:1 29891:1 29892:1 29893:1 29897:1 29901:1 29902:1 29962:1 29965:1 29969:1 30005:1 30053:1 30061:1 30072:1 30435:1 30456:1 30554:1 30555:1 30556:1 30561:1 30564:1 30567:1 30568:1 30569:1 30570:1 30616:1 30617:1 30618:1 30619:1 30620:1 30621:1 30622:1 30623:1 30624:1 30625:1 30626:1 30627:1 36044:1 36047:1 36052:1 36078:1 36170:1 36172:1 36173:1 36175:1 36227:1 36314:1 36827:1 36835:1 36862:1 36863:1  |EV| 
-0.0091293747828028546514866903294205 1:1 9:1 21:1 119:1 131:1 163:1 219:1 223:1 226:1 1914:1 2181:1 2182:1 2201:1 2203:1 2217:1 2219:1 2250:1 2281:1 2308:1 2318:1 2344:1 2393:1 2397:1 3629:1 3803:1 3812:1 3813:12 3814:1 3815:1 3816:1 3820:1 3821:1 3824:1 3825:1 3828:1 3829:1 3903:1 3905:1 4563:1 4564:1 4571:1 4613:1 4615:1 4616:1 4617:1 4618:1 4619:1 4620:1 4906:1 5363:1 5364:1 5376:1 5382:1 5384:1 5385:1 5388:1 5393:1 5397:1 5398:1 5410:1 5411:1 5412:1 5413:1 5414:1 5418:1 5419:1 5420:1 5421:1 5483:1 5484:1 5487:1 5493:1 5495:1 5496:1 5499:1 5504:1 5506:1 5508:1 5509:1 5510:1 5511:1 5521:1 5522:1 5523:1 5524:1 5525:1 5529:1 5539:1 5540:1 5542:1 5543:1 5544:1 5545:1 5546:1 5548:1 5555:1 5556:1 5558:1 5585:1 5586:1 5588:1 5590:1 5591:1 5592:1 5593:1 5595:1 5603:1 5604:1 5606:1 5607:1 5608:1 5609:1 5610:1 5611:1 5613:1 5614:1 5615:1 5616:1 5617:1 5619:1 5620:1 5621:1 5622:1 5623:1 5624:1 5646:1 5677:1 5711:1 5713:1 5714:1 5715:1 5716:1 5749:1 5750:1 5751:1 5758:1 5759:1 5762:1 5763:1 5764:1 5767:1 5813:1 5815:1 5816:1 5833:1 5834:1 5837:1 5838:1 5839:1 5840:1 5841:1 5842:1 5843:1 5844:1 5845:1 5977:1 5978:1 5990:1 5991:1 5994:1 5995:1 5999:1 6000:1 6002:1 6003:1 6004:1 6189:1 6190:1 6209:1 6210:1 6467:1 6468:1 6489:1 6490:1 6632:1 6633:1 6690:1 6857:1 6858:1 6960:1 6961:1 7026:1 7027:1 7033:1 7039:1 7096:1 7097:1 7351:1 7352:1 8116:1 8117:1 14844:1 14845:1 14846:1 14847:1 14850:1 14851:1 14852:1 14853:1 16317:1 16318:1 16427:1 16428:1 16433:1 16435:1 16448:1 16454:1 16487:1 16488:1 16556:1 16596:1 16740:1 16742:1 16803:1 16812:1 16936:1 16937:1 16948:1 16949:1 16964:1 16997:1 16998:1 16999:1 17262:1 17263:1 17329:1 17483:1 17782:1 18244:1 18245:1 19932:1 19933:1 21425:1 21426:1 21504:1 21506:1 21507:9 21510:1 21512:1 21520:1 21524:1 21526:1 21528:1 21530:1 21532:1 21540:1 21544:1 21546:1 21548:1 21549:1 21550:1 21555:1 21556:1 21719:1 21720:1 21721:1 21829:1 21830:1 21831:1 21888:1 21889:1 21890:1 21938:1 21939:1 21940:1 21959:1 21960:1 21961:1 22091:1 22093:1 22124:1 22125:1 22126:1 22132:1 22134:1 22161:1 22162:1 22163:1 22269:1 22270:1 22282:1 22283:1 23333:1 23334:1 23335:1 23348:1 23349:1 23350:1 23734:1 23735:1 23736:1 29709:2 29711:1 29712:1 29713:1 29714:1 29715:1 29717:1 29718:1 29719:1 29720:1 29728:1 29729:1 29736:1 29738:1 29739:1 29740:1 29741:1 29744:1 29745:1 29747:1 29748:1 29749:1 29751:1 29769:1 29770:1 29794:1 29811:1 29812:1 29815:1 29817:1 29818:1 29819:1 29821:1 29822:1 29825:1 29834:1 29860:1 29862:1 29864:1 29889:1 29890:1 29891:1 29947:1 29957:1 30085:1 30412:1 30413:1 30739:1 30757:1 30760:1 30761:1 30954:1 31196:1 35970:1 36044:1 36047:1 36052:1 36061:1 36062:1 36064:1 36067:1 36068:1 36105:1 36107:1 36108:1 36110:1 36113:1 36170:1 36172:1 36331:1 36361:1 36470:1 36949:1 36963:1 36975:1 38430:1 40494:1 41437:1 41438:1 41439:1  |EV| 
0.011135281506852903743443050643691 1:1 10:1 24:1 31:1 33:1 97:1 130:1 254:1 336:1 440:1 528:1 534:1 544:1 698:1 808:1 814:1 897:1 1022:1 1595:1 2077:1 2102:1 2104:1 2199:1 2205:1 2207:1 2211:1 2213:1 2214:1 2216:1 2217:1 2219:1 2223:1 2232:1 2290:1 2317:1 2370:1 2533:1 2571:1 2639:1 2654:1 2776:1 2863:1 2921:1 3750:1 3812:1 3813:21 3814:1 3815:2 3816:1 3817:1 3820:1 3824:1 3825:1 3828:1 3829:1 3830:1 4354:1 4355:1 4524:1 4525:1 4571:1 4589:1 4591:1 4592:1 4870:1 4872:1 4874:1 5103:1 5343:1 5344:1 5376:1 5381:1 5382:1 5384:1 5385:1 5388:1 5390:1 5391:1 5393:1 5394:1 5395:1 5396:1 5400:1 5410:1 5411:1 5412:1 5413:1 5414:1 5415:1 5416:1 5418:1 5419:1 5422:1 5423:1 5424:1 5425:1 5427:1 5428:1 5429:1 5431:1 5432:1 5433:1 5434:1 5435:1 5437:1 5444:1 5445:1 5447:1 5463:1 5474:1 5475:1 5477:1 5478:1 5479:1 5480:1 5482:1 5487:1 5492:1 5493:1 5495:1 5496:1 5499:1 5501:1 5502:1 5504:1 5505:1 5506:1 5507:1 5511:1 5521:1 5522:1 5523:1 5524:1 5525:1 5526:1 5527:1 5529:1 5530:1 5531:1 5533:1 5534:1 5535:1 5536:1 5538:1 5539:1 5540:1 5542:1 5543:1 5544:1 5545:1 5546:1 5548:1 5555:1 5556:1 5558:1 5574:1 5576:1 5581:1 5595:1 5603:1 5604:1 5606:1 5607:1 5608:1 5609:1 5610:1 5611:1 5613:1 5614:1 5615:1 5616:1 5617:1 5620:1 5621:1 5622:1 5623:1 5624:1 5625:1 5626:1 5628:1 5631:1 5638:1 5639:1 5640:1 5641:1 5642:1 5643:1 5644:1 5645:1 5646:1 5647:1 5648:1 5649:1 5650:1 5651:1 5656:1 5657:1 5659:1 5662:1 5669:1 5670:1 5671:1 5672:1 5673:1 5674:1 5675:1 5676:1 5677:1 5678:1 5679:1 5680:1 5681:1 5682:1 5687:1 5689:1 5690:1 5692:1 5693:1 5694:1 5695:1 5696:1 5697:1 5698:1 5699:1 5700:1 5701:1 5711:1 5713:1 5714:1 5715:1 5716:1 5723:1 5724:1 5742:1 5764:1 5767:1 5768:1 5769:1 5771:1 5772:1 5773:1 5810:1 5811:1 5813:1 5839:1 5840:1 5842:1 5844:1 5845:1 5846:1 5847:1 5848:1 5849:1 5850:1 5851:1 5852:1 5853:1 5854:1 5855:1 5856:1 5881:1 5892:1 5893:1 5912:1 5916:1 5919:1 5921:1 5925:1 5929:1 5934:1 5990:1 5991:1 5994:1 5995:1 6025:1 6026:1 6052:1 6055:1 6056:1 6065:1 6066:1 6069:1 6070:1 6074:1 6075:1 6108:1 6211:1 6212:1 6275:1 6277:1 6278:1 6279:1 6280:1 6281:1 6282:1 6337:1 6338:1 6339:1 6340:1 6341:1 6346:1 6347:1 6358:1 6359:1 6368:1 6369:1 6388:1 6389:1 6391:1 6393:1 6394:1 6395:1 6396:1 6495:1 6498:1 6546:1 6547:1 6606:1 6609:1 6713:1 6714:1 6716:1 6717:1 6718:1 6720:1 7288:1 7289:1 7290:1 7291:1 7621:1 7622:1 7695:1 7696:1 8128:1 8129:1 8131:1 8132:1 8143:1 8144:1 8204:1 8310:1 8639:1 8640:1 8642:1 8653:1 8947:1 9676:1 10368:1 10468:1 11331:1 11332:1 11333:1 11334:1 11755:1 11756:1 11778:1 11781:1 11812:1 11871:1 12613:1 12923:1 13315:1 13513:1 13514:1 13577:1 13591:1 13598:1 13776:1 13784:1 14260:1 14261:1 15709:1 15871:1 15874:1 15877:1 15878:1 15881:1 15882:1 15883:1 15884:1 15885:1 15886:1 15887:1 15888:1 16427:1 16428:1 16433:1 16435:1 16451:1 16487:1 16488:1 16494:1 16495:1 16496:1 16497:1 16505:1 16506:1 16507:1 16596:1 16694:1 16695:1 16812:1 16856:1 16857:1 16936:1 16937:1 16939:1 16940:1 16941:1 16975:1 17124:1 17125:1 17126:1 17164:1 17169:1 17170:1 17171:1 17735:1 19209:1 21041:1 21129:1 21130:1 21131:1 21132:1 21135:1 21136:1 21505:1 21506:1 21507:14 21530:1 21532:1 21535:1 21536:1 21540:1 21544:1 21546:1 21548:1 21557:1 21558:1 21559:1 21560:1 21568:1 21582:1 21583:1 21584:1 21585:1 21586:1 21594:1 21598:1 21602:1 21603:1 21604:1 21612:1 21626:1 21627:1 21628:1 21639:1 21640:1 21641:1 21681:1 21739:1 21760:1 21764:1 21888:1 21889:1 21890:1 21993:1 21994:1 21995:1 22078:1 22079:1 22080:1 22081:1 22743:1 22744:1 22745:1 22746:1 23005:1 23006:1 23027:1 23028:1 23352:1 23353:1 23354:1 23355:1 23587:1 23588:1 23592:1 23593:1 24341:1 24343:1 24435:1 24437:1 26066:1 26067:1 26071:1 26072:1 27379:1 27380:1 27381:1 28511:1 28512:1 28513:1 29273:1 29274:1 29275:1 29276:1 29277:1 29278:1 29279:1 29280:1 29281:1 29282:1 29709:2 29711:1 29712:1 29713:1 29717:1 29718:1 29719:1 29720:1 29736:1 29737:1 29738:1 29739:1 29747:1 29748:1 29749:1 29751:1 29759:1 29767:1 29768:1 29769:1 29770:1 29792:1 29793:1 29794:1 29811:1 29815:1 29817:1 29819:1 29821:1 29822:1 29825:1 29834:1 29848:1 29911:1 29913:1 29915:1 29945:1 29957:1 29984:1 30023:1 30025:1 30504:1 30740:1 30765:1 34173:1 35624:1 35627:1 35628:1 35629:1 35630:1 35631:1 35632:1 35633:1 35634:1 36044:1 36047:1 36052:1 36053:1 36067:1 36068:1 36070:1 36075:1 36093:1 36107:1 36110:1 36131:1 36132:1 36137:1 36162:1 36169:1 36193:1 36361:1 36681:1 36795:1 36797:1 36798:1 36962:1 37019:1 37186:1 37187:1 37266:1 39697:1 40502:1 40988:1 41104:1 41105:1 41106:1 41107:1 41108:1 41109:1 41110:1 41111:1 41112:1 41113:1  |EV| 
